<?xml version="1.0"?>
<MethodSetup Method="BDT::BDTG">
  <GeneralInfo>
    <Info name="TMVA Release" value="4.2.1 [262657]"/>
    <Info name="ROOT Release" value="6.12/07 [396295]"/>
    <Info name="Creator" value="zzshi"/>
    <Info name="Date" value="Tue Jul  2 08:20:50 2019"/>
    <Info name="Host" value="Linux vocms0315.cern.ch 2.6.32-696.30.1.el6.x86_64 #1 SMP Tue May 22 06:09:36 CEST 2018 x86_64 x86_64 x86_64 GNU/Linux"/>
    <Info name="Dir" value="/export/d00/scratch/zzshi/CMSSW_10_3_2/src/JingTMVA/TMVA/BmesonRun2018/tmva/train"/>
    <Info name="Training events" value="375"/>
    <Info name="TrainingTime" value="2.08259821e-01"/>
    <Info name="AnalysisType" value="Classification"/>
  </GeneralInfo>
  <Options>
    <Option name="V" modified="Yes">False</Option>
    <Option name="VerbosityLevel" modified="No">Default</Option>
    <Option name="VarTransform" modified="No">None</Option>
    <Option name="H" modified="Yes">False</Option>
    <Option name="CreateMVAPdfs" modified="No">False</Option>
    <Option name="IgnoreNegWeightsInTraining" modified="No">False</Option>
    <Option name="NTrees" modified="Yes">1000</Option>
    <Option name="MaxDepth" modified="Yes">2</Option>
    <Option name="MinNodeSize" modified="Yes">2.5%</Option>
    <Option name="nCuts" modified="Yes">20</Option>
    <Option name="BoostType" modified="Yes">Grad</Option>
    <Option name="AdaBoostR2Loss" modified="No">quadratic</Option>
    <Option name="UseBaggedBoost" modified="Yes">True</Option>
    <Option name="Shrinkage" modified="Yes">1.000000e-01</Option>
    <Option name="AdaBoostBeta" modified="No">5.000000e-01</Option>
    <Option name="UseRandomisedTrees" modified="No">False</Option>
    <Option name="UseNvars" modified="No">4</Option>
    <Option name="UsePoissonNvars" modified="No">True</Option>
    <Option name="BaggedSampleFraction" modified="Yes">5.000000e-01</Option>
    <Option name="UseYesNoLeaf" modified="No">True</Option>
    <Option name="NegWeightTreatment" modified="No">pray</Option>
    <Option name="Css" modified="No">1.000000e+00</Option>
    <Option name="Cts_sb" modified="No">1.000000e+00</Option>
    <Option name="Ctb_ss" modified="No">1.000000e+00</Option>
    <Option name="Cbb" modified="No">1.000000e+00</Option>
    <Option name="NodePurityLimit" modified="No">5.000000e-01</Option>
    <Option name="SeparationType" modified="No">giniindex</Option>
    <Option name="RegressionLossFunctionBDTG" modified="No">huber</Option>
    <Option name="HuberQuantile" modified="No">7.000000e-01</Option>
    <Option name="DoBoostMonitor" modified="No">False</Option>
    <Option name="UseFisherCuts" modified="No">False</Option>
    <Option name="MinLinCorrForFisher" modified="No">8.000000e-01</Option>
    <Option name="UseExclusiveVars" modified="No">False</Option>
    <Option name="DoPreselection" modified="No">False</Option>
    <Option name="SigToBkgFraction" modified="No">1.000000e+00</Option>
    <Option name="PruneMethod" modified="No">nopruning</Option>
    <Option name="PruneStrength" modified="No">0.000000e+00</Option>
    <Option name="PruningValFraction" modified="No">5.000000e-01</Option>
    <Option name="SkipNormalization" modified="No">False</Option>
    <Option name="nEventsMin" modified="No">0</Option>
    <Option name="UseBaggedGrad" modified="No">False</Option>
    <Option name="GradBaggingFraction" modified="No">5.000000e-01</Option>
    <Option name="UseNTrainEvents" modified="No">0</Option>
    <Option name="NNodesMax" modified="No">0</Option>
  </Options>
  <Variables NVar="14">
    <Variable VarIndex="0" Expression="Btrk1Pt" Label="Btrk1Pt" Title="Btrk1Pt" Unit="" Internal="Btrk1Pt" Type="F" Min="1.00266623e+00" Max="2.90899038e+00"/>
    <Variable VarIndex="1" Expression="Btrk2Pt" Label="Btrk2Pt" Title="Btrk2Pt" Unit="" Internal="Btrk2Pt" Type="F" Min="1.00168264e+00" Max="3.20237041e+00"/>
    <Variable VarIndex="2" Expression="abs(Btrk1Dz1/Btrk1DzError1)" Label="Trk1DCAz" Title="Trk1DCAz" Unit="" Internal="Trk1DCAz" Type="F" Min="2.30125219e-01" Max="3.36003838e+01"/>
    <Variable VarIndex="3" Expression="abs(Btrk2Dz1/Btrk2DzError1)" Label="Trk2DCAz" Title="Trk2DCAz" Unit="" Internal="Trk2DCAz" Type="F" Min="2.09758639e-01" Max="3.78610954e+01"/>
    <Variable VarIndex="4" Expression="abs(Btrk1Dxy1/Btrk1DxyError1)" Label="Trk1DCAxy" Title="Trk1DCAxy" Unit="" Internal="Trk1DCAxy" Type="F" Min="1.00212252e+00" Max="1.79696274e+01"/>
    <Variable VarIndex="5" Expression="abs(Btrk2Dxy1/Btrk2DxyError1)" Label="Trk2DCAxy" Title="Trk2DCAxy" Unit="" Internal="Trk2DCAxy" Type="F" Min="1.00321293e+00" Max="2.42086468e+01"/>
    <Variable VarIndex="6" Expression="abs(Btktkmass-1.019455)" Label="MassDis" Title="MassDis" Unit="" Internal="MassDis" Type="F" Min="1.50577546e-06" Max="1.49958571e-02"/>
    <Variable VarIndex="7" Expression="BsvpvDistance/BsvpvDisErr" Label="dls" Title="dls" Unit="" Internal="dls" Type="F" Min="3.00065207e+00" Max="8.73051071e+01"/>
    <Variable VarIndex="8" Expression="Balpha" Label="Balpha" Title="Balpha" Unit="" Internal="Balpha" Type="F" Min="1.30598398e-03" Max="3.13278461e+00"/>
    <Variable VarIndex="9" Expression="Bd0" Label="dls2D" Title="dls2D" Unit="" Internal="dls2D" Type="F" Min="4.56271647e-03" Max="3.25624317e-01"/>
    <Variable VarIndex="10" Expression="cos(Bdtheta)" Label="cos(Bdtheta)" Title="cos(Bdtheta)" Unit="" Internal="cos_Bdtheta_" Type="F" Min="-9.99955058e-01" Max="9.99998212e-01"/>
    <Variable VarIndex="11" Expression="Bchi2cl" Label="Bchi2cl" Title="Bchi2cl" Unit="" Internal="Bchi2cl" Type="F" Min="5.00701405e-02" Max="9.95172977e-01"/>
    <Variable VarIndex="12" Expression="Btrk1Eta" Label="Btrk1Eta" Title="Btrk1Eta" Unit="" Internal="Btrk1Eta" Type="F" Min="-2.38872480e+00" Max="2.38702393e+00"/>
    <Variable VarIndex="13" Expression="Btrk2Eta" Label="Btrk2Eta" Title="Btrk2Eta" Unit="" Internal="Btrk2Eta" Type="F" Min="-2.38976240e+00" Max="2.39315462e+00"/>
  </Variables>
  <Spectators NSpec="0"/>
  <Classes NClass="2">
    <Class Name="Signal" Index="0"/>
    <Class Name="Background" Index="1"/>
  </Classes>
  <Transformations NTransformations="0"/>
  <MVAPdfs/>
  <Weights NTrees="1000" AnalysisType="1">
    <BinaryTree type="DecisionTree" boostWeight="1.0000000000000000e+00" itree="0">
      <Node pos="s" depth="0" NCoef="0" IVar="7" Cut="1.1029647827148438e+01" cType="1" res="2.0750926341861486e-03" rms="4.9999570846557617e-01" purity="5.0207507610321045e-01" nType="0">
        <Node pos="l" depth="1" NCoef="0" IVar="5" Cut="2.8119251728057861e+00" cType="1" res="-4.8721551895141602e-01" rms="1.1234342306852341e-01" purity="1.2784488499164581e-02" nType="0">
          <Node pos="l" depth="2" NCoef="0" IVar="-1" Cut="0.0000000000000000e+00" cType="1" res="-9.9935285747051239e-02" rms="1.7985340207815170e-02" purity="3.2357717282138765e-04" nType="-99"/>
          <Node pos="r" depth="2" NCoef="0" IVar="-1" Cut="0.0000000000000000e+00" cType="1" res="-6.3856042921543121e-02" rms="3.8478586077690125e-01" purity="1.8071979284286499e-01" nType="-99"/>
        </Node>
        <Node pos="r" depth="1" NCoef="0" IVar="11" Cut="3.3842459321022034e-01" cType="1" res="4.5890420675277710e-01" rms="1.9851176440715790e-01" purity="9.5890420675277710e-01" nType="0">
          <Node pos="l" depth="2" NCoef="0" IVar="-1" Cut="0.0000000000000000e+00" cType="1" res="1.4242280274629593e-02" rms="4.9490296840667725e-01" purity="5.7121139764785767e-01" nType="-99"/>
          <Node pos="r" depth="2" NCoef="0" IVar="-1" Cut="0.0000000000000000e+00" cType="1" res="9.8720744252204895e-02" rms="7.9720564186573029e-02" purity="9.9360370635986328e-01" nType="-99"/>
        </Node>
      </Node>
    </BinaryTree>
    <BinaryTree type="DecisionTree" boostWeight="1.0000000000000000e+00" itree="1">
      <Node pos="s" depth="0" NCoef="0" IVar="9" Cut="5.0514634698629379e-02" cType="1" res="2.9750840738415718e-02" rms="4.6198919415473938e-01" purity="5.2227431535720825e-01" nType="0">
        <Node pos="l" depth="1" NCoef="0" IVar="2" Cut="2.9104065895080566e+00" cType="1" res="-3.9325377345085144e-01" rms="2.3568160831928253e-01" purity="5.9133220463991165e-02" nType="0">
          <Node pos="l" depth="2" NCoef="0" IVar="-1" Cut="0.0000000000000000e+00" cType="1" res="-8.8793195784091949e-02" rms="1.1067286878824234e-01" purity="1.2727181427180767e-02" nType="-99"/>
          <Node pos="r" depth="2" NCoef="0" IVar="-1" Cut="0.0000000000000000e+00" cType="1" res="4.3417528271675110e-02" rms="4.7194430232048035e-01" purity="6.6513198614120483e-01" nType="-99"/>
        </Node>
        <Node pos="r" depth="1" NCoef="0" IVar="8" Cut="1.5503297559916973e-02" cType="1" res="4.5513725280761719e-01" rms="1.0638231784105301e-01" purity="9.8802328109741211e-01" nType="0">
          <Node pos="l" depth="2" NCoef="0" IVar="-1" Cut="0.0000000000000000e+00" cType="1" res="9.4306230545043945e-02" rms="2.8233624994754791e-02" purity="1.0000000000000000e+00" nType="-99"/>
          <Node pos="r" depth="2" NCoef="0" IVar="-1" Cut="0.0000000000000000e+00" cType="1" res="7.0173650979995728e-02" rms="2.9245078563690186e-01" purity="8.8880127668380737e-01" nType="-99"/>
        </Node>
      </Node>
    </BinaryTree>
    <BinaryTree type="DecisionTree" boostWeight="1.0000000000000000e+00" itree="2">
      <Node pos="s" depth="0" NCoef="0" IVar="4" Cut="2.6225674152374268e+00" cType="1" res="5.3044345229864120e-02" rms="4.4804376363754272e-01" purity="5.2436524629592896e-01" nType="0">
        <Node pos="l" depth="1" NCoef="0" IVar="11" Cut="8.9586150646209717e-01" cType="1" res="-3.4350112080574036e-01" rms="2.4403999745845795e-01" purity="7.0541240274906158e-02" nType="0">
          <Node pos="l" depth="2" NCoef="0" IVar="-1" Cut="0.0000000000000000e+00" cType="1" res="-8.2603849470615387e-02" rms="9.7559683024883270e-02" purity="1.2809300795197487e-02" nType="-99"/>
          <Node pos="r" depth="2" NCoef="0" IVar="-1" Cut="0.0000000000000000e+00" cType="1" res="5.7873882353305817e-02" rms="4.4000443816184998e-01" purity="7.1285527944564819e-01" nType="-99"/>
        </Node>
        <Node pos="r" depth="1" NCoef="0" IVar="12" Cut="-1.9545454978942871e+00" cType="1" res="4.2498072981834412e-01" rms="2.1758361160755157e-01" purity="9.5002549886703491e-01" nType="0">
          <Node pos="l" depth="2" NCoef="0" IVar="-1" Cut="0.0000000000000000e+00" cType="1" res="5.4592572152614594e-02" rms="3.3493289351463318e-01" purity="8.3705472946166992e-01" nType="-99"/>
          <Node pos="r" depth="2" NCoef="0" IVar="-1" Cut="0.0000000000000000e+00" cType="1" res="9.4040580093860626e-02" rms="1.6645804047584534e-01" purity="9.7322738170623779e-01" nType="-99"/>
        </Node>
      </Node>
    </BinaryTree>
    <BinaryTree type="DecisionTree" boostWeight="1.0000000000000000e+00" itree="3">
      <Node pos="s" depth="0" NCoef="0" IVar="7" Cut="7.0245089530944824e+00" cType="1" res="-8.2051411271095276e-02" rms="3.8727363944053650e-01" purity="3.8386386632919312e-01" nType="0">
        <Node pos="l" depth="1" NCoef="0" IVar="0" Cut="1.7198290824890137e+00" cType="1" res="-3.6756217479705811e-01" rms="1.2038959562778473e-01" purity="1.3692790642380714e-02" nType="0">
          <Node pos="l" depth="2" NCoef="0" IVar="-1" Cut="0.0000000000000000e+00" cType="1" res="-8.1055872142314911e-02" rms="3.1551353633403778e-02" purity="0.0000000000000000e+00" nType="-99"/>
          <Node pos="r" depth="2" NCoef="0" IVar="-1" Cut="0.0000000000000000e+00" cType="1" res="-4.4381625950336456e-02" rms="3.8998994231224060e-01" purity="1.8071979284286499e-01" nType="-99"/>
        </Node>
        <Node pos="r" depth="1" NCoef="0" IVar="8" Cut="3.0058834701776505e-02" cType="1" res="3.0050614476203918e-01" rms="2.7558374404907227e-01" purity="8.7985831499099731e-01" nType="0">
          <Node pos="l" depth="2" NCoef="0" IVar="-1" Cut="0.0000000000000000e+00" cType="1" res="7.9585358500480652e-02" rms="1.4404098689556122e-01" purity="9.6945184469223022e-01" nType="-99"/>
          <Node pos="r" depth="2" NCoef="0" IVar="-1" Cut="0.0000000000000000e+00" cType="1" res="-9.2810064554214478e-02" rms="8.8293090462684631e-02" purity="0.0000000000000000e+00" nType="-99"/>
        </Node>
      </Node>
    </BinaryTree>
    <BinaryTree type="DecisionTree" boostWeight="1.0000000000000000e+00" itree="4">
      <Node pos="s" depth="0" NCoef="0" IVar="9" Cut="5.5884853005409241e-02" cType="1" res="-1.3350267708301544e-01" rms="3.3161288499832153e-01" purity="2.9247105121612549e-01" nType="0">
        <Node pos="l" depth="1" NCoef="0" IVar="5" Cut="2.7859897613525391e+00" cType="1" res="-2.9721155762672424e-01" rms="1.9079408049583435e-01" purity="5.0639420747756958e-02" nType="0">
          <Node pos="l" depth="2" NCoef="0" IVar="-1" Cut="0.0000000000000000e+00" cType="1" res="-7.3366463184356689e-02" rms="9.6102036535739899e-02" purity="1.4018571004271507e-02" nType="-99"/>
          <Node pos="r" depth="2" NCoef="0" IVar="-1" Cut="0.0000000000000000e+00" cType="1" res="-1.6178565099835396e-02" rms="4.1598722338676453e-01" purity="3.1174537539482117e-01" nType="-99"/>
        </Node>
        <Node pos="r" depth="1" NCoef="0" IVar="2" Cut="6.6835951805114746e+00" cType="1" res="3.0191236734390259e-01" rms="2.1156318485736847e-01" purity="9.3566870689392090e-01" nType="0">
          <Node pos="l" depth="2" NCoef="0" IVar="-1" Cut="0.0000000000000000e+00" cType="1" res="9.2758499085903168e-03" rms="4.0934452414512634e-01" purity="6.3524895906448364e-01" nType="-99"/>
          <Node pos="r" depth="2" NCoef="0" IVar="-1" Cut="0.0000000000000000e+00" cType="1" res="7.8160762786865234e-02" rms="3.2727949321269989e-02" purity="1.0000000000000000e+00" nType="-99"/>
        </Node>
      </Node>
    </BinaryTree>
    <BinaryTree type="DecisionTree" boostWeight="1.0000000000000000e+00" itree="5">
      <Node pos="s" depth="0" NCoef="0" IVar="4" Cut="2.6180753707885742e+00" cType="1" res="7.7292449772357941e-02" rms="3.6342415213584900e-01" purity="5.5589866638183594e-01" nType="0">
        <Node pos="l" depth="1" NCoef="0" IVar="2" Cut="5.0261192321777344e+00" cType="1" res="-2.6600748300552368e-01" rms="1.8926498293876648e-01" purity="6.4778193831443787e-02" nType="0">
          <Node pos="l" depth="2" NCoef="0" IVar="-1" Cut="0.0000000000000000e+00" cType="1" res="-7.0120781660079956e-02" rms="1.1960585415363312e-01" purity="1.4018571004271507e-02" nType="-99"/>
          <Node pos="r" depth="2" NCoef="0" IVar="-1" Cut="0.0000000000000000e+00" cType="1" res="6.2887743115425110e-02" rms="2.3369506001472473e-01" purity="8.8815581798553467e-01" nType="-99"/>
        </Node>
        <Node pos="r" depth="1" NCoef="0" IVar="13" Cut="2.0285332202911377e+00" cType="1" res="3.6847245693206787e-01" rms="1.7021016776561737e-01" purity="9.7245711088180542e-01" nType="0">
          <Node pos="l" depth="2" NCoef="0" IVar="-1" Cut="0.0000000000000000e+00" cType="1" res="8.5674405097961426e-02" rms="1.3045874238014221e-01" purity="9.9423843622207642e-01" nType="-99"/>
          <Node pos="r" depth="2" NCoef="0" IVar="-1" Cut="0.0000000000000000e+00" cType="1" res="-8.3493627607822418e-03" rms="3.4203356504440308e-01" purity="4.9814972281455994e-01" nType="-99"/>
        </Node>
      </Node>
    </BinaryTree>
    <BinaryTree type="DecisionTree" boostWeight="1.0000000000000000e+00" itree="6">
      <Node pos="s" depth="0" NCoef="0" IVar="7" Cut="7.0151500701904297e+00" cType="1" res="3.9027571678161621e-02" rms="3.1748601794242859e-01" purity="5.3101223707199097e-01" nType="0">
        <Node pos="l" depth="1" NCoef="0" IVar="4" Cut="2.1688508987426758e+00" cType="1" res="-2.8192514181137085e-01" rms="3.0119294300675392e-02" purity="0.0000000000000000e+00" nType="0">
          <Node pos="l" depth="2" NCoef="0" IVar="-1" Cut="0.0000000000000000e+00" cType="1" res="-6.9302566349506378e-02" rms="1.6689768061041832e-02" purity="0.0000000000000000e+00" nType="-99"/>
          <Node pos="r" depth="2" NCoef="0" IVar="-1" Cut="0.0000000000000000e+00" cType="1" res="-7.4993103742599487e-02" rms="6.8143926560878754e-02" purity="0.0000000000000000e+00" nType="-99"/>
        </Node>
        <Node pos="r" depth="1" NCoef="0" IVar="8" Cut="3.4599971026182175e-02" cType="1" res="2.7972868084907532e-01" rms="2.0129613578319550e-01" purity="9.2924922704696655e-01" nType="0">
          <Node pos="l" depth="2" NCoef="0" IVar="-1" Cut="0.0000000000000000e+00" cType="1" res="7.5162485241889954e-02" rms="1.1258986592292786e-01" purity="9.8995035886764526e-01" nType="-99"/>
          <Node pos="r" depth="2" NCoef="0" IVar="-1" Cut="0.0000000000000000e+00" cType="1" res="-8.4928140044212341e-02" rms="1.2129727005958557e-01" purity="0.0000000000000000e+00" nType="-99"/>
        </Node>
      </Node>
    </BinaryTree>
    <BinaryTree type="DecisionTree" boostWeight="1.0000000000000000e+00" itree="7">
      <Node pos="s" depth="0" NCoef="0" IVar="9" Cut="6.5717309713363647e-02" cType="1" res="-2.1737314760684967e-02" rms="2.8862583637237549e-01" purity="4.4344806671142578e-01" nType="0">
        <Node pos="l" depth="1" NCoef="0" IVar="5" Cut="2.9121167659759521e+00" cType="1" res="-2.1539454162120819e-01" rms="2.1201348304748535e-01" purity="6.6505916416645050e-02" nType="0">
          <Node pos="l" depth="2" NCoef="0" IVar="-1" Cut="0.0000000000000000e+00" cType="1" res="-6.3010714948177338e-02" rms="1.3588699698448181e-01" purity="2.8905596584081650e-02" nType="-99"/>
          <Node pos="r" depth="2" NCoef="0" IVar="-1" Cut="0.0000000000000000e+00" cType="1" res="3.8174603134393692e-02" rms="4.8065397143363953e-01" purity="5.4361897706985474e-01" nType="-99"/>
        </Node>
        <Node pos="r" depth="1" NCoef="0" IVar="9" Cut="1.0728378593921661e-01" cType="1" res="2.5922590494155884e-01" rms="7.4837796390056610e-02" purity="9.9032616615295410e-01" nType="0">
          <Node pos="l" depth="2" NCoef="0" IVar="-1" Cut="0.0000000000000000e+00" cType="1" res="7.0709325373172760e-02" rms="3.8876604288816452e-02" purity="1.0000000000000000e+00" nType="-99"/>
          <Node pos="r" depth="2" NCoef="0" IVar="-1" Cut="0.0000000000000000e+00" cType="1" res="6.1195418238639832e-02" rms="9.2307165265083313e-02" purity="9.7762435674667358e-01" nType="-99"/>
        </Node>
      </Node>
    </BinaryTree>
    <BinaryTree type="DecisionTree" boostWeight="1.0000000000000000e+00" itree="8">
      <Node pos="s" depth="0" NCoef="0" IVar="7" Cut="6.9633946418762207e+00" cType="1" res="-4.2082719504833221e-02" rms="3.0480781197547913e-01" purity="3.2890641689300537e-01" nType="0">
        <Node pos="l" depth="1" NCoef="0" IVar="4" Cut="2.3551719188690186e+00" cType="1" res="-2.3763684928417206e-01" rms="4.0443863719701767e-02" purity="0.0000000000000000e+00" nType="0">
          <Node pos="l" depth="2" NCoef="0" IVar="-1" Cut="0.0000000000000000e+00" cType="1" res="-6.5212517976760864e-02" rms="2.2777913138270378e-02" purity="0.0000000000000000e+00" nType="-99"/>
          <Node pos="r" depth="2" NCoef="0" IVar="-1" Cut="0.0000000000000000e+00" cType="1" res="-7.8593939542770386e-02" rms="8.7959520518779755e-02" purity="0.0000000000000000e+00" nType="-99"/>
        </Node>
        <Node pos="r" depth="1" NCoef="0" IVar="2" Cut="1.8015220165252686e+00" cType="1" res="2.6389342546463013e-01" rms="2.8681263327598572e-01" purity="8.4353375434875488e-01" nType="0">
          <Node pos="l" depth="2" NCoef="0" IVar="-1" Cut="0.0000000000000000e+00" cType="1" res="-6.5188623964786530e-02" rms="1.6514118015766144e-01" purity="3.1129090115427971e-02" nType="-99"/>
          <Node pos="r" depth="2" NCoef="0" IVar="-1" Cut="0.0000000000000000e+00" cType="1" res="8.2197666168212891e-02" rms="2.0533080399036407e-01" purity="9.6406400203704834e-01" nType="-99"/>
        </Node>
      </Node>
    </BinaryTree>
    <BinaryTree type="DecisionTree" boostWeight="1.0000000000000000e+00" itree="9">
      <Node pos="s" depth="0" NCoef="0" IVar="4" Cut="2.6259882450103760e+00" cType="1" res="6.7210835404694080e-03" rms="2.4818849563598633e-01" purity="4.9810904264450073e-01" nType="0">
        <Node pos="l" depth="1" NCoef="0" IVar="3" Cut="4.2689394950866699e+00" cType="1" res="-1.8518052995204926e-01" rms="1.5231956541538239e-01" purity="5.5760752409696579e-02" nType="0">
          <Node pos="l" depth="2" NCoef="0" IVar="-1" Cut="0.0000000000000000e+00" cType="1" res="-5.9846818447113037e-02" rms="1.2486073374748230e-01" purity="1.6889577731490135e-02" nType="-99"/>
          <Node pos="r" depth="2" NCoef="0" IVar="-1" Cut="0.0000000000000000e+00" cType="1" res="3.0268754810094833e-02" rms="2.2126817703247070e-01" purity="6.6501992940902710e-01" nType="-99"/>
        </Node>
        <Node pos="r" depth="1" NCoef="0" IVar="11" Cut="2.4660103023052216e-01" cType="1" res="2.0093239843845367e-01" rms="1.5958835184574127e-01" purity="9.4578129053115845e-01" nType="0">
          <Node pos="l" depth="2" NCoef="0" IVar="-1" Cut="0.0000000000000000e+00" cType="1" res="-1.0362752713263035e-02" rms="3.2439523935317993e-01" purity="5.7121139764785767e-01" nType="-99"/>
          <Node pos="r" depth="2" NCoef="0" IVar="-1" Cut="0.0000000000000000e+00" cType="1" res="6.3319712877273560e-02" rms="1.0146984457969666e-01" purity="9.8502522706985474e-01" nType="-99"/>
        </Node>
      </Node>
    </BinaryTree>
    <BinaryTree type="DecisionTree" boostWeight="1.0000000000000000e+00" itree="10">
      <Node pos="s" depth="0" NCoef="0" IVar="7" Cut="6.2997722625732422e+00" cType="1" res="-5.7296663522720337e-02" rms="2.2897858917713165e-01" purity="3.1899201869964600e-01" nType="0">
        <Node pos="l" depth="1" NCoef="0" IVar="4" Cut="2.5039696693420410e+00" cType="1" res="-2.0063251256942749e-01" rms="4.5560650527477264e-02" purity="0.0000000000000000e+00" nType="0">
          <Node pos="l" depth="2" NCoef="0" IVar="-1" Cut="0.0000000000000000e+00" cType="1" res="-6.1877686530351639e-02" rms="1.9653402268886566e-02" purity="0.0000000000000000e+00" nType="-99"/>
          <Node pos="r" depth="2" NCoef="0" IVar="-1" Cut="0.0000000000000000e+00" cType="1" res="-7.6959423720836639e-02" rms="5.3810548037290573e-02" purity="0.0000000000000000e+00" nType="-99"/>
        </Node>
        <Node pos="r" depth="1" NCoef="0" IVar="4" Cut="1.6588399410247803e+00" cType="1" res="1.5489706397056580e-01" rms="2.2701534628868103e-01" purity="7.9122632741928101e-01" nType="0">
          <Node pos="l" depth="2" NCoef="0" IVar="-1" Cut="0.0000000000000000e+00" cType="1" res="-6.6466197371482849e-02" rms="8.3622701466083527e-02" purity="2.9851202853024006e-03" nType="-99"/>
          <Node pos="r" depth="2" NCoef="0" IVar="-1" Cut="0.0000000000000000e+00" cType="1" res="6.3839405775070190e-02" rms="1.6801691055297852e-01" purity="9.3283283710479736e-01" nType="-99"/>
        </Node>
      </Node>
    </BinaryTree>
    <BinaryTree type="DecisionTree" boostWeight="1.0000000000000000e+00" itree="11">
      <Node pos="s" depth="0" NCoef="0" IVar="0" Cut="1.5847076177597046e+00" cType="1" res="1.1918546259403229e-01" rms="2.8236073255538940e-01" purity="6.0915392637252808e-01" nType="0">
        <Node pos="l" depth="1" NCoef="0" IVar="5" Cut="3.1956145763397217e+00" cType="1" res="-4.6218406409025192e-02" rms="2.0815731585025787e-01" purity="3.4160840511322021e-01" nType="0">
          <Node pos="l" depth="2" NCoef="0" IVar="-1" Cut="0.0000000000000000e+00" cType="1" res="-5.8991007506847382e-02" rms="8.6816847324371338e-02" purity="1.8050171434879303e-02" nType="-99"/>
          <Node pos="r" depth="2" NCoef="0" IVar="-1" Cut="0.0000000000000000e+00" cType="1" res="6.5930031239986420e-02" rms="1.1832909286022186e-01" purity="9.8200464248657227e-01" nType="-99"/>
        </Node>
        <Node pos="r" depth="1" NCoef="0" IVar="6" Cut="2.6496236678212881e-03" cType="1" res="3.1631234288215637e-01" rms="2.2724874317646027e-01" purity="9.2801237106323242e-01" nType="0">
          <Node pos="l" depth="2" NCoef="0" IVar="-1" Cut="0.0000000000000000e+00" cType="1" res="9.9576883018016815e-02" rms="1.9902496039867401e-01" purity="9.7378599643707275e-01" nType="-99"/>
          <Node pos="r" depth="2" NCoef="0" IVar="-1" Cut="0.0000000000000000e+00" cType="1" res="5.6279692798852921e-02" rms="1.8356686830520630e-01" purity="8.7224042415618896e-01" nType="-99"/>
        </Node>
      </Node>
    </BinaryTree>
    <BinaryTree type="DecisionTree" boostWeight="1.0000000000000000e+00" itree="12">
      <Node pos="s" depth="0" NCoef="0" IVar="7" Cut="6.7452168464660645e+00" cType="1" res="1.2168119661509991e-02" rms="2.2389334440231323e-01" purity="4.9281883239746094e-01" nType="0">
        <Node pos="l" depth="1" NCoef="0" IVar="5" Cut="2.7693803310394287e+00" cType="1" res="-1.6939584910869598e-01" rms="3.7168156355619431e-02" purity="0.0000000000000000e+00" nType="0">
          <Node pos="l" depth="2" NCoef="0" IVar="-1" Cut="0.0000000000000000e+00" cType="1" res="-6.0133956372737885e-02" rms="2.9163265600800514e-02" purity="0.0000000000000000e+00" nType="-99"/>
          <Node pos="r" depth="2" NCoef="0" IVar="-1" Cut="0.0000000000000000e+00" cType="1" res="-6.5957561135292053e-02" rms="5.1054086536169052e-02" purity="0.0000000000000000e+00" nType="-99"/>
        </Node>
        <Node pos="r" depth="1" NCoef="0" IVar="8" Cut="4.1113849729299545e-02" cType="1" res="1.7184811830520630e-01" rms="1.9623884558677673e-01" purity="9.2623800039291382e-01" nType="0">
          <Node pos="l" depth="2" NCoef="0" IVar="-1" Cut="0.0000000000000000e+00" cType="1" res="6.5638422966003418e-02" rms="1.5035165846347809e-01" purity="9.7608262300491333e-01" nType="-99"/>
          <Node pos="r" depth="2" NCoef="0" IVar="-1" Cut="0.0000000000000000e+00" cType="1" res="-9.7443059086799622e-02" rms="2.1933811902999878e-01" purity="0.0000000000000000e+00" nType="-99"/>
        </Node>
      </Node>
    </BinaryTree>
    <BinaryTree type="DecisionTree" boostWeight="1.0000000000000000e+00" itree="13">
      <Node pos="s" depth="0" NCoef="0" IVar="7" Cut="9.6077527999877930e+00" cType="1" res="-1.4692833647131920e-02" rms="1.7376691102981567e-01" purity="4.3249571323394775e-01" nType="0">
        <Node pos="l" depth="1" NCoef="0" IVar="6" Cut="7.1552250301465392e-04" cType="1" res="-1.4283606410026550e-01" rms="9.8023846745491028e-02" purity="1.2180565856397152e-02" nType="0">
          <Node pos="l" depth="2" NCoef="0" IVar="-1" Cut="0.0000000000000000e+00" cType="1" res="5.1584076136350632e-03" rms="3.2958897948265076e-01" purity="1.9881846010684967e-01" nType="-99"/>
          <Node pos="r" depth="2" NCoef="0" IVar="-1" Cut="0.0000000000000000e+00" cType="1" res="-5.9693079441785812e-02" rms="3.7640552967786789e-02" purity="0.0000000000000000e+00" nType="-99"/>
        </Node>
        <Node pos="r" depth="1" NCoef="0" IVar="8" Cut="2.0365471020340919e-02" cType="1" res="1.4655546844005585e-01" rms="9.7137279808521271e-02" purity="9.6139705181121826e-01" nType="0">
          <Node pos="l" depth="2" NCoef="0" IVar="-1" Cut="0.0000000000000000e+00" cType="1" res="6.1177935451269150e-02" rms="5.1596865057945251e-02" purity="1.0000000000000000e+00" nType="-99"/>
          <Node pos="r" depth="2" NCoef="0" IVar="-1" Cut="0.0000000000000000e+00" cType="1" res="2.0803024992346764e-02" rms="1.7367172241210938e-01" purity="7.8278785943984985e-01" nType="-99"/>
        </Node>
      </Node>
    </BinaryTree>
    <BinaryTree type="DecisionTree" boostWeight="1.0000000000000000e+00" itree="14">
      <Node pos="s" depth="0" NCoef="0" IVar="7" Cut="7.6897625923156738e+00" cType="1" res="3.6018706858158112e-02" rms="1.8918216228485107e-01" purity="5.7375031709671021e-01" nType="0">
        <Node pos="l" depth="1" NCoef="0" IVar="2" Cut="2.9140980243682861e+00" cType="1" res="-1.4394098520278931e-01" rms="4.1026379913091660e-02" purity="0.0000000000000000e+00" nType="0">
          <Node pos="l" depth="2" NCoef="0" IVar="-1" Cut="0.0000000000000000e+00" cType="1" res="-5.8142211288213730e-02" rms="2.7063285931944847e-02" purity="0.0000000000000000e+00" nType="-99"/>
          <Node pos="r" depth="2" NCoef="0" IVar="-1" Cut="0.0000000000000000e+00" cType="1" res="-6.5004758536815643e-02" rms="5.5964302271604538e-02" purity="0.0000000000000000e+00" nType="-99"/>
        </Node>
        <Node pos="r" depth="1" NCoef="0" IVar="8" Cut="1.6295893117785454e-02" cType="1" res="1.4306162297725677e-01" rms="1.5923418104648590e-01" purity="9.1502624750137329e-01" nType="0">
          <Node pos="l" depth="2" NCoef="0" IVar="-1" Cut="0.0000000000000000e+00" cType="1" res="6.5388239920139313e-02" rms="1.0028018057346344e-01" purity="1.0000000000000000e+00" nType="-99"/>
          <Node pos="r" depth="2" NCoef="0" IVar="-1" Cut="0.0000000000000000e+00" cType="1" res="-7.3620490729808807e-02" rms="1.7402605712413788e-01" purity="3.7123780697584152e-02" nType="-99"/>
        </Node>
      </Node>
    </BinaryTree>
    <BinaryTree type="DecisionTree" boostWeight="1.0000000000000000e+00" itree="15">
      <Node pos="s" depth="0" NCoef="0" IVar="4" Cut="3.1762998104095459e+00" cType="1" res="6.1693070456385612e-03" rms="2.3916988074779510e-01" purity="4.0408939123153687e-01" nType="0">
        <Node pos="l" depth="1" NCoef="0" IVar="7" Cut="1.3591304779052734e+01" cType="1" res="-1.1263884603977203e-01" rms="1.1561613529920578e-01" purity="8.2075767219066620e-02" nType="0">
          <Node pos="l" depth="2" NCoef="0" IVar="-1" Cut="0.0000000000000000e+00" cType="1" res="-5.8438811451196671e-02" rms="7.4317544698715210e-02" purity="1.3199480250477791e-02" nType="-99"/>
          <Node pos="r" depth="2" NCoef="0" IVar="-1" Cut="0.0000000000000000e+00" cType="1" res="2.5104019790887833e-02" rms="2.1488420665264130e-01" purity="7.4867278337478638e-01" nType="-99"/>
        </Node>
        <Node pos="r" depth="1" NCoef="0" IVar="4" Cut="4.4296245574951172e+00" cType="1" res="2.1460650861263275e-01" rms="2.5670328736305237e-01" purity="9.6903061866760254e-01" nType="0">
          <Node pos="l" depth="2" NCoef="0" IVar="-1" Cut="0.0000000000000000e+00" cType="1" res="1.5774430334568024e-01" rms="2.8240436315536499e-01" purity="8.9717441797256470e-01" nType="-99"/>
          <Node pos="r" depth="2" NCoef="0" IVar="-1" Cut="0.0000000000000000e+00" cType="1" res="5.2857507020235062e-02" rms="1.0099472105503082e-01" purity="9.8708337545394897e-01" nType="-99"/>
        </Node>
      </Node>
    </BinaryTree>
    <BinaryTree type="DecisionTree" boostWeight="1.0000000000000000e+00" itree="16">
      <Node pos="s" depth="0" NCoef="0" IVar="5" Cut="3.2219917774200439e+00" cType="1" res="2.4617178365588188e-02" rms="1.7583659291267395e-01" purity="5.2500176429748535e-01" nType="0">
        <Node pos="l" depth="1" NCoef="0" IVar="5" Cut="2.7940850257873535e+00" cType="1" res="-1.0500740259885788e-01" rms="1.2850910425186157e-01" purity="4.5392505824565887e-02" nType="0">
          <Node pos="l" depth="2" NCoef="0" IVar="-1" Cut="0.0000000000000000e+00" cType="1" res="-5.5485606193542480e-02" rms="8.3403095602989197e-02" purity="3.5887625068426132e-02" nType="-99"/>
          <Node pos="r" depth="2" NCoef="0" IVar="-1" Cut="0.0000000000000000e+00" cType="1" res="3.0868273228406906e-02" rms="3.9805138111114502e-01" purity="2.2094565629959106e-01" nType="-99"/>
        </Node>
        <Node pos="r" depth="1" NCoef="0" IVar="9" Cut="4.8596616834402084e-02" cType="1" res="1.4577545225620270e-01" rms="1.1830988526344299e-01" purity="9.7328573465347290e-01" nType="0">
          <Node pos="l" depth="2" NCoef="0" IVar="-1" Cut="0.0000000000000000e+00" cType="1" res="6.9287158548831940e-02" rms="2.2779130935668945e-01" purity="8.1268668174743652e-01" nType="-99"/>
          <Node pos="r" depth="2" NCoef="0" IVar="-1" Cut="0.0000000000000000e+00" cType="1" res="5.5644180625677109e-02" rms="7.2130925953388214e-02" purity="9.9396902322769165e-01" nType="-99"/>
        </Node>
      </Node>
    </BinaryTree>
    <BinaryTree type="DecisionTree" boostWeight="1.0000000000000000e+00" itree="17">
      <Node pos="s" depth="0" NCoef="0" IVar="6" Cut="2.9568686150014400e-03" cType="1" res="3.2482333481311798e-02" rms="2.0403569936752319e-01" purity="4.9202474951744080e-01" nType="0">
        <Node pos="l" depth="1" NCoef="0" IVar="11" Cut="3.1699836254119873e-01" cType="1" res="1.6586729884147644e-01" rms="2.2560122609138489e-01" purity="8.4245765209197998e-01" nType="0">
          <Node pos="l" depth="2" NCoef="0" IVar="-1" Cut="0.0000000000000000e+00" cType="1" res="-2.0120354369282722e-02" rms="9.1919101774692535e-02" purity="3.6200290918350220e-01" nType="-99"/>
          <Node pos="r" depth="2" NCoef="0" IVar="-1" Cut="0.0000000000000000e+00" cType="1" res="8.7617374956607819e-02" rms="2.1854637563228607e-01" purity="9.9063056707382202e-01" nType="-99"/>
        </Node>
        <Node pos="r" depth="1" NCoef="0" IVar="5" Cut="4.1876058578491211e+00" cType="1" res="-5.1203373819589615e-02" rms="1.3286000490188599e-01" purity="2.7216321229934692e-01" nType="0">
          <Node pos="l" depth="2" NCoef="0" IVar="-1" Cut="0.0000000000000000e+00" cType="1" res="-5.2011027932167053e-02" rms="1.1502851545810699e-01" purity="1.2470821850001812e-02" nType="-99"/>
          <Node pos="r" depth="2" NCoef="0" IVar="-1" Cut="0.0000000000000000e+00" cType="1" res="5.2154798060655594e-02" rms="4.0657147765159607e-02" purity="9.8320579528808594e-01" nType="-99"/>
        </Node>
      </Node>
    </BinaryTree>
    <BinaryTree type="DecisionTree" boostWeight="1.0000000000000000e+00" itree="18">
      <Node pos="s" depth="0" NCoef="0" IVar="4" Cut="2.4583914279937744e+00" cType="1" res="3.8784146308898926e-02" rms="1.5811268985271454e-01" purity="5.8297771215438843e-01" nType="0">
        <Node pos="l" depth="1" NCoef="0" IVar="4" Cut="2.1122870445251465e+00" cType="1" res="-9.7254164516925812e-02" rms="7.0533938705921173e-02" purity="2.5127798318862915e-02" nType="0">
          <Node pos="l" depth="2" NCoef="0" IVar="-1" Cut="0.0000000000000000e+00" cType="1" res="-5.6266941130161285e-02" rms="6.1594735831022263e-02" purity="1.2727181427180767e-02" nType="-99"/>
          <Node pos="r" depth="2" NCoef="0" IVar="-1" Cut="0.0000000000000000e+00" cType="1" res="-2.9972534626722336e-02" rms="1.1592334508895874e-01" purity="1.3648208975791931e-01" nType="-99"/>
        </Node>
        <Node pos="r" depth="1" NCoef="0" IVar="9" Cut="4.8878178000450134e-02" cType="1" res="1.2842923402786255e-01" rms="1.3402912020683289e-01" purity="9.5058381557464600e-01" nType="0">
          <Node pos="l" depth="2" NCoef="0" IVar="-1" Cut="0.0000000000000000e+00" cType="1" res="7.0478439331054688e-02" rms="2.0193330943584442e-01" purity="8.4206640720367432e-01" nType="-99"/>
          <Node pos="r" depth="2" NCoef="0" IVar="-1" Cut="0.0000000000000000e+00" cType="1" res="5.0030454993247986e-02" rms="5.0522647798061371e-02" purity="9.7646147012710571e-01" nType="-99"/>
        </Node>
      </Node>
    </BinaryTree>
    <BinaryTree type="DecisionTree" boostWeight="1.0000000000000000e+00" itree="19">
      <Node pos="s" depth="0" NCoef="0" IVar="6" Cut="2.8575726319104433e-03" cType="1" res="7.2496920824050903e-02" rms="2.0719161629676819e-01" purity="6.0523962974548340e-01" nType="0">
        <Node pos="l" depth="1" NCoef="0" IVar="6" Cut="2.3881595116108656e-03" cType="1" res="2.2082482278347015e-01" rms="2.5452092289924622e-01" purity="8.1640946865081787e-01" nType="0">
          <Node pos="l" depth="2" NCoef="0" IVar="-1" Cut="0.0000000000000000e+00" cType="1" res="4.3814919888973236e-02" rms="1.3404552638530731e-01" purity="7.9266744852066040e-01" nType="-99"/>
          <Node pos="r" depth="2" NCoef="0" IVar="-1" Cut="0.0000000000000000e+00" cType="1" res="1.1517760902643204e-01" rms="2.4127718806266785e-01" purity="8.7408459186553955e-01" nType="-99"/>
        </Node>
        <Node pos="r" depth="1" NCoef="0" IVar="9" Cut="6.8070478737354279e-02" cType="1" res="-1.4888606965541840e-02" rms="9.7243353724479675e-02" purity="4.8083159327507019e-01" nType="0">
          <Node pos="l" depth="2" NCoef="0" IVar="-1" Cut="0.0000000000000000e+00" cType="1" res="-5.8020800352096558e-02" rms="6.3189059495925903e-02" purity="0.0000000000000000e+00" nType="-99"/>
          <Node pos="r" depth="2" NCoef="0" IVar="-1" Cut="0.0000000000000000e+00" cType="1" res="5.4121948778629303e-02" rms="1.2888204306364059e-02" purity="1.0000000000000000e+00" nType="-99"/>
        </Node>
      </Node>
    </BinaryTree>
    <BinaryTree type="DecisionTree" boostWeight="1.0000000000000000e+00" itree="20">
      <Node pos="s" depth="0" NCoef="0" IVar="5" Cut="3.1300847530364990e+00" cType="1" res="-2.9723661020398140e-02" rms="1.4128020405769348e-01" purity="3.4255287051200867e-01" nType="0">
        <Node pos="l" depth="1" NCoef="0" IVar="7" Cut="1.5113820075988770e+01" cType="1" res="-8.4442138671875000e-02" rms="1.1019019782543182e-01" purity="7.0804767310619354e-02" nType="0">
          <Node pos="l" depth="2" NCoef="0" IVar="-1" Cut="0.0000000000000000e+00" cType="1" res="-5.9912882745265961e-02" rms="8.2412965595722198e-02" purity="3.0896853422746062e-04" nType="-99"/>
          <Node pos="r" depth="2" NCoef="0" IVar="-1" Cut="0.0000000000000000e+00" cType="1" res="4.2886894196271896e-02" rms="1.6221445798873901e-01" purity="8.5627555847167969e-01" nType="-99"/>
        </Node>
        <Node pos="r" depth="1" NCoef="0" IVar="13" Cut="-1.5899509191513062e+00" cType="1" res="8.5145831108093262e-02" rms="1.2997022271156311e-01" purity="9.1302865743637085e-01" nType="0">
          <Node pos="l" depth="2" NCoef="0" IVar="-1" Cut="0.0000000000000000e+00" cType="1" res="1.3010768219828606e-02" rms="1.2462106347084045e-01" purity="7.5733011960983276e-01" nType="-99"/>
          <Node pos="r" depth="2" NCoef="0" IVar="-1" Cut="0.0000000000000000e+00" cType="1" res="6.5824173390865326e-02" rms="1.2019475549459457e-01" purity="1.0000000000000000e+00" nType="-99"/>
        </Node>
      </Node>
    </BinaryTree>
    <BinaryTree type="DecisionTree" boostWeight="1.0000000000000000e+00" itree="21">
      <Node pos="s" depth="0" NCoef="0" IVar="3" Cut="2.7204754352569580e+00" cType="1" res="3.1054971739649773e-02" rms="1.7090964317321777e-01" purity="5.2025073766708374e-01" nType="0">
        <Node pos="l" depth="1" NCoef="0" IVar="0" Cut="1.5399127006530762e+00" cType="1" res="-5.7841852307319641e-02" rms="1.5174055099487305e-01" purity="1.1211107671260834e-01" nType="0">
          <Node pos="l" depth="2" NCoef="0" IVar="-1" Cut="0.0000000000000000e+00" cType="1" res="-6.2639728188514709e-02" rms="9.9448718130588531e-02" purity="0.0000000000000000e+00" nType="-99"/>
          <Node pos="r" depth="2" NCoef="0" IVar="-1" Cut="0.0000000000000000e+00" cType="1" res="3.5475808545015752e-04" rms="2.1813465654850006e-01" purity="3.6392733454704285e-01" nType="-99"/>
        </Node>
        <Node pos="r" depth="1" NCoef="0" IVar="3" Cut="3.7375242710113525e+00" cType="1" res="1.1333015561103821e-01" rms="1.4439913630485535e-01" purity="8.9798933267593384e-01" nType="0">
          <Node pos="l" depth="2" NCoef="0" IVar="-1" Cut="0.0000000000000000e+00" cType="1" res="6.5369606018066406e-02" rms="2.0660480856895447e-01" purity="7.5554674863815308e-01" nType="-99"/>
          <Node pos="r" depth="2" NCoef="0" IVar="-1" Cut="0.0000000000000000e+00" cType="1" res="4.9327503889799118e-02" rms="2.9278995469212532e-02" purity="9.6643769741058350e-01" nType="-99"/>
        </Node>
      </Node>
    </BinaryTree>
    <BinaryTree type="DecisionTree" boostWeight="1.0000000000000000e+00" itree="22">
      <Node pos="s" depth="0" NCoef="0" IVar="7" Cut="6.7429633140563965e+00" cType="1" res="2.2421512752771378e-02" rms="1.2675949931144714e-01" purity="5.7405251264572144e-01" nType="0">
        <Node pos="l" depth="1" NCoef="0" IVar="4" Cut="2.6655116081237793e+00" cType="1" res="-7.9212620854377747e-02" rms="4.4708888977766037e-02" purity="0.0000000000000000e+00" nType="0">
          <Node pos="l" depth="2" NCoef="0" IVar="-1" Cut="0.0000000000000000e+00" cType="1" res="-5.4250441491603851e-02" rms="2.5028357282280922e-02" purity="0.0000000000000000e+00" nType="-99"/>
          <Node pos="r" depth="2" NCoef="0" IVar="-1" Cut="0.0000000000000000e+00" cType="1" res="-6.3414618372917175e-02" rms="6.2037032097578049e-02" purity="0.0000000000000000e+00" nType="-99"/>
        </Node>
        <Node pos="r" depth="1" NCoef="0" IVar="8" Cut="4.3463926762342453e-02" cType="1" res="7.9818658530712128e-02" rms="1.2200591713190079e-01" purity="8.9824450016021729e-01" nType="0">
          <Node pos="l" depth="2" NCoef="0" IVar="-1" Cut="0.0000000000000000e+00" cType="1" res="5.6345991790294647e-02" rms="8.1713154911994934e-02" purity="9.8329150676727295e-01" nType="-99"/>
          <Node pos="r" depth="2" NCoef="0" IVar="-1" Cut="0.0000000000000000e+00" cType="1" res="-7.8153863549232483e-02" rms="1.7991782724857330e-01" purity="0.0000000000000000e+00" nType="-99"/>
        </Node>
      </Node>
    </BinaryTree>
    <BinaryTree type="DecisionTree" boostWeight="1.0000000000000000e+00" itree="23">
      <Node pos="s" depth="0" NCoef="0" IVar="4" Cut="3.5811994075775146e+00" cType="1" res="1.9475601613521576e-02" rms="1.6505260765552521e-01" purity="4.2876240611076355e-01" nType="0">
        <Node pos="l" depth="1" NCoef="0" IVar="9" Cut="4.5739416033029556e-02" cType="1" res="-5.9636358171701431e-02" rms="6.4008556306362152e-02" purity="3.7109024822711945e-02" nType="0">
          <Node pos="l" depth="2" NCoef="0" IVar="-1" Cut="0.0000000000000000e+00" cType="1" res="-5.4417178034782410e-02" rms="3.5210289061069489e-02" purity="2.9024860123172402e-04" nType="-99"/>
          <Node pos="r" depth="2" NCoef="0" IVar="-1" Cut="0.0000000000000000e+00" cType="1" res="1.5984594821929932e-02" rms="1.7031203210353851e-01" purity="4.8456770181655884e-01" nType="-99"/>
        </Node>
        <Node pos="r" depth="1" NCoef="0" IVar="9" Cut="3.4750066697597504e-02" cType="1" res="1.2574842572212219e-01" rms="1.9655162096023560e-01" purity="9.5487886667251587e-01" nType="0">
          <Node pos="l" depth="2" NCoef="0" IVar="-1" Cut="0.0000000000000000e+00" cType="1" res="1.0477080941200256e-01" rms="3.0940935015678406e-01" purity="7.7633237838745117e-01" nType="-99"/>
          <Node pos="r" depth="2" NCoef="0" IVar="-1" Cut="0.0000000000000000e+00" cType="1" res="4.8786375671625137e-02" rms="5.2878011018037796e-02" purity="9.9096012115478516e-01" nType="-99"/>
        </Node>
      </Node>
    </BinaryTree>
    <BinaryTree type="DecisionTree" boostWeight="1.0000000000000000e+00" itree="24">
      <Node pos="s" depth="0" NCoef="0" IVar="7" Cut="7.6986227035522461e+00" cType="1" res="1.3591392897069454e-02" rms="8.5850723087787628e-02" purity="5.7500976324081421e-01" nType="0">
        <Node pos="l" depth="1" NCoef="0" IVar="4" Cut="2.9951982498168945e+00" cType="1" res="-6.4738161861896515e-02" rms="5.2609581500291824e-02" purity="0.0000000000000000e+00" nType="0">
          <Node pos="l" depth="2" NCoef="0" IVar="-1" Cut="0.0000000000000000e+00" cType="1" res="-5.3356725722551346e-02" rms="2.0526049658656120e-02" purity="0.0000000000000000e+00" nType="-99"/>
          <Node pos="r" depth="2" NCoef="0" IVar="-1" Cut="0.0000000000000000e+00" cType="1" res="-7.0335924625396729e-02" rms="1.2730543315410614e-01" purity="0.0000000000000000e+00" nType="-99"/>
        </Node>
        <Node pos="r" depth="1" NCoef="0" IVar="10" Cut="9.9468320608139038e-01" cType="1" res="6.4581803977489471e-02" rms="6.1420045793056488e-02" purity="9.4932550191879272e-01" nType="0">
          <Node pos="l" depth="2" NCoef="0" IVar="-1" Cut="0.0000000000000000e+00" cType="1" res="-6.0685589909553528e-02" rms="8.7907634675502777e-02" purity="0.0000000000000000e+00" nType="-99"/>
          <Node pos="r" depth="2" NCoef="0" IVar="-1" Cut="0.0000000000000000e+00" cType="1" res="5.5573403835296631e-02" rms="4.7978799790143967e-02" purity="9.9591070413589478e-01" nType="-99"/>
        </Node>
      </Node>
    </BinaryTree>
    <BinaryTree type="DecisionTree" boostWeight="1.0000000000000000e+00" itree="25">
      <Node pos="s" depth="0" NCoef="0" IVar="7" Cut="1.5054596900939941e+01" cType="1" res="-7.4173361063003540e-03" rms="8.8531181216239929e-02" purity="4.6421402692794800e-01" nType="0">
        <Node pos="l" depth="1" NCoef="0" IVar="0" Cut="1.5418118238449097e+00" cType="1" res="-6.4003504812717438e-02" rms="8.1506133079528809e-02" purity="2.3498214781284332e-02" nType="0">
          <Node pos="l" depth="2" NCoef="0" IVar="-1" Cut="0.0000000000000000e+00" cType="1" res="-4.8482220619916916e-02" rms="5.2991680800914764e-02" purity="1.4707182534039021e-02" nType="-99"/>
          <Node pos="r" depth="2" NCoef="0" IVar="-1" Cut="0.0000000000000000e+00" cType="1" res="-6.4817056059837341e-02" rms="1.3727693259716034e-01" purity="5.8415122330188751e-02" nType="-99"/>
        </Node>
        <Node pos="r" depth="1" NCoef="0" IVar="3" Cut="2.5889451503753662e+00" cType="1" res="6.1375457793474197e-02" rms="2.5783741846680641e-02" purity="1.0000000000000000e+00" nType="0">
          <Node pos="l" depth="2" NCoef="0" IVar="-1" Cut="0.0000000000000000e+00" cType="1" res="5.4953835904598236e-02" rms="3.1797721982002258e-02" purity="1.0000000000000000e+00" nType="-99"/>
          <Node pos="r" depth="2" NCoef="0" IVar="-1" Cut="0.0000000000000000e+00" cType="1" res="5.2724607288837433e-02" rms="9.6672214567661285e-03" purity="1.0000000000000000e+00" nType="-99"/>
        </Node>
      </Node>
    </BinaryTree>
    <BinaryTree type="DecisionTree" boostWeight="1.0000000000000000e+00" itree="26">
      <Node pos="s" depth="0" NCoef="0" IVar="4" Cut="3.3372118473052979e+00" cType="1" res="2.7881510555744171e-02" rms="1.6659060120582581e-01" purity="4.8660016059875488e-01" nType="0">
        <Node pos="l" depth="1" NCoef="0" IVar="9" Cut="5.2834060043096542e-02" cType="1" res="-4.4679157435894012e-02" rms="7.1085885167121887e-02" purity="6.0018260031938553e-02" nType="0">
          <Node pos="l" depth="2" NCoef="0" IVar="-1" Cut="0.0000000000000000e+00" cType="1" res="-5.2839241921901703e-02" rms="5.4768022149801254e-02" purity="2.7017795946449041e-03" nType="-99"/>
          <Node pos="r" depth="2" NCoef="0" IVar="-1" Cut="0.0000000000000000e+00" cType="1" res="2.6301955804228783e-02" rms="1.3384705781936646e-01" purity="7.6877129077911377e-01" nType="-99"/>
        </Node>
        <Node pos="r" depth="1" NCoef="0" IVar="0" Cut="1.6086742877960205e+00" cType="1" res="1.1180611699819565e-01" rms="2.0217241346836090e-01" purity="9.7999030351638794e-01" nType="0">
          <Node pos="l" depth="2" NCoef="0" IVar="-1" Cut="0.0000000000000000e+00" cType="1" res="3.7525571882724762e-02" rms="9.4831250607967377e-02" purity="9.7290629148483276e-01" nType="-99"/>
          <Node pos="r" depth="2" NCoef="0" IVar="-1" Cut="0.0000000000000000e+00" cType="1" res="1.1452532559633255e-01" rms="2.8045088052749634e-01" purity="1.0000000000000000e+00" nType="-99"/>
        </Node>
      </Node>
    </BinaryTree>
    <BinaryTree type="DecisionTree" boostWeight="1.0000000000000000e+00" itree="27">
      <Node pos="s" depth="0" NCoef="0" IVar="10" Cut="9.0476477146148682e-01" cType="1" res="5.3218252956867218e-02" rms="1.7053592205047607e-01" purity="5.9241461753845215e-01" nType="0">
        <Node pos="l" depth="1" NCoef="0" IVar="4" Cut="2.6480448246002197e+00" cType="1" res="-6.1563257128000259e-02" rms="5.9710592031478882e-02" purity="0.0000000000000000e+00" nType="0">
          <Node pos="l" depth="2" NCoef="0" IVar="-1" Cut="0.0000000000000000e+00" cType="1" res="-5.2997615188360214e-02" rms="2.3064995184540749e-02" purity="0.0000000000000000e+00" nType="-99"/>
          <Node pos="r" depth="2" NCoef="0" IVar="-1" Cut="0.0000000000000000e+00" cType="1" res="-6.4735829830169678e-02" rms="9.4927810132503510e-02" purity="0.0000000000000000e+00" nType="-99"/>
        </Node>
        <Node pos="r" depth="1" NCoef="0" IVar="0" Cut="1.5899273157119751e+00" cType="1" res="8.9633338153362274e-02" rms="1.7796663939952850e-01" purity="7.8036141395568848e-01" nType="0">
          <Node pos="l" depth="2" NCoef="0" IVar="-1" Cut="0.0000000000000000e+00" cType="1" res="4.1341166943311691e-02" rms="9.0953074395656586e-02" purity="7.6751828193664551e-01" nType="-99"/>
          <Node pos="r" depth="2" NCoef="0" IVar="-1" Cut="0.0000000000000000e+00" cType="1" res="9.0667396783828735e-02" rms="2.8883662819862366e-01" purity="8.1936931610107422e-01" nType="-99"/>
        </Node>
      </Node>
    </BinaryTree>
    <BinaryTree type="DecisionTree" boostWeight="1.0000000000000000e+00" itree="28">
      <Node pos="s" depth="0" NCoef="0" IVar="6" Cut="2.9229708015918732e-03" cType="1" res="4.7216504812240601e-02" rms="1.4917173981666565e-01" purity="6.6184377670288086e-01" nType="0">
        <Node pos="l" depth="1" NCoef="0" IVar="0" Cut="1.6129907369613647e+00" cType="1" res="1.3665892183780670e-01" rms="2.2169111669063568e-01" purity="8.2054990530014038e-01" nType="0">
          <Node pos="l" depth="2" NCoef="0" IVar="-1" Cut="0.0000000000000000e+00" cType="1" res="2.3189416155219078e-02" rms="9.7592443227767944e-02" purity="7.8423535823822021e-01" nType="-99"/>
          <Node pos="r" depth="2" NCoef="0" IVar="-1" Cut="0.0000000000000000e+00" cType="1" res="9.2695146799087524e-02" rms="1.9767144322395325e-01" purity="9.0473061800003052e-01" nType="-99"/>
        </Node>
        <Node pos="r" depth="1" NCoef="0" IVar="4" Cut="3.1737267971038818e+00" cType="1" res="5.4518128745257854e-03" rms="6.4915485680103302e-02" purity="5.8773678541183472e-01" nType="0">
          <Node pos="l" depth="2" NCoef="0" IVar="-1" Cut="0.0000000000000000e+00" cType="1" res="-5.3163755685091019e-02" rms="4.9057725816965103e-02" purity="1.6392048448324203e-02" nType="-99"/>
          <Node pos="r" depth="2" NCoef="0" IVar="-1" Cut="0.0000000000000000e+00" cType="1" res="4.7865808010101318e-02" rms="4.8778709024190903e-02" purity="9.9426341056823730e-01" nType="-99"/>
        </Node>
      </Node>
    </BinaryTree>
    <BinaryTree type="DecisionTree" boostWeight="1.0000000000000000e+00" itree="29">
      <Node pos="s" depth="0" NCoef="0" IVar="11" Cut="4.5281094312667847e-01" cType="1" res="2.7994802803732455e-04" rms="9.6461839973926544e-02" purity="4.2448902130126953e-01" nType="0">
        <Node pos="l" depth="1" NCoef="0" IVar="9" Cut="6.6978707909584045e-02" cType="1" res="-4.5892830938100815e-02" rms="6.7671559751033783e-02" purity="1.1623723804950714e-01" nType="0">
          <Node pos="l" depth="2" NCoef="0" IVar="-1" Cut="0.0000000000000000e+00" cType="1" res="-5.7282332330942154e-02" rms="6.3852243125438690e-02" purity="3.5211807698942721e-04" nType="-99"/>
          <Node pos="r" depth="2" NCoef="0" IVar="-1" Cut="0.0000000000000000e+00" cType="1" res="3.2906755805015564e-02" rms="4.6094082295894623e-02" purity="9.4728809595108032e-01" nType="-99"/>
        </Node>
        <Node pos="r" depth="1" NCoef="0" IVar="0" Cut="1.7554205656051636e+00" cType="1" res="5.0647571682929993e-02" rms="9.7964964807033539e-02" purity="7.6074582338333130e-01" nType="0">
          <Node pos="l" depth="2" NCoef="0" IVar="-1" Cut="0.0000000000000000e+00" cType="1" res="2.9116090387105942e-02" rms="4.2089965194463730e-02" purity="7.1129083633422852e-01" nType="-99"/>
          <Node pos="r" depth="2" NCoef="0" IVar="-1" Cut="0.0000000000000000e+00" cType="1" res="6.9357074797153473e-02" rms="1.6069245338439941e-01" purity="9.3604111671447754e-01" nType="-99"/>
        </Node>
      </Node>
    </BinaryTree>
    <BinaryTree type="DecisionTree" boostWeight="1.0000000000000000e+00" itree="30">
      <Node pos="s" depth="0" NCoef="0" IVar="6" Cut="4.9996227025985718e-03" cType="1" res="4.8382556997239590e-03" rms="9.7787179052829742e-02" purity="5.4195791482925415e-01" nType="0">
        <Node pos="l" depth="1" NCoef="0" IVar="0" Cut="1.1888182163238525e+00" cType="1" res="3.6874324083328247e-02" rms="9.6588574349880219e-02" purity="8.4848505258560181e-01" nType="0">
          <Node pos="l" depth="2" NCoef="0" IVar="-1" Cut="0.0000000000000000e+00" cType="1" res="-6.9819547235965729e-02" rms="1.7809213697910309e-01" purity="1.0456815361976624e-01" nType="-99"/>
          <Node pos="r" depth="2" NCoef="0" IVar="-1" Cut="0.0000000000000000e+00" cType="1" res="4.8094406723976135e-02" rms="7.8303061425685883e-02" purity="9.1724073886871338e-01" nType="-99"/>
        </Node>
        <Node pos="r" depth="1" NCoef="0" IVar="4" Cut="2.3887712955474854e+00" cType="1" res="-5.1724616438150406e-02" rms="7.0443369448184967e-02" purity="7.5383955845609307e-04" nType="0">
          <Node pos="l" depth="2" NCoef="0" IVar="-1" Cut="0.0000000000000000e+00" cType="1" res="-5.4107800126075745e-02" rms="3.7957526743412018e-02" purity="0.0000000000000000e+00" nType="-99"/>
          <Node pos="r" depth="2" NCoef="0" IVar="-1" Cut="0.0000000000000000e+00" cType="1" res="-6.9163136184215546e-02" rms="1.3587421178817749e-01" purity="7.9209124669432640e-03" nType="-99"/>
        </Node>
      </Node>
    </BinaryTree>
    <BinaryTree type="DecisionTree" boostWeight="1.0000000000000000e+00" itree="31">
      <Node pos="s" depth="0" NCoef="0" IVar="0" Cut="1.5530625581741333e+00" cType="1" res="4.5096717774868011e-02" rms="1.8755502998828888e-01" purity="3.9384040236473083e-01" nType="0">
        <Node pos="l" depth="1" NCoef="0" IVar="11" Cut="6.1934357881546021e-01" cType="1" res="-2.6117509230971336e-02" rms="1.0423879325389862e-01" purity="1.5082088112831116e-01" nType="0">
          <Node pos="l" depth="2" NCoef="0" IVar="-1" Cut="0.0000000000000000e+00" cType="1" res="-7.0407845079898834e-02" rms="1.0580233484506607e-01" purity="0.0000000000000000e+00" nType="-99"/>
          <Node pos="r" depth="2" NCoef="0" IVar="-1" Cut="0.0000000000000000e+00" cType="1" res="2.8805034235119820e-02" rms="7.3493123054504395e-02" purity="5.9289759397506714e-01" nType="-99"/>
        </Node>
        <Node pos="r" depth="1" NCoef="0" IVar="1" Cut="1.2517939805984497e+00" cType="1" res="1.6262573003768921e-01" rms="2.3046955466270447e-01" purity="7.9490971565246582e-01" nType="0">
          <Node pos="l" depth="2" NCoef="0" IVar="-1" Cut="0.0000000000000000e+00" cType="1" res="8.7615728378295898e-02" rms="2.0759929716587067e-01" purity="8.9260190725326538e-01" nType="-99"/>
          <Node pos="r" depth="2" NCoef="0" IVar="-1" Cut="0.0000000000000000e+00" cType="1" res="2.8907632455229759e-02" rms="1.6999290883541107e-01" purity="7.2289097309112549e-01" nType="-99"/>
        </Node>
      </Node>
    </BinaryTree>
    <BinaryTree type="DecisionTree" boostWeight="1.0000000000000000e+00" itree="32">
      <Node pos="s" depth="0" NCoef="0" IVar="6" Cut="2.1924532484263182e-03" cType="1" res="1.1331902816891670e-02" rms="1.0023114085197449e-01" purity="4.4054096937179565e-01" nType="0">
        <Node pos="l" depth="1" NCoef="0" IVar="1" Cut="1.6056270599365234e+00" cType="1" res="8.8825263082981110e-02" rms="1.6248500347137451e-01" purity="8.9410746097564697e-01" nType="0">
          <Node pos="l" depth="2" NCoef="0" IVar="-1" Cut="0.0000000000000000e+00" cType="1" res="2.7366433292627335e-02" rms="6.0176663100719452e-02" purity="8.4184020757675171e-01" nType="-99"/>
          <Node pos="r" depth="2" NCoef="0" IVar="-1" Cut="0.0000000000000000e+00" cType="1" res="8.9522622525691986e-02" rms="2.2067168354988098e-01" purity="1.0000000000000000e+00" nType="-99"/>
        </Node>
        <Node pos="r" depth="1" NCoef="0" IVar="4" Cut="2.9540944099426270e+00" cType="1" res="-1.5700826421380043e-02" rms="3.8927577435970306e-02" purity="2.8231915831565857e-01" nType="0">
          <Node pos="l" depth="2" NCoef="0" IVar="-1" Cut="0.0000000000000000e+00" cType="1" res="-5.2263040095567703e-02" rms="2.6970911771059036e-02" purity="7.0919923018664122e-04" nType="-99"/>
          <Node pos="r" depth="2" NCoef="0" IVar="-1" Cut="0.0000000000000000e+00" cType="1" res="4.7569576650857925e-02" rms="2.1637683734297752e-02" purity="9.8161882162094116e-01" nType="-99"/>
        </Node>
      </Node>
    </BinaryTree>
    <BinaryTree type="DecisionTree" boostWeight="1.0000000000000000e+00" itree="33">
      <Node pos="s" depth="0" NCoef="0" IVar="4" Cut="3.3329563140869141e+00" cType="1" res="3.3301077783107758e-02" rms="1.3640500605106354e-01" purity="4.9981498718261719e-01" nType="0">
        <Node pos="l" depth="1" NCoef="0" IVar="0" Cut="1.6976296901702881e+00" cType="1" res="-1.1033343151211739e-02" rms="1.2208809703588486e-01" purity="1.4531131088733673e-01" nType="0">
          <Node pos="l" depth="2" NCoef="0" IVar="-1" Cut="0.0000000000000000e+00" cType="1" res="-3.1446881592273712e-02" rms="6.4412303268909454e-02" purity="1.3369572162628174e-01" nType="-99"/>
          <Node pos="r" depth="2" NCoef="0" IVar="-1" Cut="0.0000000000000000e+00" cType="1" res="9.0899392962455750e-02" rms="3.0371966958045959e-01" purity="2.3929418623447418e-01" nType="-99"/>
        </Node>
        <Node pos="r" depth="1" NCoef="0" IVar="5" Cut="4.2351932525634766e+00" cType="1" res="9.2842914164066315e-02" rms="1.3187724351882935e-01" purity="9.7591900825500488e-01" nType="0">
          <Node pos="l" depth="2" NCoef="0" IVar="-1" Cut="0.0000000000000000e+00" cType="1" res="7.6696477830410004e-02" rms="1.9154068827629089e-01" purity="8.6571085453033447e-01" nType="-99"/>
          <Node pos="r" depth="2" NCoef="0" IVar="-1" Cut="0.0000000000000000e+00" cType="1" res="5.2717901766300201e-02" rms="1.7399219796061516e-02" purity="1.0000000000000000e+00" nType="-99"/>
        </Node>
      </Node>
    </BinaryTree>
    <BinaryTree type="DecisionTree" boostWeight="1.0000000000000000e+00" itree="34">
      <Node pos="s" depth="0" NCoef="0" IVar="4" Cut="2.6180753707885742e+00" cType="1" res="3.5008683800697327e-02" rms="1.5336172282695770e-01" purity="5.6530976295471191e-01" nType="0">
        <Node pos="l" depth="1" NCoef="0" IVar="0" Cut="2.0017957687377930e+00" cType="1" res="-1.0820967145264149e-02" rms="7.3183715343475342e-02" purity="2.1707631647586823e-01" nType="0">
          <Node pos="l" depth="2" NCoef="0" IVar="-1" Cut="0.0000000000000000e+00" cType="1" res="-3.2617367804050446e-02" rms="4.6930961310863495e-02" purity="1.8944503366947174e-01" nType="-99"/>
          <Node pos="r" depth="2" NCoef="0" IVar="-1" Cut="0.0000000000000000e+00" cType="1" res="5.0315592437982559e-02" rms="1.6409333050251007e-01" purity="6.6513198614120483e-01" nType="-99"/>
        </Node>
        <Node pos="r" depth="1" NCoef="0" IVar="9" Cut="5.4387561976909637e-02" cType="1" res="8.5829429328441620e-02" rms="1.9685041904449463e-01" purity="9.5146775245666504e-01" nType="0">
          <Node pos="l" depth="2" NCoef="0" IVar="-1" Cut="0.0000000000000000e+00" cType="1" res="6.2500581145286560e-02" rms="1.6422252357006073e-01" purity="9.4181847572326660e-01" nType="-99"/>
          <Node pos="r" depth="2" NCoef="0" IVar="-1" Cut="0.0000000000000000e+00" cType="1" res="-7.5235991971567273e-04" rms="1.5986552834510803e-01" purity="9.5715266466140747e-01" nType="-99"/>
        </Node>
      </Node>
    </BinaryTree>
    <BinaryTree type="DecisionTree" boostWeight="1.0000000000000000e+00" itree="35">
      <Node pos="s" depth="0" NCoef="0" IVar="5" Cut="2.1174311637878418e+00" cType="1" res="1.7837971681728959e-03" rms="1.0825131833553314e-01" purity="3.7909978628158569e-01" nType="0">
        <Node pos="l" depth="1" NCoef="0" IVar="4" Cut="2.5029416084289551e+00" cType="1" res="-3.5808701068162918e-02" rms="6.0576643794775009e-02" purity="3.7705231457948685e-02" nType="0">
          <Node pos="l" depth="2" NCoef="0" IVar="-1" Cut="0.0000000000000000e+00" cType="1" res="-4.9844332039356232e-02" rms="2.5502208620309830e-02" purity="1.3598994351923466e-02" nType="-99"/>
          <Node pos="r" depth="2" NCoef="0" IVar="-1" Cut="0.0000000000000000e+00" cType="1" res="-6.0136161744594574e-02" rms="1.8256546556949615e-01" purity="3.3169069886207581e-01" nType="-99"/>
        </Node>
        <Node pos="r" depth="1" NCoef="0" IVar="11" Cut="2.2711114585399628e-01" cType="1" res="4.1459515690803528e-02" rms="1.3094857335090637e-01" purity="7.3941296339035034e-01" nType="0">
          <Node pos="l" depth="2" NCoef="0" IVar="-1" Cut="0.0000000000000000e+00" cType="1" res="6.2707766890525818e-02" rms="2.2809305787086487e-01" purity="5.0566744804382324e-01" nType="-99"/>
          <Node pos="r" depth="2" NCoef="0" IVar="-1" Cut="0.0000000000000000e+00" cType="1" res="2.3030268028378487e-02" rms="5.0583347678184509e-02" purity="8.2018667459487915e-01" nType="-99"/>
        </Node>
      </Node>
    </BinaryTree>
    <BinaryTree type="DecisionTree" boostWeight="1.0000000000000000e+00" itree="36">
      <Node pos="s" depth="0" NCoef="0" IVar="4" Cut="3.3329563140869141e+00" cType="1" res="1.8653415143489838e-02" rms="1.2257324904203415e-01" purity="3.9885205030441284e-01" nType="0">
        <Node pos="l" depth="1" NCoef="0" IVar="5" Cut="3.0409064292907715e+00" cType="1" res="-1.3770029880106449e-02" rms="9.0949423611164093e-02" purity="1.4252118766307831e-01" nType="0">
          <Node pos="l" depth="2" NCoef="0" IVar="-1" Cut="0.0000000000000000e+00" cType="1" res="-3.8138981908559799e-02" rms="4.6718239784240723e-02" purity="1.2232950329780579e-01" nType="-99"/>
          <Node pos="r" depth="2" NCoef="0" IVar="-1" Cut="0.0000000000000000e+00" cType="1" res="5.9719365090131760e-02" rms="2.3472473025321960e-01" purity="3.3699724078178406e-01" nType="-99"/>
        </Node>
        <Node pos="r" depth="1" NCoef="0" IVar="3" Cut="2.5842423439025879e+00" cType="1" res="9.1729879379272461e-02" rms="1.5011100471019745e-01" purity="9.7657454013824463e-01" nType="0">
          <Node pos="l" depth="2" NCoef="0" IVar="-1" Cut="0.0000000000000000e+00" cType="1" res="6.7879930138587952e-02" rms="2.0273630321025848e-01" purity="9.2686718702316284e-01" nType="-99"/>
          <Node pos="r" depth="2" NCoef="0" IVar="-1" Cut="0.0000000000000000e+00" cType="1" res="5.2020460367202759e-02" rms="1.8237277865409851e-02" purity="1.0000000000000000e+00" nType="-99"/>
        </Node>
      </Node>
    </BinaryTree>
    <BinaryTree type="DecisionTree" boostWeight="1.0000000000000000e+00" itree="37">
      <Node pos="s" depth="0" NCoef="0" IVar="6" Cut="2.8948341496288776e-03" cType="1" res="2.0981660112738609e-02" rms="1.1705292761325836e-01" purity="4.6798884868621826e-01" nType="0">
        <Node pos="l" depth="1" NCoef="0" IVar="6" Cut="2.3435002658516169e-03" cType="1" res="8.6665280163288116e-02" rms="1.7525109648704529e-01" purity="7.7208220958709717e-01" nType="0">
          <Node pos="l" depth="2" NCoef="0" IVar="-1" Cut="0.0000000000000000e+00" cType="1" res="3.4838050603866577e-02" rms="1.0129000246524811e-01" purity="7.6039463281631470e-01" nType="-99"/>
          <Node pos="r" depth="2" NCoef="0" IVar="-1" Cut="0.0000000000000000e+00" cType="1" res="5.8729942888021469e-02" rms="2.7338495850563049e-01" purity="8.1310600042343140e-01" nType="-99"/>
        </Node>
        <Node pos="r" depth="1" NCoef="0" IVar="4" Cut="3.9016139507293701e+00" cType="1" res="-1.1561916209757328e-02" rms="4.5565187931060791e-02" purity="3.1732285022735596e-01" nType="0">
          <Node pos="l" depth="2" NCoef="0" IVar="-1" Cut="0.0000000000000000e+00" cType="1" res="-5.5252369493246078e-02" rms="4.3285202234983444e-02" purity="0.0000000000000000e+00" nType="-99"/>
          <Node pos="r" depth="2" NCoef="0" IVar="-1" Cut="0.0000000000000000e+00" cType="1" res="4.2745418846607208e-02" rms="2.7631457895040512e-02" purity="9.8408186435699463e-01" nType="-99"/>
        </Node>
      </Node>
    </BinaryTree>
    <BinaryTree type="DecisionTree" boostWeight="1.0000000000000000e+00" itree="38">
      <Node pos="s" depth="0" NCoef="0" IVar="7" Cut="7.0244760513305664e+00" cType="1" res="-1.0464751394465566e-03" rms="8.0905713140964508e-02" purity="4.1204306483268738e-01" nType="0">
        <Node pos="l" depth="1" NCoef="0" IVar="4" Cut="3.1358659267425537e+00" cType="1" res="-3.6662027239799500e-02" rms="5.9280380606651306e-02" purity="0.0000000000000000e+00" nType="0">
          <Node pos="l" depth="2" NCoef="0" IVar="-1" Cut="0.0000000000000000e+00" cType="1" res="-5.1923662424087524e-02" rms="1.7731098458170891e-02" purity="0.0000000000000000e+00" nType="-99"/>
          <Node pos="r" depth="2" NCoef="0" IVar="-1" Cut="0.0000000000000000e+00" cType="1" res="-6.9781787693500519e-02" rms="1.0413682460784912e-01" purity="0.0000000000000000e+00" nType="-99"/>
        </Node>
        <Node pos="r" depth="1" NCoef="0" IVar="11" Cut="8.1001478433609009e-01" cType="1" res="3.9494805037975311e-02" rms="8.3120904862880707e-02" purity="8.8107281923294067e-01" nType="0">
          <Node pos="l" depth="2" NCoef="0" IVar="-1" Cut="0.0000000000000000e+00" cType="1" res="2.4222474545240402e-02" rms="5.6671824306249619e-02" purity="8.5379064083099365e-01" nType="-99"/>
          <Node pos="r" depth="2" NCoef="0" IVar="-1" Cut="0.0000000000000000e+00" cType="1" res="6.1867337673902512e-02" rms="1.0226820409297943e-01" purity="9.6528440713882446e-01" nType="-99"/>
        </Node>
      </Node>
    </BinaryTree>
    <BinaryTree type="DecisionTree" boostWeight="1.0000000000000000e+00" itree="39">
      <Node pos="s" depth="0" NCoef="0" IVar="0" Cut="1.5493650436401367e+00" cType="1" res="2.5229781866073608e-02" rms="1.3846364617347717e-01" purity="4.8972821235656738e-01" nType="0">
        <Node pos="l" depth="1" NCoef="0" IVar="9" Cut="6.7994058132171631e-02" cType="1" res="-3.6968651693314314e-03" rms="6.7072845995426178e-02" purity="4.1132029891014099e-01" nType="0">
          <Node pos="l" depth="2" NCoef="0" IVar="-1" Cut="0.0000000000000000e+00" cType="1" res="-5.0875596702098846e-02" rms="7.4452266097068787e-02" purity="1.0944096744060516e-01" nType="-99"/>
          <Node pos="r" depth="2" NCoef="0" IVar="-1" Cut="0.0000000000000000e+00" cType="1" res="5.2354268729686737e-02" rms="1.9693568348884583e-02" purity="1.0000000000000000e+00" nType="-99"/>
        </Node>
        <Node pos="r" depth="1" NCoef="0" IVar="1" Cut="1.2989403009414673e+00" cType="1" res="9.5161959528923035e-02" rms="2.1847827732563019e-01" purity="6.7928475141525269e-01" nType="0">
          <Node pos="l" depth="2" NCoef="0" IVar="-1" Cut="0.0000000000000000e+00" cType="1" res="6.4102329313755035e-02" rms="2.7924889326095581e-01" purity="6.0251611471176147e-01" nType="-99"/>
          <Node pos="r" depth="2" NCoef="0" IVar="-1" Cut="0.0000000000000000e+00" cType="1" res="5.3978818468749523e-03" rms="6.3205659389495850e-02" purity="7.4308216571807861e-01" nType="-99"/>
        </Node>
      </Node>
    </BinaryTree>
    <BinaryTree type="DecisionTree" boostWeight="1.0000000000000000e+00" itree="40">
      <Node pos="s" depth="0" NCoef="0" IVar="3" Cut="2.5798368453979492e+00" cType="1" res="1.9692799833137542e-04" rms="7.5421482324600220e-02" purity="4.9908834695816040e-01" nType="0">
        <Node pos="l" depth="1" NCoef="0" IVar="4" Cut="2.7826967239379883e+00" cType="1" res="-2.7238123118877411e-02" rms="8.1336557865142822e-02" purity="1.2962990999221802e-01" nType="0">
          <Node pos="l" depth="2" NCoef="0" IVar="-1" Cut="0.0000000000000000e+00" cType="1" res="-3.3820804208517075e-02" rms="3.5941176116466522e-02" purity="7.8954838216304779e-02" nType="-99"/>
          <Node pos="r" depth="2" NCoef="0" IVar="-1" Cut="0.0000000000000000e+00" cType="1" res="-6.1992172151803970e-02" rms="2.1251916885375977e-01" purity="5.5501574277877808e-01" nType="-99"/>
        </Node>
        <Node pos="r" depth="1" NCoef="0" IVar="3" Cut="3.3233335018157959e+00" cType="1" res="3.2255679368972778e-02" rms="5.1938395947217941e-02" purity="9.3081253767013550e-01" nType="0">
          <Node pos="l" depth="2" NCoef="0" IVar="-1" Cut="0.0000000000000000e+00" cType="1" res="5.4557792842388153e-02" rms="7.4710592627525330e-02" purity="7.6366561651229858e-01" nType="-99"/>
          <Node pos="r" depth="2" NCoef="0" IVar="-1" Cut="0.0000000000000000e+00" cType="1" res="4.3490510433912277e-02" rms="1.8629586324095726e-02" purity="9.6642804145812988e-01" nType="-99"/>
        </Node>
      </Node>
    </BinaryTree>
    <BinaryTree type="DecisionTree" boostWeight="1.0000000000000000e+00" itree="41">
      <Node pos="s" depth="0" NCoef="0" IVar="0" Cut="1.5494136810302734e+00" cType="1" res="3.3265341073274612e-02" rms="1.5999020636081696e-01" purity="5.0794798135757446e-01" nType="0">
        <Node pos="l" depth="1" NCoef="0" IVar="2" Cut="4.0316214561462402e+00" cType="1" res="-1.3245796784758568e-02" rms="9.6087314188480377e-02" purity="3.6737269163131714e-01" nType="0">
          <Node pos="l" depth="2" NCoef="0" IVar="-1" Cut="0.0000000000000000e+00" cType="1" res="-9.6433311700820923e-03" rms="3.2267734408378601e-02" purity="2.8491863608360291e-01" nType="-99"/>
          <Node pos="r" depth="2" NCoef="0" IVar="-1" Cut="0.0000000000000000e+00" cType="1" res="-1.0794399678707123e-01" rms="2.3957493901252747e-01" purity="8.8880133628845215e-01" nType="-99"/>
        </Node>
        <Node pos="r" depth="1" NCoef="0" IVar="1" Cut="1.2989403009414673e+00" cType="1" res="1.0098409652709961e-01" rms="2.0417387783527374e-01" purity="7.1262133121490479e-01" nType="0">
          <Node pos="l" depth="2" NCoef="0" IVar="-1" Cut="0.0000000000000000e+00" cType="1" res="7.2165660560131073e-02" rms="2.3036517202854156e-01" purity="6.7032039165496826e-01" nType="-99"/>
          <Node pos="r" depth="2" NCoef="0" IVar="-1" Cut="0.0000000000000000e+00" cType="1" res="7.7850837260484695e-03" rms="1.1522842943668365e-01" purity="7.4681687355041504e-01" nType="-99"/>
        </Node>
      </Node>
    </BinaryTree>
    <BinaryTree type="DecisionTree" boostWeight="1.0000000000000000e+00" itree="42">
      <Node pos="s" depth="0" NCoef="0" IVar="3" Cut="3.1354954242706299e+00" cType="1" res="1.6437841579318047e-02" rms="8.7244607508182526e-02" purity="4.6903526782989502e-01" nType="0">
        <Node pos="l" depth="1" NCoef="0" IVar="7" Cut="1.6033765792846680e+01" cType="1" res="-1.1403761804103851e-02" rms="5.7111807167530060e-02" purity="2.5188037753105164e-01" nType="0">
          <Node pos="l" depth="2" NCoef="0" IVar="-1" Cut="0.0000000000000000e+00" cType="1" res="-4.5682050287723541e-02" rms="5.1322218030691147e-02" purity="5.4676827043294907e-02" nType="-99"/>
          <Node pos="r" depth="2" NCoef="0" IVar="-1" Cut="0.0000000000000000e+00" cType="1" res="3.8667537271976471e-02" rms="5.8048646897077560e-02" purity="9.8005366325378418e-01" nType="-99"/>
        </Node>
        <Node pos="r" depth="1" NCoef="0" IVar="9" Cut="5.5097140371799469e-02" cType="1" res="8.3206295967102051e-02" rms="1.0828802734613419e-01" purity="9.8980623483657837e-01" nType="0">
          <Node pos="l" depth="2" NCoef="0" IVar="-1" Cut="0.0000000000000000e+00" cType="1" res="6.6037058830261230e-02" rms="9.5901221036911011e-02" purity="9.7272473573684692e-01" nType="-99"/>
          <Node pos="r" depth="2" NCoef="0" IVar="-1" Cut="0.0000000000000000e+00" cType="1" res="5.0700884312391281e-02" rms="3.4433424007147551e-03" purity="1.0000000000000000e+00" nType="-99"/>
        </Node>
      </Node>
    </BinaryTree>
    <BinaryTree type="DecisionTree" boostWeight="1.0000000000000000e+00" itree="43">
      <Node pos="s" depth="0" NCoef="0" IVar="0" Cut="1.5399127006530762e+00" cType="1" res="4.2212083935737610e-02" rms="1.1966966092586517e-01" purity="6.5179955959320068e-01" nType="0">
        <Node pos="l" depth="1" NCoef="0" IVar="5" Cut="2.9091844558715820e+00" cType="1" res="1.9852064549922943e-02" rms="6.8643845617771149e-02" purity="6.3293927907943726e-01" nType="0">
          <Node pos="l" depth="2" NCoef="0" IVar="-1" Cut="0.0000000000000000e+00" cType="1" res="-5.1473114639520645e-02" rms="1.4205341227352619e-02" purity="0.0000000000000000e+00" nType="-99"/>
          <Node pos="r" depth="2" NCoef="0" IVar="-1" Cut="0.0000000000000000e+00" cType="1" res="5.8911819010972977e-02" rms="7.7807843685150146e-02" purity="9.6701180934906006e-01" nType="-99"/>
        </Node>
        <Node pos="r" depth="1" NCoef="0" IVar="9" Cut="3.8467656821012497e-02" cType="1" res="1.0513516515493393e-01" rms="1.8972271680831909e-01" purity="7.0487385988235474e-01" nType="0">
          <Node pos="l" depth="2" NCoef="0" IVar="-1" Cut="0.0000000000000000e+00" cType="1" res="6.3282966613769531e-02" rms="2.0671743154525757e-01" purity="5.9002315998077393e-01" nType="-99"/>
          <Node pos="r" depth="2" NCoef="0" IVar="-1" Cut="0.0000000000000000e+00" cType="1" res="7.2101787663996220e-03" rms="9.2903576791286469e-02" purity="9.0483015775680542e-01" nType="-99"/>
        </Node>
      </Node>
    </BinaryTree>
    <BinaryTree type="DecisionTree" boostWeight="1.0000000000000000e+00" itree="44">
      <Node pos="s" depth="0" NCoef="0" IVar="4" Cut="3.4286248683929443e+00" cType="1" res="1.9902838394045830e-02" rms="8.8915258646011353e-02" purity="5.8572828769683838e-01" nType="0">
        <Node pos="l" depth="1" NCoef="0" IVar="0" Cut="1.7221356630325317e+00" cType="1" res="-1.9964789971709251e-02" rms="4.8650335520505905e-02" purity="6.7721605300903320e-02" nType="0">
          <Node pos="l" depth="2" NCoef="0" IVar="-1" Cut="0.0000000000000000e+00" cType="1" res="-4.3318070471286774e-02" rms="4.5340515673160553e-02" purity="7.2692997753620148e-02" nType="-99"/>
          <Node pos="r" depth="2" NCoef="0" IVar="-1" Cut="0.0000000000000000e+00" cType="1" res="-4.4753488153219223e-02" rms="6.3326619565486908e-02" purity="2.3514626547694206e-02" nType="-99"/>
        </Node>
        <Node pos="r" depth="1" NCoef="0" IVar="9" Cut="4.9304943531751633e-02" cType="1" res="5.0183784216642380e-02" rms="9.9944420158863068e-02" purity="9.7917348146438599e-01" nType="0">
          <Node pos="l" depth="2" NCoef="0" IVar="-1" Cut="0.0000000000000000e+00" cType="1" res="5.6848779320716858e-02" rms="1.2469426542520523e-01" purity="9.2865270376205444e-01" nType="-99"/>
          <Node pos="r" depth="2" NCoef="0" IVar="-1" Cut="0.0000000000000000e+00" cType="1" res="3.9816334843635559e-02" rms="6.2144033610820770e-02" purity="9.9456566572189331e-01" nType="-99"/>
        </Node>
      </Node>
    </BinaryTree>
    <BinaryTree type="DecisionTree" boostWeight="1.0000000000000000e+00" itree="45">
      <Node pos="s" depth="0" NCoef="0" IVar="5" Cut="2.1082336902618408e+00" cType="1" res="5.9357839636504650e-03" rms="1.5636482834815979e-01" purity="3.7509220838546753e-01" nType="0">
        <Node pos="l" depth="1" NCoef="0" IVar="4" Cut="2.5236263275146484e+00" cType="1" res="-3.6777310073375702e-02" rms="8.7571904063224792e-02" purity="2.5621037930250168e-02" nType="0">
          <Node pos="l" depth="2" NCoef="0" IVar="-1" Cut="0.0000000000000000e+00" cType="1" res="-4.8750422894954681e-02" rms="2.2653885185718536e-02" purity="1.4387426897883415e-02" nType="-99"/>
          <Node pos="r" depth="2" NCoef="0" IVar="-1" Cut="0.0000000000000000e+00" cType="1" res="-7.9495467245578766e-02" rms="1.9068446755409241e-01" purity="1.1688096821308136e-01" nType="-99"/>
        </Node>
        <Node pos="r" depth="1" NCoef="0" IVar="9" Cut="2.6422560214996338e-02" cType="1" res="5.2856612950563431e-02" rms="1.9666855037212372e-01" purity="7.5899034738540649e-01" nType="0">
          <Node pos="l" depth="2" NCoef="0" IVar="-1" Cut="0.0000000000000000e+00" cType="1" res="1.7403867840766907e-01" rms="4.0258604288101196e-01" purity="2.8420627117156982e-01" nType="-99"/>
          <Node pos="r" depth="2" NCoef="0" IVar="-1" Cut="0.0000000000000000e+00" cType="1" res="3.5731576383113861e-02" rms="2.6001373305916786e-02" purity="8.7625086307525635e-01" nType="-99"/>
        </Node>
      </Node>
    </BinaryTree>
    <BinaryTree type="DecisionTree" boostWeight="1.0000000000000000e+00" itree="46">
      <Node pos="s" depth="0" NCoef="0" IVar="4" Cut="1.7819261550903320e+00" cType="1" res="1.4313753694295883e-02" rms="1.3161647319793701e-01" purity="3.6893126368522644e-01" nType="0">
        <Node pos="l" depth="1" NCoef="0" IVar="0" Cut="1.5259282588958740e+00" cType="1" res="-2.1994808688759804e-02" rms="4.6321962028741837e-02" purity="6.9885322591289878e-04" nType="0">
          <Node pos="l" depth="2" NCoef="0" IVar="-1" Cut="0.0000000000000000e+00" cType="1" res="-4.8596415668725967e-02" rms="2.2263748571276665e-02" purity="8.1821758067235351e-04" nType="-99"/>
          <Node pos="r" depth="2" NCoef="0" IVar="-1" Cut="0.0000000000000000e+00" cType="1" res="-6.1877530068159103e-02" rms="9.3298926949501038e-02" purity="0.0000000000000000e+00" nType="-99"/>
        </Node>
        <Node pos="r" depth="1" NCoef="0" IVar="10" Cut="9.0476232767105103e-01" cType="1" res="4.3814238160848618e-02" rms="1.6647179424762726e-01" purity="6.6811782121658325e-01" nType="0">
          <Node pos="l" depth="2" NCoef="0" IVar="-1" Cut="0.0000000000000000e+00" cType="1" res="-6.4746677875518799e-02" rms="9.7451001405715942e-02" purity="0.0000000000000000e+00" nType="-99"/>
          <Node pos="r" depth="2" NCoef="0" IVar="-1" Cut="0.0000000000000000e+00" cType="1" res="6.9109559059143066e-02" rms="1.7085996270179749e-01" purity="8.3055162429809570e-01" nType="-99"/>
        </Node>
      </Node>
    </BinaryTree>
    <BinaryTree type="DecisionTree" boostWeight="1.0000000000000000e+00" itree="47">
      <Node pos="s" depth="0" NCoef="0" IVar="8" Cut="1.5016882121562958e-01" cType="1" res="-1.7503157723695040e-03" rms="9.8872348666191101e-02" purity="4.7061267495155334e-01" nType="0">
        <Node pos="l" depth="1" NCoef="0" IVar="8" Cut="5.8225322514772415e-02" cType="1" res="8.3153098821640015e-03" rms="1.0775934904813766e-01" purity="6.3132941722869873e-01" nType="0">
          <Node pos="l" depth="2" NCoef="0" IVar="-1" Cut="0.0000000000000000e+00" cType="1" res="5.3069077432155609e-02" rms="9.7832173109054565e-02" purity="8.6679643392562866e-01" nType="-99"/>
          <Node pos="r" depth="2" NCoef="0" IVar="-1" Cut="0.0000000000000000e+00" cType="1" res="-8.3224557340145111e-02" rms="1.1841201782226562e-01" purity="0.0000000000000000e+00" nType="-99"/>
        </Node>
        <Node pos="r" depth="1" NCoef="0" IVar="4" Cut="2.5079922676086426e+00" cType="1" res="-3.1224597245454788e-02" rms="5.6860785931348801e-02" purity="0.0000000000000000e+00" nType="0">
          <Node pos="l" depth="2" NCoef="0" IVar="-1" Cut="0.0000000000000000e+00" cType="1" res="-5.1821548491716385e-02" rms="1.7572941258549690e-02" purity="0.0000000000000000e+00" nType="-99"/>
          <Node pos="r" depth="2" NCoef="0" IVar="-1" Cut="0.0000000000000000e+00" cType="1" res="-6.5005011856555939e-02" rms="1.1278962343931198e-01" purity="0.0000000000000000e+00" nType="-99"/>
        </Node>
      </Node>
    </BinaryTree>
    <BinaryTree type="DecisionTree" boostWeight="1.0000000000000000e+00" itree="48">
      <Node pos="s" depth="0" NCoef="0" IVar="6" Cut="2.9410221613943577e-03" cType="1" res="2.6867002248764038e-02" rms="1.1041773110628128e-01" purity="5.7520198822021484e-01" nType="0">
        <Node pos="l" depth="1" NCoef="0" IVar="6" Cut="2.4195511359721422e-03" cType="1" res="6.7733183503150940e-02" rms="1.1124000698328018e-01" purity="8.4030449390411377e-01" nType="0">
          <Node pos="l" depth="2" NCoef="0" IVar="-1" Cut="0.0000000000000000e+00" cType="1" res="3.9143096655607224e-02" rms="7.3790237307548523e-02" purity="8.1614798307418823e-01" nType="-99"/>
          <Node pos="r" depth="2" NCoef="0" IVar="-1" Cut="0.0000000000000000e+00" cType="1" res="6.6870398819446564e-02" rms="1.3500703871250153e-01" purity="9.2044383287429810e-01" nType="-99"/>
        </Node>
        <Node pos="r" depth="1" NCoef="0" IVar="13" Cut="-2.0986933708190918e+00" cType="1" res="-3.2523204572498798e-03" rms="9.9597722291946411e-02" purity="3.7981525063514709e-01" nType="0">
          <Node pos="l" depth="2" NCoef="0" IVar="-1" Cut="0.0000000000000000e+00" cType="1" res="2.4787963926792145e-01" rms="3.4297221899032593e-01" purity="1.8427704274654388e-01" nType="-99"/>
          <Node pos="r" depth="2" NCoef="0" IVar="-1" Cut="0.0000000000000000e+00" cType="1" res="-3.0976684764027596e-02" rms="5.4732520133256912e-02" purity="3.9009499549865723e-01" nType="-99"/>
        </Node>
      </Node>
    </BinaryTree>
    <BinaryTree type="DecisionTree" boostWeight="1.0000000000000000e+00" itree="49">
      <Node pos="s" depth="0" NCoef="0" IVar="0" Cut="1.7288849353790283e+00" cType="1" res="1.3025854714214802e-02" rms="1.1506175249814987e-01" purity="4.5762848854064941e-01" nType="0">
        <Node pos="l" depth="1" NCoef="0" IVar="11" Cut="8.5555171966552734e-01" cType="1" res="-4.4946391135454178e-03" rms="9.4701789319515228e-02" purity="3.3801633119583130e-01" nType="0">
          <Node pos="l" depth="2" NCoef="0" IVar="-1" Cut="0.0000000000000000e+00" cType="1" res="-3.8302611559629440e-02" rms="9.8239324986934662e-02" purity="1.9502094388008118e-01" nType="-99"/>
          <Node pos="r" depth="2" NCoef="0" IVar="-1" Cut="0.0000000000000000e+00" cType="1" res="5.0349056720733643e-02" rms="4.5672107487916946e-02" purity="8.6135953664779663e-01" nType="-99"/>
        </Node>
        <Node pos="r" depth="1" NCoef="0" IVar="1" Cut="1.2827712297439575e+00" cType="1" res="7.0883862674236298e-02" rms="1.5159606933593750e-01" purity="8.5262435674667358e-01" nType="0">
          <Node pos="l" depth="2" NCoef="0" IVar="-1" Cut="0.0000000000000000e+00" cType="1" res="9.5513835549354553e-02" rms="2.4907489120960236e-01" purity="8.8818079233169556e-01" nType="-99"/>
          <Node pos="r" depth="2" NCoef="0" IVar="-1" Cut="0.0000000000000000e+00" cType="1" res="4.1764877736568451e-02" rms="7.2934836149215698e-02" purity="8.4261530637741089e-01" nType="-99"/>
        </Node>
      </Node>
    </BinaryTree>
    <BinaryTree type="DecisionTree" boostWeight="1.0000000000000000e+00" itree="50">
      <Node pos="s" depth="0" NCoef="0" IVar="1" Cut="1.2874751091003418e+00" cType="1" res="2.9414277523756027e-02" rms="1.0867973417043686e-01" purity="5.4637908935546875e-01" nType="0">
        <Node pos="l" depth="1" NCoef="0" IVar="0" Cut="1.5641281604766846e+00" cType="1" res="6.3976086676120758e-02" rms="1.3911667466163635e-01" purity="5.4728734493255615e-01" nType="0">
          <Node pos="l" depth="2" NCoef="0" IVar="-1" Cut="0.0000000000000000e+00" cType="1" res="1.7599765211343765e-02" rms="3.2552864402532578e-02" purity="3.3163487911224365e-01" nType="-99"/>
          <Node pos="r" depth="2" NCoef="0" IVar="-1" Cut="0.0000000000000000e+00" cType="1" res="6.6771380603313446e-02" rms="1.8467926979064941e-01" purity="8.4732854366302490e-01" nType="-99"/>
        </Node>
        <Node pos="r" depth="1" NCoef="0" IVar="11" Cut="3.5909143090248108e-01" cType="1" res="-2.8032462578266859e-03" rms="5.1276054233312607e-02" purity="5.4553240537643433e-01" nType="0">
          <Node pos="l" depth="2" NCoef="0" IVar="-1" Cut="0.0000000000000000e+00" cType="1" res="-5.7351954281330109e-02" rms="6.2025342136621475e-02" purity="1.0658220201730728e-01" nType="-99"/>
          <Node pos="r" depth="2" NCoef="0" IVar="-1" Cut="0.0000000000000000e+00" cType="1" res="3.9306137710809708e-02" rms="3.2825194299221039e-02" purity="8.4522765874862671e-01" nType="-99"/>
        </Node>
      </Node>
    </BinaryTree>
    <BinaryTree type="DecisionTree" boostWeight="1.0000000000000000e+00" itree="51">
      <Node pos="s" depth="0" NCoef="0" IVar="0" Cut="1.7310136556625366e+00" cType="1" res="1.3550464063882828e-02" rms="9.4471037387847900e-02" purity="5.5130159854888916e-01" nType="0">
        <Node pos="l" depth="1" NCoef="0" IVar="11" Cut="4.9755990505218506e-01" cType="1" res="-1.0303873568773270e-02" rms="5.7913459837436676e-02" purity="4.4018217921257019e-01" nType="0">
          <Node pos="l" depth="2" NCoef="0" IVar="-1" Cut="0.0000000000000000e+00" cType="1" res="-5.9661425650119781e-02" rms="7.7688574790954590e-02" purity="6.4462631940841675e-02" nType="-99"/>
          <Node pos="r" depth="2" NCoef="0" IVar="-1" Cut="0.0000000000000000e+00" cType="1" res="2.9862765222787857e-02" rms="1.5307676978409290e-02" purity="7.9947715997695923e-01" nType="-99"/>
        </Node>
        <Node pos="r" depth="1" NCoef="0" IVar="9" Cut="6.7395836114883423e-02" cType="1" res="7.2333790361881256e-02" rms="1.3339786231517792e-01" purity="8.2512903213500977e-01" nType="0">
          <Node pos="l" depth="2" NCoef="0" IVar="-1" Cut="0.0000000000000000e+00" cType="1" res="6.0980718582868576e-02" rms="1.6389322280883789e-01" purity="6.5259796380996704e-01" nType="-99"/>
          <Node pos="r" depth="2" NCoef="0" IVar="-1" Cut="0.0000000000000000e+00" cType="1" res="5.0407622009515762e-02" rms="3.1690171454101801e-03" purity="1.0000000000000000e+00" nType="-99"/>
        </Node>
      </Node>
    </BinaryTree>
    <BinaryTree type="DecisionTree" boostWeight="1.0000000000000000e+00" itree="52">
      <Node pos="s" depth="0" NCoef="0" IVar="0" Cut="1.5446876287460327e+00" cType="1" res="2.0134557038545609e-02" rms="1.0013318806886673e-01" purity="5.6951808929443359e-01" nType="0">
        <Node pos="l" depth="1" NCoef="0" IVar="4" Cut="3.5811994075775146e+00" cType="1" res="1.4160391874611378e-03" rms="1.8732884898781776e-02" purity="4.7049334645271301e-01" nType="0">
          <Node pos="l" depth="2" NCoef="0" IVar="-1" Cut="0.0000000000000000e+00" cType="1" res="-4.9677766859531403e-02" rms="1.6479069367051125e-02" purity="7.9119048314169049e-04" nType="-99"/>
          <Node pos="r" depth="2" NCoef="0" IVar="-1" Cut="0.0000000000000000e+00" cType="1" res="5.0987195223569870e-02" rms="7.6220622286200523e-03" purity="1.0000000000000000e+00" nType="-99"/>
        </Node>
        <Node pos="r" depth="1" NCoef="0" IVar="7" Cut="5.3583669662475586e+00" cType="1" res="5.9624642133712769e-02" rms="1.6775189340114594e-01" purity="7.7842849493026733e-01" nType="0">
          <Node pos="l" depth="2" NCoef="0" IVar="-1" Cut="0.0000000000000000e+00" cType="1" res="6.5832860767841339e-02" rms="2.1424090862274170e-01" purity="4.9160966277122498e-01" nType="-99"/>
          <Node pos="r" depth="2" NCoef="0" IVar="-1" Cut="0.0000000000000000e+00" cType="1" res="5.5507514625787735e-03" rms="9.7054533660411835e-02" purity="9.4200986623764038e-01" nType="-99"/>
        </Node>
      </Node>
    </BinaryTree>
    <BinaryTree type="DecisionTree" boostWeight="1.0000000000000000e+00" itree="53">
      <Node pos="s" depth="0" NCoef="0" IVar="0" Cut="1.5641281604766846e+00" cType="1" res="3.3290788531303406e-02" rms="1.3827769458293915e-01" purity="4.8144295811653137e-01" nType="0">
        <Node pos="l" depth="1" NCoef="0" IVar="9" Cut="6.6978707909584045e-02" cType="1" res="-5.3004948422312737e-03" rms="6.9585978984832764e-02" purity="2.8882008790969849e-01" nType="0">
          <Node pos="l" depth="2" NCoef="0" IVar="-1" Cut="0.0000000000000000e+00" cType="1" res="-5.1592990756034851e-02" rms="7.3164835572242737e-02" purity="1.2199006229639053e-01" nType="-99"/>
          <Node pos="r" depth="2" NCoef="0" IVar="-1" Cut="0.0000000000000000e+00" cType="1" res="4.6696264296770096e-02" rms="4.1373368352651596e-02" purity="9.4634872674942017e-01" nType="-99"/>
        </Node>
        <Node pos="r" depth="1" NCoef="0" IVar="9" Cut="3.8515448570251465e-02" cType="1" res="8.9584544301033020e-02" rms="1.8603116273880005e-01" purity="7.6242518424987793e-01" nType="0">
          <Node pos="l" depth="2" NCoef="0" IVar="-1" Cut="0.0000000000000000e+00" cType="1" res="5.5576208978891373e-02" rms="1.8203058838844299e-01" purity="6.8662047386169434e-01" nType="-99"/>
          <Node pos="r" depth="2" NCoef="0" IVar="-1" Cut="0.0000000000000000e+00" cType="1" res="-4.5389950275421143e-02" rms="1.2560777366161346e-01" purity="8.7925511598587036e-01" nType="-99"/>
        </Node>
      </Node>
    </BinaryTree>
    <BinaryTree type="DecisionTree" boostWeight="1.0000000000000000e+00" itree="54">
      <Node pos="s" depth="0" NCoef="0" IVar="5" Cut="2.9160153865814209e+00" cType="1" res="1.2860470451414585e-02" rms="1.2018150091171265e-01" purity="5.7212114334106445e-01" nType="0">
        <Node pos="l" depth="1" NCoef="0" IVar="7" Cut="1.5111641883850098e+01" cType="1" res="-1.3151274994015694e-02" rms="7.6047442853450775e-02" purity="2.2417369484901428e-01" nType="0">
          <Node pos="l" depth="2" NCoef="0" IVar="-1" Cut="0.0000000000000000e+00" cType="1" res="-6.2816865742206573e-02" rms="7.8603543341159821e-02" purity="2.8477997984737158e-03" nType="-99"/>
          <Node pos="r" depth="2" NCoef="0" IVar="-1" Cut="0.0000000000000000e+00" cType="1" res="4.8114273697137833e-02" rms="3.3225547522306442e-02" purity="9.5145672559738159e-01" nType="-99"/>
        </Node>
        <Node pos="r" depth="1" NCoef="0" IVar="4" Cut="2.6248080730438232e+00" cType="1" res="4.2001977562904358e-02" rms="1.5012912452220917e-01" purity="9.6193397045135498e-01" nType="0">
          <Node pos="l" depth="2" NCoef="0" IVar="-1" Cut="0.0000000000000000e+00" cType="1" res="1.4670750498771667e-01" rms="3.4452444314956665e-01" purity="6.1363142728805542e-01" nType="-99"/>
          <Node pos="r" depth="2" NCoef="0" IVar="-1" Cut="0.0000000000000000e+00" cType="1" res="3.7111558020114899e-02" rms="2.4126816540956497e-02" purity="9.9308818578720093e-01" nType="-99"/>
        </Node>
      </Node>
    </BinaryTree>
    <BinaryTree type="DecisionTree" boostWeight="1.0000000000000000e+00" itree="55">
      <Node pos="s" depth="0" NCoef="0" IVar="7" Cut="1.4730889320373535e+01" cType="1" res="-3.8085728883743286e-03" rms="5.0365217030048370e-02" purity="5.2707827091217041e-01" nType="0">
        <Node pos="l" depth="1" NCoef="0" IVar="0" Cut="1.5399127006530762e+00" cType="1" res="-2.2577365860342979e-02" rms="6.3663639128208160e-02" purity="5.3640786558389664e-02" nType="0">
          <Node pos="l" depth="2" NCoef="0" IVar="-1" Cut="0.0000000000000000e+00" cType="1" res="-3.8235679268836975e-02" rms="3.4477353096008301e-02" purity="6.1237022280693054e-02" nType="-99"/>
          <Node pos="r" depth="2" NCoef="0" IVar="-1" Cut="0.0000000000000000e+00" cType="1" res="-5.9749353677034378e-02" rms="1.0922569781541824e-01" purity="2.4863449856638908e-02" nType="-99"/>
        </Node>
        <Node pos="r" depth="1" NCoef="0" IVar="4" Cut="5.6857838630676270e+00" cType="1" res="1.4705547131597996e-02" rms="1.8723435699939728e-02" purity="9.9409162998199463e-01" nType="0">
          <Node pos="l" depth="2" NCoef="0" IVar="-1" Cut="0.0000000000000000e+00" cType="1" res="5.0010081380605698e-02" rms="2.3902587592601776e-02" purity="9.8665910959243774e-01" nType="-99"/>
          <Node pos="r" depth="2" NCoef="0" IVar="-1" Cut="0.0000000000000000e+00" cType="1" res="5.0427082926034927e-02" rms="3.7213275209069252e-03" purity="1.0000000000000000e+00" nType="-99"/>
        </Node>
      </Node>
    </BinaryTree>
    <BinaryTree type="DecisionTree" boostWeight="1.0000000000000000e+00" itree="56">
      <Node pos="s" depth="0" NCoef="0" IVar="0" Cut="1.7306485176086426e+00" cType="1" res="3.8866684772074223e-03" rms="9.2334896326065063e-02" purity="5.4980838298797607e-01" nType="0">
        <Node pos="l" depth="1" NCoef="0" IVar="0" Cut="1.5225951671600342e+00" cType="1" res="-7.5266640633344650e-03" rms="8.5772342979907990e-02" purity="3.6401337385177612e-01" nType="0">
          <Node pos="l" depth="2" NCoef="0" IVar="-1" Cut="0.0000000000000000e+00" cType="1" res="6.5476335585117340e-03" rms="7.1640059351921082e-02" purity="3.4068322181701660e-01" nType="-99"/>
          <Node pos="r" depth="2" NCoef="0" IVar="-1" Cut="0.0000000000000000e+00" cType="1" res="-5.5920615792274475e-02" rms="1.2875507771968842e-01" purity="4.9827548861503601e-01" nType="-99"/>
        </Node>
        <Node pos="r" depth="1" NCoef="0" IVar="1" Cut="1.3080298900604248e+00" cType="1" res="2.3643543943762779e-02" rms="9.9665470421314240e-02" purity="8.7142598628997803e-01" nType="0">
          <Node pos="l" depth="2" NCoef="0" IVar="-1" Cut="0.0000000000000000e+00" cType="1" res="7.5177326798439026e-02" rms="1.7231795191764832e-01" purity="9.0261489152908325e-01" nType="-99"/>
          <Node pos="r" depth="2" NCoef="0" IVar="-1" Cut="0.0000000000000000e+00" cType="1" res="2.2053502034395933e-03" rms="3.6007430404424667e-02" purity="8.6116510629653931e-01" nType="-99"/>
        </Node>
      </Node>
    </BinaryTree>
    <BinaryTree type="DecisionTree" boostWeight="1.0000000000000000e+00" itree="57">
      <Node pos="s" depth="0" NCoef="0" IVar="0" Cut="1.6957523822784424e+00" cType="1" res="1.9648268353193998e-03" rms="8.3805091679096222e-02" purity="4.1791379451751709e-01" nType="0">
        <Node pos="l" depth="1" NCoef="0" IVar="9" Cut="6.5040096640586853e-02" cType="1" res="-9.2349024489521980e-03" rms="6.4186364412307739e-02" purity="3.2582777738571167e-01" nType="0">
          <Node pos="l" depth="2" NCoef="0" IVar="-1" Cut="0.0000000000000000e+00" cType="1" res="-6.7787989974021912e-02" rms="7.5897052884101868e-02" purity="1.5161420218646526e-02" nType="-99"/>
          <Node pos="r" depth="2" NCoef="0" IVar="-1" Cut="0.0000000000000000e+00" cType="1" res="4.4556081295013428e-02" rms="1.0610778816044331e-02" purity="9.8640215396881104e-01" nType="-99"/>
        </Node>
        <Node pos="r" depth="1" NCoef="0" IVar="1" Cut="1.3140180110931396e+00" cType="1" res="4.3401751667261124e-02" rms="1.2483688443899155e-01" purity="7.5861495733261108e-01" nType="0">
          <Node pos="l" depth="2" NCoef="0" IVar="-1" Cut="0.0000000000000000e+00" cType="1" res="6.2774248421192169e-02" rms="1.8208058178424835e-01" purity="8.3235901594161987e-01" nType="-99"/>
          <Node pos="r" depth="2" NCoef="0" IVar="-1" Cut="0.0000000000000000e+00" cType="1" res="1.4215859584510326e-02" rms="3.4184221178293228e-02" purity="7.1265012025833130e-01" nType="-99"/>
        </Node>
      </Node>
    </BinaryTree>
    <BinaryTree type="DecisionTree" boostWeight="1.0000000000000000e+00" itree="58">
      <Node pos="s" depth="0" NCoef="0" IVar="6" Cut="2.9104561544954777e-03" cType="1" res="3.4153550863265991e-02" rms="1.2082330882549286e-01" purity="4.9129036068916321e-01" nType="0">
        <Node pos="l" depth="1" NCoef="0" IVar="6" Cut="2.2095786407589912e-03" cType="1" res="1.1700602620840073e-01" rms="1.7153741419315338e-01" purity="8.2515424489974976e-01" nType="0">
          <Node pos="l" depth="2" NCoef="0" IVar="-1" Cut="0.0000000000000000e+00" cType="1" res="2.0961539819836617e-02" rms="5.9004399925470352e-02" purity="8.0985867977142334e-01" nType="-99"/>
          <Node pos="r" depth="2" NCoef="0" IVar="-1" Cut="0.0000000000000000e+00" cType="1" res="7.6596178114414215e-02" rms="1.3937725126743317e-01" purity="8.5278636217117310e-01" nType="-99"/>
        </Node>
        <Node pos="r" depth="1" NCoef="0" IVar="6" Cut="1.4421910047531128e-02" cType="1" res="-8.5831508040428162e-03" rms="3.9787996560335159e-02" purity="3.1907775998115540e-01" nType="0">
          <Node pos="l" depth="2" NCoef="0" IVar="-1" Cut="0.0000000000000000e+00" cType="1" res="-3.2390162348747253e-02" rms="3.3365178853273392e-02" purity="3.3414575457572937e-01" nType="-99"/>
          <Node pos="r" depth="2" NCoef="0" IVar="-1" Cut="0.0000000000000000e+00" cType="1" res="-6.4074985682964325e-02" rms="9.5769792795181274e-02" purity="0.0000000000000000e+00" nType="-99"/>
        </Node>
      </Node>
    </BinaryTree>
    <BinaryTree type="DecisionTree" boostWeight="1.0000000000000000e+00" itree="59">
      <Node pos="s" depth="0" NCoef="0" IVar="1" Cut="1.2164672613143921e+00" cType="1" res="4.8997692763805389e-02" rms="1.2998744845390320e-01" purity="5.9466946125030518e-01" nType="0">
        <Node pos="l" depth="1" NCoef="0" IVar="1" Cut="1.1944506168365479e+00" cType="1" res="1.1538156867027283e-01" rms="1.5667706727981567e-01" purity="5.2493673563003540e-01" nType="0">
          <Node pos="l" depth="2" NCoef="0" IVar="-1" Cut="0.0000000000000000e+00" cType="1" res="2.5774324312806129e-02" rms="7.3124490678310394e-02" purity="3.3478957414627075e-01" nType="-99"/>
          <Node pos="r" depth="2" NCoef="0" IVar="-1" Cut="0.0000000000000000e+00" cType="1" res="7.4412852525711060e-02" rms="1.1833362281322479e-01" purity="8.5261315107345581e-01" nType="-99"/>
        </Node>
        <Node pos="r" depth="1" NCoef="0" IVar="5" Cut="1.9730621576309204e+00" cType="1" res="7.4113211594521999e-03" rms="8.7256357073783875e-02" purity="6.3835376501083374e-01" nType="0">
          <Node pos="l" depth="2" NCoef="0" IVar="-1" Cut="0.0000000000000000e+00" cType="1" res="-5.3435970097780228e-02" rms="7.1916505694389343e-02" purity="8.3936221897602081e-02" nType="-99"/>
          <Node pos="r" depth="2" NCoef="0" IVar="-1" Cut="0.0000000000000000e+00" cType="1" res="5.2383460104465485e-02" rms="9.0146183967590332e-02" purity="8.4061455726623535e-01" nType="-99"/>
        </Node>
      </Node>
    </BinaryTree>
    <BinaryTree type="DecisionTree" boostWeight="1.0000000000000000e+00" itree="60">
      <Node pos="s" depth="0" NCoef="0" IVar="3" Cut="8.5742330551147461e-01" cType="1" res="-8.3557926118373871e-03" rms="5.0883397459983826e-02" purity="5.2864414453506470e-01" nType="0">
        <Node pos="l" depth="1" NCoef="0" IVar="7" Cut="1.0597777366638184e+01" cType="1" res="-4.7511987388134003e-02" rms="1.0884141921997070e-01" purity="3.5648692399263382e-02" nType="0">
          <Node pos="l" depth="2" NCoef="0" IVar="-1" Cut="0.0000000000000000e+00" cType="1" res="-5.4651983082294464e-02" rms="3.6282513290643692e-02" purity="0.0000000000000000e+00" nType="-99"/>
          <Node pos="r" depth="2" NCoef="0" IVar="-1" Cut="0.0000000000000000e+00" cType="1" res="-6.2203112989664078e-02" rms="2.0985478162765503e-01" purity="2.5309565663337708e-01" nType="-99"/>
        </Node>
        <Node pos="r" depth="1" NCoef="0" IVar="7" Cut="8.6218204498291016e+00" cType="1" res="-3.2760479371063411e-04" rms="1.7671598121523857e-02" purity="6.2972289323806763e-01" nType="0">
          <Node pos="l" depth="2" NCoef="0" IVar="-1" Cut="0.0000000000000000e+00" cType="1" res="-5.2574165165424347e-02" rms="2.1351760253310204e-02" purity="0.0000000000000000e+00" nType="-99"/>
          <Node pos="r" depth="2" NCoef="0" IVar="-1" Cut="0.0000000000000000e+00" cType="1" res="4.9351796507835388e-02" rms="1.0471006855368614e-02" purity="9.7224849462509155e-01" nType="-99"/>
        </Node>
      </Node>
    </BinaryTree>
    <BinaryTree type="DecisionTree" boostWeight="1.0000000000000000e+00" itree="61">
      <Node pos="s" depth="0" NCoef="0" IVar="6" Cut="2.1364591084420681e-03" cType="1" res="8.3635812625288963e-03" rms="1.0686941444873810e-01" purity="3.4808570146560669e-01" nType="0">
        <Node pos="l" depth="1" NCoef="0" IVar="11" Cut="4.1208535432815552e-01" cType="1" res="6.0132179409265518e-02" rms="1.2313771247863770e-01" purity="7.4128824472427368e-01" nType="0">
          <Node pos="l" depth="2" NCoef="0" IVar="-1" Cut="0.0000000000000000e+00" cType="1" res="-7.9616978764533997e-03" rms="4.1746512055397034e-02" purity="4.9893057346343994e-01" nType="-99"/>
          <Node pos="r" depth="2" NCoef="0" IVar="-1" Cut="0.0000000000000000e+00" cType="1" res="6.8751446902751923e-02" rms="1.4323623478412628e-01" purity="9.7334581613540649e-01" nType="-99"/>
        </Node>
        <Node pos="r" depth="1" NCoef="0" IVar="4" Cut="4.6252455711364746e+00" cType="1" res="-1.0831548832356930e-02" rms="9.3120850622653961e-02" purity="2.0229125022888184e-01" nType="0">
          <Node pos="l" depth="2" NCoef="0" IVar="-1" Cut="0.0000000000000000e+00" cType="1" res="-8.3962418138980865e-03" rms="3.0024794861674309e-02" purity="1.3046467304229736e-01" nType="-99"/>
          <Node pos="r" depth="2" NCoef="0" IVar="-1" Cut="0.0000000000000000e+00" cType="1" res="-3.2342350482940674e-01" rms="2.7597236633300781e-01" purity="8.9282524585723877e-01" nType="-99"/>
        </Node>
      </Node>
    </BinaryTree>
    <BinaryTree type="DecisionTree" boostWeight="1.0000000000000000e+00" itree="62">
