<?xml version="1.0"?>
<MethodSetup Method="BDT::BDTG">
  <GeneralInfo>
    <Info name="TMVA Release" value="4.2.1 [262657]"/>
    <Info name="ROOT Release" value="6.12/07 [396295]"/>
    <Info name="Creator" value="zzshi"/>
    <Info name="Date" value="Tue Jul  2 08:24:18 2019"/>
    <Info name="Host" value="Linux vocms0315.cern.ch 2.6.32-696.30.1.el6.x86_64 #1 SMP Tue May 22 06:09:36 CEST 2018 x86_64 x86_64 x86_64 GNU/Linux"/>
    <Info name="Dir" value="/export/d00/scratch/zzshi/CMSSW_10_3_2/src/JingTMVA/TMVA/BmesonRun2018/tmva/train"/>
    <Info name="Training events" value="3549"/>
    <Info name="TrainingTime" value="1.42932892e+00"/>
    <Info name="AnalysisType" value="Classification"/>
  </GeneralInfo>
  <Options>
    <Option name="V" modified="Yes">False</Option>
    <Option name="VerbosityLevel" modified="No">Default</Option>
    <Option name="VarTransform" modified="No">None</Option>
    <Option name="H" modified="Yes">False</Option>
    <Option name="CreateMVAPdfs" modified="No">False</Option>
    <Option name="IgnoreNegWeightsInTraining" modified="No">False</Option>
    <Option name="NTrees" modified="Yes">1000</Option>
    <Option name="MaxDepth" modified="Yes">2</Option>
    <Option name="MinNodeSize" modified="Yes">2.5%</Option>
    <Option name="nCuts" modified="Yes">20</Option>
    <Option name="BoostType" modified="Yes">Grad</Option>
    <Option name="AdaBoostR2Loss" modified="No">quadratic</Option>
    <Option name="UseBaggedBoost" modified="Yes">True</Option>
    <Option name="Shrinkage" modified="Yes">1.000000e-01</Option>
    <Option name="AdaBoostBeta" modified="No">5.000000e-01</Option>
    <Option name="UseRandomisedTrees" modified="No">False</Option>
    <Option name="UseNvars" modified="No">4</Option>
    <Option name="UsePoissonNvars" modified="No">True</Option>
    <Option name="BaggedSampleFraction" modified="Yes">5.000000e-01</Option>
    <Option name="UseYesNoLeaf" modified="No">True</Option>
    <Option name="NegWeightTreatment" modified="No">pray</Option>
    <Option name="Css" modified="No">1.000000e+00</Option>
    <Option name="Cts_sb" modified="No">1.000000e+00</Option>
    <Option name="Ctb_ss" modified="No">1.000000e+00</Option>
    <Option name="Cbb" modified="No">1.000000e+00</Option>
    <Option name="NodePurityLimit" modified="No">5.000000e-01</Option>
    <Option name="SeparationType" modified="No">giniindex</Option>
    <Option name="RegressionLossFunctionBDTG" modified="No">huber</Option>
    <Option name="HuberQuantile" modified="No">7.000000e-01</Option>
    <Option name="DoBoostMonitor" modified="No">False</Option>
    <Option name="UseFisherCuts" modified="No">False</Option>
    <Option name="MinLinCorrForFisher" modified="No">8.000000e-01</Option>
    <Option name="UseExclusiveVars" modified="No">False</Option>
    <Option name="DoPreselection" modified="No">False</Option>
    <Option name="SigToBkgFraction" modified="No">1.000000e+00</Option>
    <Option name="PruneMethod" modified="No">nopruning</Option>
    <Option name="PruneStrength" modified="No">0.000000e+00</Option>
    <Option name="PruningValFraction" modified="No">5.000000e-01</Option>
    <Option name="SkipNormalization" modified="No">False</Option>
    <Option name="nEventsMin" modified="No">0</Option>
    <Option name="UseBaggedGrad" modified="No">False</Option>
    <Option name="GradBaggingFraction" modified="No">5.000000e-01</Option>
    <Option name="UseNTrainEvents" modified="No">0</Option>
    <Option name="NNodesMax" modified="No">0</Option>
  </Options>
  <Variables NVar="14">
    <Variable VarIndex="0" Expression="Btrk1Pt" Label="Btrk1Pt" Title="Btrk1Pt" Unit="" Internal="Btrk1Pt" Type="F" Min="1.00291741e+00" Max="1.83646011e+01"/>
    <Variable VarIndex="1" Expression="Btrk2Pt" Label="Btrk2Pt" Title="Btrk2Pt" Unit="" Internal="Btrk2Pt" Type="F" Min="1.00747728e+00" Max="1.79208031e+01"/>
    <Variable VarIndex="2" Expression="abs(Btrk1Dz1/Btrk1DzError1)" Label="Trk1DCAz" Title="Trk1DCAz" Unit="" Internal="Trk1DCAz" Type="F" Min="1.44927144e-01" Max="1.03137077e+02"/>
    <Variable VarIndex="3" Expression="abs(Btrk2Dz1/Btrk2DzError1)" Label="Trk2DCAz" Title="Trk2DCAz" Unit="" Internal="Trk2DCAz" Type="F" Min="2.55714506e-01" Max="8.54057312e+01"/>
    <Variable VarIndex="4" Expression="abs(Btrk1Dxy1/Btrk1DxyError1)" Label="Trk1DCAxy" Title="Trk1DCAxy" Unit="" Internal="Trk1DCAxy" Type="F" Min="1.00042868e+00" Max="1.83479828e+02"/>
    <Variable VarIndex="5" Expression="abs(Btrk2Dxy1/Btrk2DxyError1)" Label="Trk2DCAxy" Title="Trk2DCAxy" Unit="" Internal="Trk2DCAxy" Type="F" Min="1.00128555e+00" Max="1.33892090e+02"/>
    <Variable VarIndex="6" Expression="abs(Btktkmass-1.019455)" Label="MassDis" Title="MassDis" Unit="" Internal="MassDis" Type="F" Min="2.34024037e-06" Max="1.49067203e-02"/>
    <Variable VarIndex="7" Expression="BsvpvDistance/BsvpvDisErr" Label="dls" Title="dls" Unit="" Internal="dls" Type="F" Min="3.02841234e+00" Max="5.80211670e+02"/>
    <Variable VarIndex="8" Expression="Balpha" Label="Balpha" Title="Balpha" Unit="" Internal="Balpha" Type="F" Min="2.61219739e-05" Max="1.71667293e-01"/>
    <Variable VarIndex="9" Expression="Bd0" Label="dls2D" Title="dls2D" Unit="" Internal="dls2D" Type="F" Min="1.90738868e-02" Max="3.70763803e+00"/>
    <Variable VarIndex="10" Expression="cos(Bdtheta)" Label="cos(Bdtheta)" Title="cos(Bdtheta)" Unit="" Internal="cos_Bdtheta_" Type="F" Min="9.89308119e-01" Max="1.00000000e+00"/>
    <Variable VarIndex="11" Expression="Bchi2cl" Label="Bchi2cl" Title="Bchi2cl" Unit="" Internal="Bchi2cl" Type="F" Min="5.00169806e-02" Max="9.99952972e-01"/>
    <Variable VarIndex="12" Expression="Btrk1Eta" Label="Btrk1Eta" Title="Btrk1Eta" Unit="" Internal="Btrk1Eta" Type="F" Min="-2.38275099e+00" Max="2.39429021e+00"/>
    <Variable VarIndex="13" Expression="Btrk2Eta" Label="Btrk2Eta" Title="Btrk2Eta" Unit="" Internal="Btrk2Eta" Type="F" Min="-2.39851952e+00" Max="2.38184762e+00"/>
  </Variables>
  <Spectators NSpec="0"/>
  <Classes NClass="2">
    <Class Name="Signal" Index="0"/>
    <Class Name="Background" Index="1"/>
  </Classes>
  <Transformations NTransformations="0"/>
  <MVAPdfs/>
  <Weights NTrees="1000" AnalysisType="1">
    <BinaryTree type="DecisionTree" boostWeight="1.0000000000000000e+00" itree="0">
      <Node pos="s" depth="0" NCoef="0" IVar="0" Cut="1.8048102855682373e+00" cType="1" res="-1.5916037559509277e-01" rms="4.7399154305458069e-01" purity="3.4083962440490723e-01" nType="0">
        <Node pos="l" depth="1" NCoef="0" IVar="2" Cut="2.7300353050231934e+00" cType="1" res="-4.4084870815277100e-01" rms="2.3590762913227081e-01" purity="5.9151284396648407e-02" nType="0">
          <Node pos="l" depth="2" NCoef="0" IVar="-1" Cut="0.0000000000000000e+00" cType="1" res="-9.7315892577171326e-02" rms="1.1506709456443787e-01" purity="1.3420547358691692e-02" nType="-99"/>
          <Node pos="r" depth="2" NCoef="0" IVar="-1" Cut="0.0000000000000000e+00" cType="1" res="1.0000000149011612e-01" rms="0.0000000000000000e+00" purity="1.0000000000000000e+00" nType="-99"/>
        </Node>
        <Node pos="r" depth="1" NCoef="0" IVar="11" Cut="4.1188380122184753e-01" cType="1" res="5.0000000000000000e-01" rms="7.2619279478658427e-08" purity="1.0000000000000000e+00" nType="0">
          <Node pos="l" depth="2" NCoef="0" IVar="-1" Cut="0.0000000000000000e+00" cType="1" res="1.0000000149011612e-01" rms="0.0000000000000000e+00" purity="1.0000000000000000e+00" nType="-99"/>
          <Node pos="r" depth="2" NCoef="0" IVar="-1" Cut="0.0000000000000000e+00" cType="1" res="1.0000000149011612e-01" rms="0.0000000000000000e+00" purity="1.0000000000000000e+00" nType="-99"/>
        </Node>
      </Node>
    </BinaryTree>
    <BinaryTree type="DecisionTree" boostWeight="1.0000000000000000e+00" itree="1">
      <Node pos="s" depth="0" NCoef="0" IVar="0" Cut="1.8048102855682373e+00" cType="1" res="4.5321145653724670e-01" rms="1.7035532742738724e-02" purity="1.0000000000000000e+00" nType="0">
        <Node pos="l" depth="1" NCoef="0" IVar="2" Cut="5.4774742126464844e+00" cType="1" res="4.7360169887542725e-01" rms="4.1897606104612350e-02" purity="1.0000000000000000e+00" nType="0">
          <Node pos="l" depth="2" NCoef="0" IVar="-1" Cut="0.0000000000000000e+00" cType="1" res="1.0037154704332352e-01" rms="4.9113843590021133e-02" purity="1.0000000000000000e+00" nType="-99"/>
          <Node pos="r" depth="2" NCoef="0" IVar="-1" Cut="0.0000000000000000e+00" cType="1" res="9.0936541557312012e-02" rms="0.0000000000000000e+00" purity="1.0000000000000000e+00" nType="-99"/>
        </Node>
        <Node pos="r" depth="1" NCoef="0" IVar="13" Cut="-1.4879734516143799e+00" cType="1" res="4.5016601681709290e-01" rms="6.5590505471391225e-08" purity="1.0000000000000000e+00" nType="0">
          <Node pos="l" depth="2" NCoef="0" IVar="-1" Cut="0.0000000000000000e+00" cType="1" res="9.0936541557312012e-02" rms="-nan" purity="1.0000000000000000e+00" nType="-99"/>
          <Node pos="r" depth="2" NCoef="0" IVar="-1" Cut="0.0000000000000000e+00" cType="1" res="9.0936541557312012e-02" rms="1.2219861389439757e-07" purity="1.0000000000000000e+00" nType="-99"/>
        </Node>
      </Node>
    </BinaryTree>
    <BinaryTree type="DecisionTree" boostWeight="1.0000000000000000e+00" itree="2">
      <Node pos="s" depth="0" NCoef="0" IVar="0" Cut="1.7826206684112549e+00" cType="1" res="5.4969474673271179e-02" rms="4.4487848877906799e-01" purity="6.1039388179779053e-01" nType="0">
        <Node pos="l" depth="1" NCoef="0" IVar="6" Cut="1.5513401012867689e-03" cType="1" res="-3.5623747110366821e-01" rms="3.4147873520851135e-01" purity="1.5364763140678406e-01" nType="0">
          <Node pos="l" depth="2" NCoef="0" IVar="-1" Cut="0.0000000000000000e+00" cType="1" res="-8.9649006724357605e-02" rms="2.1959614753723145e-01" purity="5.6764487177133560e-02" nType="-99"/>
          <Node pos="r" depth="2" NCoef="0" IVar="-1" Cut="0.0000000000000000e+00" cType="1" res="9.0544439852237701e-02" rms="4.6091817319393158e-02" purity="1.0000000000000000e+00" nType="-99"/>
        </Node>
        <Node pos="r" depth="1" NCoef="0" IVar="0" Cut="2.5296554565429688e+00" cType="1" res="4.0573036670684814e-01" rms="2.3096343502402306e-03" purity="1.0000000000000000e+00" nType="0">
          <Node pos="l" depth="2" NCoef="0" IVar="-1" Cut="0.0000000000000000e+00" cType="1" res="8.4181934595108032e-02" rms="5.3928834386169910e-03" purity="1.0000000000000000e+00" nType="-99"/>
          <Node pos="r" depth="2" NCoef="0" IVar="-1" Cut="0.0000000000000000e+00" cType="1" res="8.4129080176353455e-02" rms="1.0037566511300611e-07" purity="1.0000000000000000e+00" nType="-99"/>
        </Node>
      </Node>
    </BinaryTree>
    <BinaryTree type="DecisionTree" boostWeight="1.0000000000000000e+00" itree="3">
      <Node pos="s" depth="0" NCoef="0" IVar="10" Cut="9.9963599443435669e-01" cType="1" res="1.3453984260559082e-01" rms="4.0166980028152466e-01" purity="7.4252790212631226e-01" nType="0">
        <Node pos="l" depth="1" NCoef="0" IVar="-1" Cut="0.0000000000000000e+00" cType="1" res="-7.4984386563301086e-02" rms="3.6654183268547058e-01" purity="1.9283032417297363e-01" nType="-99"/>
        <Node pos="r" depth="1" NCoef="0" IVar="0" Cut="1.8034664392471313e+00" cType="1" res="3.6979496479034424e-01" rms="2.1748878061771393e-02" purity="1.0000000000000000e+00" nType="0">
          <Node pos="l" depth="2" NCoef="0" IVar="-1" Cut="0.0000000000000000e+00" cType="1" res="8.4816612303256989e-02" rms="5.6388124823570251e-02" purity="1.0000000000000000e+00" nType="-99"/>
          <Node pos="r" depth="2" NCoef="0" IVar="-1" Cut="0.0000000000000000e+00" cType="1" res="7.8843154013156891e-02" rms="9.4404740593745373e-06" purity="1.0000000000000000e+00" nType="-99"/>
        </Node>
      </Node>
    </BinaryTree>
    <BinaryTree type="DecisionTree" boostWeight="1.0000000000000000e+00" itree="4">
      <Node pos="s" depth="0" NCoef="0" IVar="10" Cut="9.9934053421020508e-01" cType="1" res="1.2591119855642319e-02" rms="4.0056207776069641e-01" purity="5.8945864439010620e-01" nType="0">
        <Node pos="l" depth="1" NCoef="0" IVar="-1" Cut="0.0000000000000000e+00" cType="1" res="-7.4053108692169189e-02" rms="2.8852853178977966e-01" purity="1.0826170444488525e-01" nType="-99"/>
        <Node pos="r" depth="1" NCoef="0" IVar="0" Cut="1.7576578855514526e+00" cType="1" res="3.3498656749725342e-01" rms="2.3444496095180511e-02" purity="1.0000000000000000e+00" nType="0">
          <Node pos="l" depth="2" NCoef="0" IVar="-1" Cut="0.0000000000000000e+00" cType="1" res="8.0586619675159454e-02" rms="5.9471242129802704e-02" purity="1.0000000000000000e+00" nType="-99"/>
          <Node pos="r" depth="2" NCoef="0" IVar="-1" Cut="0.0000000000000000e+00" cType="1" res="7.4838355183601379e-02" rms="1.1016990989446640e-02" purity="1.0000000000000000e+00" nType="-99"/>
        </Node>
      </Node>
    </BinaryTree>
    <BinaryTree type="DecisionTree" boostWeight="1.0000000000000000e+00" itree="5">
      <Node pos="s" depth="0" NCoef="0" IVar="8" Cut="2.3180829361081123e-02" cType="1" res="-4.6479117125272751e-02" rms="4.4514638185501099e-01" purity="6.0491722822189331e-01" nType="0">
        <Node pos="l" depth="1" NCoef="0" IVar="10" Cut="9.9983316659927368e-01" cType="1" res="3.0626842379570007e-01" rms="4.1299104690551758e-02" purity="1.0000000000000000e+00" nType="0">
          <Node pos="l" depth="2" NCoef="0" IVar="-1" Cut="0.0000000000000000e+00" cType="1" res="8.8833801448345184e-02" rms="1.2805502116680145e-01" purity="1.0000000000000000e+00" nType="-99"/>
          <Node pos="r" depth="2" NCoef="0" IVar="-1" Cut="0.0000000000000000e+00" cType="1" res="7.1620985865592957e-02" rms="1.7479678615927696e-02" purity="1.0000000000000000e+00" nType="-99"/>
        </Node>
        <Node pos="r" depth="1" NCoef="0" IVar="10" Cut="9.9980485439300537e-01" cType="1" res="-4.9123302102088928e-01" rms="3.0191496014595032e-01" purity="1.0678591579198837e-01" nType="0">
          <Node pos="l" depth="2" NCoef="0" IVar="-1" Cut="0.0000000000000000e+00" cType="1" res="-8.9882582426071167e-02" rms="3.2575350999832153e-01" purity="1.2330276519060135e-01" nType="-99"/>
          <Node pos="r" depth="2" NCoef="0" IVar="-1" Cut="0.0000000000000000e+00" cType="1" res="-1.1723031848669052e-01" rms="2.6504132151603699e-01" purity="8.9634776115417480e-02" nType="-99"/>
        </Node>
      </Node>
    </BinaryTree>
    <BinaryTree type="DecisionTree" boostWeight="1.0000000000000000e+00" itree="6">
      <Node pos="s" depth="0" NCoef="0" IVar="1" Cut="1.7760877609252930e+00" cType="1" res="-1.5018465928733349e-02" rms="3.8042861223220825e-01" purity="5.9468573331832886e-01" nType="0">
        <Node pos="l" depth="1" NCoef="0" IVar="1" Cut="1.3716541528701782e+00" cType="1" res="-3.5490968823432922e-01" rms="3.0170822143554688e-01" purity="1.3209129869937897e-01" nType="0">
          <Node pos="l" depth="2" NCoef="0" IVar="-1" Cut="0.0000000000000000e+00" cType="1" res="-9.1846212744712830e-02" rms="2.0611892640590668e-01" purity="3.8635496050119400e-02" nType="-99"/>
          <Node pos="r" depth="2" NCoef="0" IVar="-1" Cut="0.0000000000000000e+00" cType="1" res="7.9576410353183746e-02" rms="1.0825190693140030e-01" purity="1.0000000000000000e+00" nType="-99"/>
        </Node>
        <Node pos="r" depth="1" NCoef="0" IVar="10" Cut="9.9963599443435669e-01" cType="1" res="2.8278619050979614e-01" rms="4.3198950588703156e-02" purity="1.0000000000000000e+00" nType="0">
          <Node pos="l" depth="2" NCoef="0" IVar="-1" Cut="0.0000000000000000e+00" cType="1" res="8.6038246750831604e-02" rms="7.4340596795082092e-02" purity="1.0000000000000000e+00" nType="-99"/>
          <Node pos="r" depth="2" NCoef="0" IVar="-1" Cut="0.0000000000000000e+00" cType="1" res="6.9044657051563263e-02" rms="2.1683510392904282e-02" purity="1.0000000000000000e+00" nType="-99"/>
        </Node>
      </Node>
    </BinaryTree>
    <BinaryTree type="DecisionTree" boostWeight="1.0000000000000000e+00" itree="7">
      <Node pos="s" depth="0" NCoef="0" IVar="1" Cut="1.7662321329116821e+00" cType="1" res="-1.4993859827518463e-01" rms="3.9498201012611389e-01" purity="4.8151901364326477e-01" nType="0">
        <Node pos="l" depth="1" NCoef="0" IVar="1" Cut="1.3289837837219238e+00" cType="1" res="-4.6170073747634888e-01" rms="2.2697946429252625e-01" purity="8.2096770405769348e-02" nType="0">
          <Node pos="l" depth="2" NCoef="0" IVar="-1" Cut="0.0000000000000000e+00" cType="1" res="-1.0304641723632812e-01" rms="1.2006518244743347e-01" purity="2.0267998799681664e-02" nType="-99"/>
          <Node pos="r" depth="2" NCoef="0" IVar="-1" Cut="0.0000000000000000e+00" cType="1" res="7.2402440011501312e-02" rms="8.3082333207130432e-02" purity="1.0000000000000000e+00" nType="-99"/>
        </Node>
        <Node pos="r" depth="1" NCoef="0" IVar="8" Cut="2.4546289816498756e-02" cType="1" res="2.5475272536277771e-01" rms="4.1301511228084564e-02" purity="1.0000000000000000e+00" nType="0">
          <Node pos="l" depth="2" NCoef="0" IVar="-1" Cut="0.0000000000000000e+00" cType="1" res="6.6402725875377655e-02" rms="1.7299637198448181e-02" purity="1.0000000000000000e+00" nType="-99"/>
          <Node pos="r" depth="2" NCoef="0" IVar="-1" Cut="0.0000000000000000e+00" cType="1" res="8.3062171936035156e-02" rms="6.0026764869689941e-02" purity="1.0000000000000000e+00" nType="-99"/>
        </Node>
      </Node>
    </BinaryTree>
    <BinaryTree type="DecisionTree" boostWeight="1.0000000000000000e+00" itree="8">
      <Node pos="s" depth="0" NCoef="0" IVar="6" Cut="1.0648326016962528e-02" cType="1" res="-1.7873754724860191e-02" rms="4.4050216674804688e-01" purity="7.5186812877655029e-01" nType="0">
        <Node pos="l" depth="1" NCoef="0" IVar="8" Cut="2.4593271315097809e-02" cType="1" res="2.3441965878009796e-01" rms="4.9912374466657639e-02" purity="1.0000000000000000e+00" nType="0">
          <Node pos="l" depth="2" NCoef="0" IVar="-1" Cut="0.0000000000000000e+00" cType="1" res="6.4951859414577484e-02" rms="2.9967274516820908e-02" purity="1.0000000000000000e+00" nType="-99"/>
          <Node pos="r" depth="2" NCoef="0" IVar="-1" Cut="0.0000000000000000e+00" cType="1" res="8.1638053059577942e-02" rms="1.0084845870733261e-01" purity="1.0000000000000000e+00" nType="-99"/>
        </Node>
        <Node pos="r" depth="1" NCoef="0" IVar="-1" Cut="0.0000000000000000e+00" cType="1" res="-1.8563920259475708e-01" rms="3.5365825891494751e-01" purity="1.4360868930816650e-01" nType="-99"/>
      </Node>
    </BinaryTree>
    <BinaryTree type="DecisionTree" boostWeight="1.0000000000000000e+00" itree="9">
      <Node pos="s" depth="0" NCoef="0" IVar="11" Cut="9.5205716788768768e-02" cType="1" res="-1.2967354059219360e-01" rms="4.2562007904052734e-01" purity="5.9236335754394531e-01" nType="0">
        <Node pos="l" depth="1" NCoef="0" IVar="-1" Cut="0.0000000000000000e+00" cType="1" res="-1.3013258576393127e-01" rms="2.0027530193328857e-01" purity="5.0673283636569977e-02" nType="-99"/>
        <Node pos="r" depth="1" NCoef="0" IVar="8" Cut="1.2912169098854065e-02" cType="1" res="2.1952970325946808e-01" rms="5.7473421096801758e-02" purity="1.0000000000000000e+00" nType="0">
          <Node pos="l" depth="2" NCoef="0" IVar="-1" Cut="0.0000000000000000e+00" cType="1" res="6.3231468200683594e-02" rms="2.8244141489267349e-02" purity="1.0000000000000000e+00" nType="-99"/>
          <Node pos="r" depth="2" NCoef="0" IVar="-1" Cut="0.0000000000000000e+00" cType="1" res="7.3224537074565887e-02" rms="9.8054014146327972e-02" purity="1.0000000000000000e+00" nType="-99"/>
        </Node>
      </Node>
    </BinaryTree>
    <BinaryTree type="DecisionTree" boostWeight="1.0000000000000000e+00" itree="10">
      <Node pos="s" depth="0" NCoef="0" IVar="6" Cut="7.1028945967555046e-03" cType="1" res="-1.4738973975181580e-01" rms="4.2901080846786499e-01" purity="5.9173905849456787e-01" nType="0">
        <Node pos="l" depth="1" NCoef="0" IVar="8" Cut="3.0899066478013992e-02" cType="1" res="2.0235244929790497e-01" rms="6.4295642077922821e-02" purity="1.0000000000000000e+00" nType="0">
          <Node pos="l" depth="2" NCoef="0" IVar="-1" Cut="0.0000000000000000e+00" cType="1" res="6.2348209321498871e-02" rms="3.7244625389575958e-02" purity="1.0000000000000000e+00" nType="-99"/>
          <Node pos="r" depth="2" NCoef="0" IVar="-1" Cut="0.0000000000000000e+00" cType="1" res="8.1898711621761322e-02" rms="1.2708149850368500e-01" purity="1.0000000000000000e+00" nType="-99"/>
        </Node>
        <Node pos="r" depth="1" NCoef="0" IVar="13" Cut="5.1254475116729736e-01" cType="1" res="-5.0219589471817017e-01" rms="3.4145799279212952e-01" purity="1.7756684124469757e-01" nType="0">
          <Node pos="l" depth="2" NCoef="0" IVar="-1" Cut="0.0000000000000000e+00" cType="1" res="6.4808629453182220e-02" rms="4.9211930483579636e-02" purity="1.0000000000000000e+00" nType="-99"/>
          <Node pos="r" depth="2" NCoef="0" IVar="-1" Cut="0.0000000000000000e+00" cType="1" res="-1.3770937919616699e-01" rms="2.4107050895690918e-01" purity="7.4854016304016113e-02" nType="-99"/>
        </Node>
      </Node>
    </BinaryTree>
    <BinaryTree type="DecisionTree" boostWeight="1.0000000000000000e+00" itree="11">
      <Node pos="s" depth="0" NCoef="0" IVar="11" Cut="2.7641567587852478e-01" cType="1" res="-1.8178759515285492e-01" rms="3.5528546571731567e-01" purity="4.7706609964370728e-01" nType="0">
        <Node pos="l" depth="1" NCoef="0" IVar="9" Cut="1.0163310915231705e-01" cType="1" res="-4.2715045809745789e-01" rms="2.4529519677162170e-01" purity="1.2443785369396210e-01" nType="0">
          <Node pos="l" depth="2" NCoef="0" IVar="-1" Cut="0.0000000000000000e+00" cType="1" res="-1.0039659589529037e-01" rms="1.4642909169197083e-01" purity="3.0157152563333511e-02" nType="-99"/>
          <Node pos="r" depth="2" NCoef="0" IVar="-1" Cut="0.0000000000000000e+00" cType="1" res="6.2276378273963928e-02" rms="4.3276533484458923e-02" purity="1.0000000000000000e+00" nType="-99"/>
        </Node>
        <Node pos="r" depth="1" NCoef="0" IVar="0" Cut="1.7702478170394897e+00" cType="1" res="1.8207596242427826e-01" rms="5.0139177590608597e-02" purity="1.0000000000000000e+00" nType="0">
          <Node pos="l" depth="2" NCoef="0" IVar="-1" Cut="0.0000000000000000e+00" cType="1" res="6.9176368415355682e-02" rms="8.7519101798534393e-02" purity="1.0000000000000000e+00" nType="-99"/>
          <Node pos="r" depth="2" NCoef="0" IVar="-1" Cut="0.0000000000000000e+00" cType="1" res="6.0969457030296326e-02" rms="3.4035034477710724e-02" purity="1.0000000000000000e+00" nType="-99"/>
        </Node>
      </Node>
    </BinaryTree>
    <BinaryTree type="DecisionTree" boostWeight="1.0000000000000000e+00" itree="12">
      <Node pos="s" depth="0" NCoef="0" IVar="10" Cut="9.9949085712432861e-01" cType="1" res="-1.6191092133522034e-01" rms="4.3641462922096252e-01" purity="6.1774563789367676e-01" nType="0">
        <Node pos="l" depth="1" NCoef="0" IVar="-1" Cut="0.0000000000000000e+00" cType="1" res="-1.4888460934162140e-01" rms="3.1015092134475708e-01" purity="9.4055257737636566e-02" nType="-99"/>
        <Node pos="r" depth="1" NCoef="0" IVar="6" Cut="7.7937878668308258e-03" cType="1" res="1.6766537725925446e-01" rms="4.2803827673196793e-02" purity="1.0000000000000000e+00" nType="0">
          <Node pos="l" depth="2" NCoef="0" IVar="-1" Cut="0.0000000000000000e+00" cType="1" res="6.0188621282577515e-02" rms="3.7871867418289185e-02" purity="1.0000000000000000e+00" nType="-99"/>
          <Node pos="r" depth="2" NCoef="0" IVar="-1" Cut="0.0000000000000000e+00" cType="1" res="6.4292781054973602e-02" rms="4.3391689658164978e-02" purity="1.0000000000000000e+00" nType="-99"/>
        </Node>
      </Node>
    </BinaryTree>
    <BinaryTree type="DecisionTree" boostWeight="1.0000000000000000e+00" itree="13">
      <Node pos="s" depth="0" NCoef="0" IVar="1" Cut="1.7760877609252930e+00" cType="1" res="-1.0283883661031723e-01" rms="3.3858343958854675e-01" purity="6.0571587085723877e-01" nType="0">
        <Node pos="l" depth="1" NCoef="0" IVar="0" Cut="1.4672985076904297e+00" cType="1" res="-3.8955354690551758e-01" rms="2.8442683815956116e-01" purity="1.6868264973163605e-01" nType="0">
          <Node pos="l" depth="2" NCoef="0" IVar="-1" Cut="0.0000000000000000e+00" cType="1" res="-9.7336620092391968e-02" rms="1.8668374419212341e-01" purity="4.8385497182607651e-02" nType="-99"/>
          <Node pos="r" depth="2" NCoef="0" IVar="-1" Cut="0.0000000000000000e+00" cType="1" res="6.4490154385566711e-02" rms="7.4022069573402405e-02" purity="1.0000000000000000e+00" nType="-99"/>
        </Node>
        <Node pos="r" depth="1" NCoef="0" IVar="8" Cut="1.2954276986420155e-02" cType="1" res="1.5583039820194244e-01" rms="6.3280962407588959e-02" purity="1.0000000000000000e+00" nType="0">
          <Node pos="l" depth="2" NCoef="0" IVar="-1" Cut="0.0000000000000000e+00" cType="1" res="5.8599039912223816e-02" rms="2.8325108811259270e-02" purity="1.0000000000000000e+00" nType="-99"/>
          <Node pos="r" depth="2" NCoef="0" IVar="-1" Cut="0.0000000000000000e+00" cType="1" res="6.8617239594459534e-02" rms="1.1105141788721085e-01" purity="1.0000000000000000e+00" nType="-99"/>
        </Node>
      </Node>
    </BinaryTree>
    <BinaryTree type="DecisionTree" boostWeight="1.0000000000000000e+00" itree="14">
      <Node pos="s" depth="0" NCoef="0" IVar="11" Cut="9.5342986285686493e-02" cType="1" res="-1.3338108360767365e-01" rms="2.9058384895324707e-01" purity="5.0191134214401245e-01" nType="0">
        <Node pos="l" depth="1" NCoef="0" IVar="-1" Cut="0.0000000000000000e+00" cType="1" res="-8.1914238631725311e-02" rms="1.3172194361686707e-01" purity="3.6414798349142075e-02" nType="-99"/>
        <Node pos="r" depth="1" NCoef="0" IVar="10" Cut="9.9963599443435669e-01" cType="1" res="1.4642561972141266e-01" rms="6.9020941853523254e-02" purity="1.0000000000000000e+00" nType="0">
          <Node pos="l" depth="2" NCoef="0" IVar="-1" Cut="0.0000000000000000e+00" cType="1" res="7.9713098704814911e-02" rms="1.2693570554256439e-01" purity="1.0000000000000000e+00" nType="-99"/>
          <Node pos="r" depth="2" NCoef="0" IVar="-1" Cut="0.0000000000000000e+00" cType="1" res="5.8265618979930878e-02" rms="3.5115964710712433e-02" purity="1.0000000000000000e+00" nType="-99"/>
        </Node>
      </Node>
    </BinaryTree>
    <BinaryTree type="DecisionTree" boostWeight="1.0000000000000000e+00" itree="15">
      <Node pos="s" depth="0" NCoef="0" IVar="11" Cut="4.1210207343101501e-01" cType="1" res="-2.5619444251060486e-01" rms="3.6188873648643494e-01" purity="4.2352986335754395e-01" nType="0">
        <Node pos="l" depth="1" NCoef="0" IVar="11" Cut="3.7755152583122253e-01" cType="1" res="-4.1166931390762329e-01" rms="3.1578543782234192e-01" purity="1.8901887536048889e-01" nType="0">
          <Node pos="l" depth="2" NCoef="0" IVar="-1" Cut="0.0000000000000000e+00" cType="1" res="-5.4721318185329437e-02" rms="2.4984082579612732e-01" purity="2.9265323281288147e-01" nType="-99"/>
          <Node pos="r" depth="2" NCoef="0" IVar="-1" Cut="0.0000000000000000e+00" cType="1" res="-1.6882142424583435e-01" rms="1.9108410179615021e-01" purity="4.9804367125034332e-02" nType="-99"/>
        </Node>
        <Node pos="r" depth="1" NCoef="0" IVar="0" Cut="1.7702478170394897e+00" cType="1" res="1.2599067389965057e-01" rms="4.7736674547195435e-02" purity="1.0000000000000000e+00" nType="0">
          <Node pos="l" depth="2" NCoef="0" IVar="-1" Cut="0.0000000000000000e+00" cType="1" res="6.3857607543468475e-02" rms="8.1866092979907990e-02" purity="1.0000000000000000e+00" nType="-99"/>
          <Node pos="r" depth="2" NCoef="0" IVar="-1" Cut="0.0000000000000000e+00" cType="1" res="5.7291816920042038e-02" rms="3.3291444182395935e-02" purity="1.0000000000000000e+00" nType="-99"/>
        </Node>
      </Node>
    </BinaryTree>
    <BinaryTree type="DecisionTree" boostWeight="1.0000000000000000e+00" itree="16">
      <Node pos="s" depth="0" NCoef="0" IVar="10" Cut="9.9949085712432861e-01" cType="1" res="-1.3954603672027588e-01" rms="3.5206726193428040e-01" purity="5.9743440151214600e-01" nType="0">
        <Node pos="l" depth="1" NCoef="0" IVar="-1" Cut="0.0000000000000000e+00" cType="1" res="-9.2760011553764343e-02" rms="3.0273357033729553e-01" purity="1.1514857411384583e-01" nType="-99"/>
        <Node pos="r" depth="1" NCoef="0" IVar="11" Cut="1.4057010412216187e-01" cType="1" res="1.2082113325595856e-01" rms="4.3687492609024048e-02" purity="1.0000000000000000e+00" nType="0">
          <Node pos="l" depth="2" NCoef="0" IVar="-1" Cut="0.0000000000000000e+00" cType="1" res="6.3696220517158508e-02" rms="6.5067723393440247e-02" purity="1.0000000000000000e+00" nType="-99"/>
          <Node pos="r" depth="2" NCoef="0" IVar="-1" Cut="0.0000000000000000e+00" cType="1" res="5.7150810956954956e-02" rms="3.4821439534425735e-02" purity="1.0000000000000000e+00" nType="-99"/>
        </Node>
      </Node>
    </BinaryTree>
    <BinaryTree type="DecisionTree" boostWeight="1.0000000000000000e+00" itree="17">
      <Node pos="s" depth="0" NCoef="0" IVar="10" Cut="9.9967414140701294e-01" cType="1" res="1.2643827497959137e-01" rms="8.8544860482215881e-02" purity="1.0000000000000000e+00" nType="0">
        <Node pos="l" depth="1" NCoef="0" IVar="-1" Cut="0.0000000000000000e+00" cType="1" res="8.9736893773078918e-02" rms="1.7157956957817078e-01" purity="1.0000000000000000e+00" nType="-99"/>
        <Node pos="r" depth="1" NCoef="0" IVar="11" Cut="1.4044322073459625e-01" cType="1" res="1.0826895385980606e-01" rms="3.9640236645936966e-02" purity="1.0000000000000000e+00" nType="0">
          <Node pos="l" depth="2" NCoef="0" IVar="-1" Cut="0.0000000000000000e+00" cType="1" res="6.2255766242742538e-02" rms="6.7439749836921692e-02" purity="1.0000000000000000e+00" nType="-99"/>
          <Node pos="r" depth="2" NCoef="0" IVar="-1" Cut="0.0000000000000000e+00" cType="1" res="5.6433323770761490e-02" rms="3.2544981688261032e-02" purity="1.0000000000000000e+00" nType="-99"/>
        </Node>
      </Node>
    </BinaryTree>
    <BinaryTree type="DecisionTree" boostWeight="1.0000000000000000e+00" itree="18">
      <Node pos="s" depth="0" NCoef="0" IVar="6" Cut="7.0828045718371868e-03" cType="1" res="-1.2060709297657013e-01" rms="2.9592531919479370e-01" purity="5.9688800573348999e-01" nType="0">
        <Node pos="l" depth="1" NCoef="0" IVar="8" Cut="2.4546289816498756e-02" cType="1" res="1.0728642344474792e-01" rms="7.1750544011592865e-02" purity="1.0000000000000000e+00" nType="0">
          <Node pos="l" depth="2" NCoef="0" IVar="-1" Cut="0.0000000000000000e+00" cType="1" res="5.6180585175752640e-02" rms="3.7677321583032608e-02" purity="1.0000000000000000e+00" nType="-99"/>
          <Node pos="r" depth="2" NCoef="0" IVar="-1" Cut="0.0000000000000000e+00" cType="1" res="7.4991613626480103e-02" rms="1.5895140171051025e-01" purity="1.0000000000000000e+00" nType="-99"/>
        </Node>
        <Node pos="r" depth="1" NCoef="0" IVar="6" Cut="7.8524760901927948e-03" cType="1" res="-3.7767058610916138e-01" rms="2.3639117181301117e-01" purity="1.4217840135097504e-01" nType="0">
          <Node pos="l" depth="2" NCoef="0" IVar="-1" Cut="0.0000000000000000e+00" cType="1" res="-9.6479475498199463e-02" rms="1.3822983205318451e-01" purity="2.4539336562156677e-02" nType="-99"/>
          <Node pos="r" depth="2" NCoef="0" IVar="-1" Cut="0.0000000000000000e+00" cType="1" res="6.4882546663284302e-02" rms="1.1032637953758240e-01" purity="1.0000000000000000e+00" nType="-99"/>
        </Node>
      </Node>
    </BinaryTree>
    <BinaryTree type="DecisionTree" boostWeight="1.0000000000000000e+00" itree="19">
      <Node pos="s" depth="0" NCoef="0" IVar="10" Cut="9.9968773126602173e-01" cType="1" res="-1.6852030158042908e-01" rms="2.7077484130859375e-01" purity="4.9089470505714417e-01" nType="0">
        <Node pos="l" depth="1" NCoef="0" IVar="-1" Cut="0.0000000000000000e+00" cType="1" res="-8.1582985818386078e-02" rms="1.6717901825904846e-01" purity="4.7173019498586655e-02" nType="-99"/>
        <Node pos="r" depth="1" NCoef="0" IVar="11" Cut="1.4078627526760101e-01" cType="1" res="8.9174918830394745e-02" rms="3.3007908612489700e-02" purity="1.0000000000000000e+00" nType="0">
          <Node pos="l" depth="2" NCoef="0" IVar="-1" Cut="0.0000000000000000e+00" cType="1" res="5.9546973556280136e-02" rms="5.3125128149986267e-02" purity="1.0000000000000000e+00" nType="-99"/>
          <Node pos="r" depth="2" NCoef="0" IVar="-1" Cut="0.0000000000000000e+00" cType="1" res="5.5041950196027756e-02" rms="2.5131957605481148e-02" purity="1.0000000000000000e+00" nType="-99"/>
        </Node>
      </Node>
    </BinaryTree>
    <BinaryTree type="DecisionTree" boostWeight="1.0000000000000000e+00" itree="20">
      <Node pos="s" depth="0" NCoef="0" IVar="8" Cut="2.5798216462135315e-02" cType="1" res="-1.5769563615322113e-01" rms="2.7002203464508057e-01" purity="5.0032263994216919e-01" nType="0">
        <Node pos="l" depth="1" NCoef="0" IVar="8" Cut="1.5801081433892250e-02" cType="1" res="8.8247418403625488e-02" rms="6.5394543111324310e-02" purity="1.0000000000000000e+00" nType="0">
          <Node pos="l" depth="2" NCoef="0" IVar="-1" Cut="0.0000000000000000e+00" cType="1" res="5.5329307913780212e-02" rms="3.7103548645973206e-02" purity="1.0000000000000000e+00" nType="-99"/>
          <Node pos="r" depth="2" NCoef="0" IVar="-1" Cut="0.0000000000000000e+00" cType="1" res="7.2166301310062408e-02" rms="1.5173962712287903e-01" purity="1.0000000000000000e+00" nType="-99"/>
        </Node>
        <Node pos="r" depth="1" NCoef="0" IVar="-1" Cut="0.0000000000000000e+00" cType="1" res="-8.2576848566532135e-02" rms="1.8011821806430817e-01" purity="5.6574802845716476e-02" nType="-99"/>
      </Node>
    </BinaryTree>
    <BinaryTree type="DecisionTree" boostWeight="1.0000000000000000e+00" itree="21">
      <Node pos="s" depth="0" NCoef="0" IVar="11" Cut="4.1210207343101501e-01" cType="1" res="-3.2851937413215637e-01" rms="3.1856051087379456e-01" purity="3.2320162653923035e-01" nType="0">
        <Node pos="l" depth="1" NCoef="0" IVar="11" Cut="3.7755152583122253e-01" cType="1" res="-4.6690747141838074e-01" rms="2.8147983551025391e-01" purity="1.5039643645286560e-01" nType="0">
          <Node pos="l" depth="2" NCoef="0" IVar="-1" Cut="0.0000000000000000e+00" cType="1" res="-6.8964444100856781e-02" rms="2.6188132166862488e-01" purity="2.8198361396789551e-01" nType="-99"/>
          <Node pos="r" depth="2" NCoef="0" IVar="-1" Cut="0.0000000000000000e+00" cType="1" res="-1.5183976292610168e-01" rms="1.7220211029052734e-01" purity="3.2147515565156937e-02" nType="-99"/>
        </Node>
        <Node pos="r" depth="1" NCoef="0" IVar="8" Cut="2.3180829361081123e-02" cType="1" res="-5.5237337946891785e-02" rms="1.8142978847026825e-01" purity="6.6444885730743408e-01" nType="0">
          <Node pos="l" depth="2" NCoef="0" IVar="-1" Cut="0.0000000000000000e+00" cType="1" res="5.4088518023490906e-02" rms="2.5359140709042549e-02" purity="1.0000000000000000e+00" nType="-99"/>
          <Node pos="r" depth="2" NCoef="0" IVar="-1" Cut="0.0000000000000000e+00" cType="1" res="-6.4448036253452301e-02" rms="1.3634711503982544e-01" purity="7.4454978108406067e-02" nType="-99"/>
        </Node>
      </Node>
    </BinaryTree>
    <BinaryTree type="DecisionTree" boostWeight="1.0000000000000000e+00" itree="22">
      <Node pos="s" depth="0" NCoef="0" IVar="1" Cut="1.7794870138168335e+00" cType="1" res="-1.7668694257736206e-01" rms="2.3770016431808472e-01" purity="4.0019851922988892e-01" nType="0">
        <Node pos="l" depth="1" NCoef="0" IVar="0" Cut="1.4949425458908081e+00" cType="1" res="-3.5960307717323303e-01" rms="1.6501520574092865e-01" purity="7.2671845555305481e-02" nType="0">
          <Node pos="l" depth="2" NCoef="0" IVar="-1" Cut="0.0000000000000000e+00" cType="1" res="-8.4637038409709930e-02" rms="1.2045693397521973e-01" purity="1.7447402700781822e-02" nType="-99"/>
          <Node pos="r" depth="2" NCoef="0" IVar="-1" Cut="0.0000000000000000e+00" cType="1" res="6.4898006618022919e-02" rms="1.1427666246891022e-01" purity="1.0000000000000000e+00" nType="-99"/>
        </Node>
        <Node pos="r" depth="1" NCoef="0" IVar="8" Cut="3.3914502710103989e-02" cType="1" res="-4.3539768084883690e-03" rms="1.5118862688541412e-01" purity="7.0877510309219360e-01" nType="0">
          <Node pos="l" depth="2" NCoef="0" IVar="-1" Cut="0.0000000000000000e+00" cType="1" res="5.6975416839122772e-02" rms="5.8949351310729980e-02" purity="1.0000000000000000e+00" nType="-99"/>
          <Node pos="r" depth="2" NCoef="0" IVar="-1" Cut="0.0000000000000000e+00" cType="1" res="-5.2100080996751785e-02" rms="1.3888633251190186e-01" purity="8.9295327663421631e-02" nType="-99"/>
        </Node>
      </Node>
    </BinaryTree>
    <BinaryTree type="DecisionTree" boostWeight="1.0000000000000000e+00" itree="23">
      <Node pos="s" depth="0" NCoef="0" IVar="8" Cut="3.2286189496517181e-02" cType="1" res="-6.7252874374389648e-02" rms="1.6474913060665131e-01" purity="4.9956330657005310e-01" nType="0">
        <Node pos="l" depth="1" NCoef="0" IVar="8" Cut="1.8029963597655296e-02" cType="1" res="7.3329225182533264e-02" rms="6.3582569360733032e-02" purity="1.0000000000000000e+00" nType="0">
          <Node pos="l" depth="2" NCoef="0" IVar="-1" Cut="0.0000000000000000e+00" cType="1" res="5.4658316075801849e-02" rms="3.6038011312484741e-02" purity="1.0000000000000000e+00" nType="-99"/>
          <Node pos="r" depth="2" NCoef="0" IVar="-1" Cut="0.0000000000000000e+00" cType="1" res="7.5066655874252319e-02" rms="1.6678896546363831e-01" purity="1.0000000000000000e+00" nType="-99"/>
        </Node>
        <Node pos="r" depth="1" NCoef="0" IVar="-1" Cut="0.0000000000000000e+00" cType="1" res="-5.8067940175533295e-02" rms="1.1527808010578156e-01" purity="3.6219272762537003e-02" nType="-99"/>
      </Node>
    </BinaryTree>
    <BinaryTree type="DecisionTree" boostWeight="1.0000000000000000e+00" itree="24">
      <Node pos="s" depth="0" NCoef="0" IVar="11" Cut="4.1191089153289795e-01" cType="1" res="-2.4323199689388275e-01" rms="3.6169415712356567e-01" purity="5.2276319265365601e-01" nType="0">
        <Node pos="l" depth="1" NCoef="0" IVar="11" Cut="3.7519812583923340e-01" cType="1" res="-4.1339913010597229e-01" rms="3.4603187441825867e-01" purity="2.5763666629791260e-01" nType="0">
          <Node pos="l" depth="2" NCoef="0" IVar="-1" Cut="0.0000000000000000e+00" cType="1" res="6.5560445189476013e-02" rms="1.1816929280757904e-01" purity="1.0000000000000000e+00" nType="-99"/>
          <Node pos="r" depth="2" NCoef="0" IVar="-1" Cut="0.0000000000000000e+00" cType="1" res="-1.3359223306179047e-01" rms="1.9304880499839783e-01" purity="3.6520358175039291e-02" nType="-99"/>
        </Node>
        <Node pos="r" depth="1" NCoef="0" IVar="8" Cut="2.2586889564990997e-02" cType="1" res="6.3074633479118347e-02" rms="6.9485597312450409e-02" purity="1.0000000000000000e+00" nType="0">
          <Node pos="l" depth="2" NCoef="0" IVar="-1" Cut="0.0000000000000000e+00" cType="1" res="5.3012277930974960e-02" rms="2.0354675129055977e-02" purity="1.0000000000000000e+00" nType="-99"/>
          <Node pos="r" depth="2" NCoef="0" IVar="-1" Cut="0.0000000000000000e+00" cType="1" res="7.5565472245216370e-02" rms="1.5307234227657318e-01" purity="1.0000000000000000e+00" nType="-99"/>
        </Node>
      </Node>
    </BinaryTree>
    <BinaryTree type="DecisionTree" boostWeight="1.0000000000000000e+00" itree="25">
      <Node pos="s" depth="0" NCoef="0" IVar="6" Cut="7.0828045718371868e-03" cType="1" res="-2.0787259936332703e-01" rms="3.5726127028465271e-01" purity="6.0179233551025391e-01" nType="0">
        <Node pos="l" depth="1" NCoef="0" IVar="10" Cut="9.9949085712432861e-01" cType="1" res="7.0249654352664948e-02" rms="7.6426312327384949e-02" purity="1.0000000000000000e+00" nType="0">
          <Node pos="l" depth="2" NCoef="0" IVar="-1" Cut="0.0000000000000000e+00" cType="1" res="7.6475657522678375e-02" rms="8.3786062896251678e-02" purity="1.0000000000000000e+00" nType="-99"/>
          <Node pos="r" depth="2" NCoef="0" IVar="-1" Cut="0.0000000000000000e+00" cType="1" res="5.3847357630729675e-02" rms="3.1434427946805954e-02" purity="1.0000000000000000e+00" nType="-99"/>
        </Node>
        <Node pos="r" depth="1" NCoef="0" IVar="11" Cut="4.1282969713211060e-01" cType="1" res="-5.1372134685516357e-01" rms="2.8803709149360657e-01" purity="1.6388666629791260e-01" nType="0">
          <Node pos="l" depth="2" NCoef="0" IVar="-1" Cut="0.0000000000000000e+00" cType="1" res="-1.4009937644004822e-01" rms="2.0328164100646973e-01" purity="4.6416681259870529e-02" nType="-99"/>
          <Node pos="r" depth="2" NCoef="0" IVar="-1" Cut="0.0000000000000000e+00" cType="1" res="5.4998394101858139e-02" rms="4.2454112321138382e-02" purity="1.0000000000000000e+00" nType="-99"/>
        </Node>
      </Node>
    </BinaryTree>
    <BinaryTree type="DecisionTree" boostWeight="1.0000000000000000e+00" itree="26">
      <Node pos="s" depth="0" NCoef="0" IVar="1" Cut="1.8128737211227417e+00" cType="1" res="-1.8109212815761566e-01" rms="2.3407821357250214e-01" purity="4.3366017937660217e-01" nType="0">
        <Node pos="l" depth="1" NCoef="0" IVar="1" Cut="1.4292598962783813e+00" cType="1" res="-3.2082846760749817e-01" rms="1.7520003020763397e-01" purity="1.0694970935583115e-01" nType="0">
          <Node pos="l" depth="2" NCoef="0" IVar="-1" Cut="0.0000000000000000e+00" cType="1" res="-8.0121688544750214e-02" rms="1.3219693303108215e-01" purity="3.2375518232584000e-02" nType="-99"/>
          <Node pos="r" depth="2" NCoef="0" IVar="-1" Cut="0.0000000000000000e+00" cType="1" res="5.9614457190036774e-02" rms="8.0131828784942627e-02" purity="1.0000000000000000e+00" nType="-99"/>
        </Node>
        <Node pos="r" depth="1" NCoef="0" IVar="8" Cut="1.6372900456190109e-02" cType="1" res="6.1135359108448029e-02" rms="6.3581869006156921e-02" purity="1.0000000000000000e+00" nType="0">
          <Node pos="l" depth="2" NCoef="0" IVar="-1" Cut="0.0000000000000000e+00" cType="1" res="5.3262859582901001e-02" rms="2.5657560676336288e-02" purity="1.0000000000000000e+00" nType="-99"/>
          <Node pos="r" depth="2" NCoef="0" IVar="-1" Cut="0.0000000000000000e+00" cType="1" res="6.7816048860549927e-02" rms="1.2977299094200134e-01" purity="1.0000000000000000e+00" nType="-99"/>
        </Node>
      </Node>
    </BinaryTree>
    <BinaryTree type="DecisionTree" boostWeight="1.0000000000000000e+00" itree="27">
      <Node pos="s" depth="0" NCoef="0" IVar="8" Cut="1.5504701063036919e-02" cType="1" res="-1.6507361829280853e-01" rms="2.0039120316505432e-01" purity="3.7374806404113770e-01" nType="0">
        <Node pos="l" depth="1" NCoef="0" IVar="11" Cut="4.1176739335060120e-01" cType="1" res="4.9046505242586136e-02" rms="3.5365983843803406e-02" purity="1.0000000000000000e+00" nType="0">
          <Node pos="l" depth="2" NCoef="0" IVar="-1" Cut="0.0000000000000000e+00" cType="1" res="5.5796246975660324e-02" rms="4.5253463089466095e-02" purity="1.0000000000000000e+00" nType="-99"/>
          <Node pos="r" depth="2" NCoef="0" IVar="-1" Cut="0.0000000000000000e+00" cType="1" res="5.2331343293190002e-02" rms="1.7795367166399956e-02" purity="1.0000000000000000e+00" nType="-99"/>
        </Node>
        <Node pos="r" depth="1" NCoef="0" IVar="7" Cut="7.3419485092163086e+00" cType="1" res="-2.6706358790397644e-01" rms="1.6262924671173096e-01" purity="7.5450956821441650e-02" nType="0">
          <Node pos="l" depth="2" NCoef="0" IVar="-1" Cut="0.0000000000000000e+00" cType="1" res="-7.1903519332408905e-02" rms="1.3201628625392914e-01" purity="2.0804591476917267e-02" nType="-99"/>
          <Node pos="r" depth="2" NCoef="0" IVar="-1" Cut="0.0000000000000000e+00" cType="1" res="6.7746013402938843e-02" rms="1.3078747689723969e-01" purity="1.0000000000000000e+00" nType="-99"/>
        </Node>
      </Node>
    </BinaryTree>
    <BinaryTree type="DecisionTree" boostWeight="1.0000000000000000e+00" itree="28">
      <Node pos="s" depth="0" NCoef="0" IVar="10" Cut="9.9967414140701294e-01" cType="1" res="-1.0187695175409317e-01" rms="2.0279896259307861e-01" purity="5.0038027763366699e-01" nType="0">
        <Node pos="l" depth="1" NCoef="0" IVar="-1" Cut="0.0000000000000000e+00" cType="1" res="-6.0879018157720566e-02" rms="1.9911400973796844e-01" purity="8.9200936257839203e-02" nType="-99"/>
        <Node pos="r" depth="1" NCoef="0" IVar="11" Cut="4.1189736127853394e-01" cType="1" res="4.8576064407825470e-02" rms="4.0764298290014267e-02" purity="1.0000000000000000e+00" nType="0">
          <Node pos="l" depth="2" NCoef="0" IVar="-1" Cut="0.0000000000000000e+00" cType="1" res="5.6398306041955948e-02" rms="5.3683672100305557e-02" purity="1.0000000000000000e+00" nType="-99"/>
          <Node pos="r" depth="2" NCoef="0" IVar="-1" Cut="0.0000000000000000e+00" cType="1" res="5.2726015448570251e-02" rms="2.3866871371865273e-02" purity="1.0000000000000000e+00" nType="-99"/>
        </Node>
      </Node>
    </BinaryTree>
    <BinaryTree type="DecisionTree" boostWeight="1.0000000000000000e+00" itree="29">
      <Node pos="s" depth="0" NCoef="0" IVar="13" Cut="-1.9432464838027954e+00" cType="1" res="-1.0707478970289230e-01" rms="1.7190924286842346e-01" purity="4.1906186938285828e-01" nType="0">
        <Node pos="l" depth="1" NCoef="0" IVar="-1" Cut="0.0000000000000000e+00" cType="1" res="-8.1339687108993530e-02" rms="1.4134177565574646e-01" purity="1.0359918326139450e-01" nType="-99"/>
        <Node pos="r" depth="1" NCoef="0" IVar="8" Cut="3.2276697456836700e-02" cType="1" res="-5.8089599013328552e-02" rms="1.2881727516651154e-01" purity="4.8005509376525879e-01" nType="0">
          <Node pos="l" depth="2" NCoef="0" IVar="-1" Cut="0.0000000000000000e+00" cType="1" res="5.7215671986341476e-02" rms="6.1278585344552994e-02" purity="1.0000000000000000e+00" nType="-99"/>
          <Node pos="r" depth="2" NCoef="0" IVar="-1" Cut="0.0000000000000000e+00" cType="1" res="-5.3234558552503586e-02" rms="9.8708115518093109e-02" purity="3.8029585033655167e-02" nType="-99"/>
        </Node>
      </Node>
    </BinaryTree>
    <BinaryTree type="DecisionTree" boostWeight="1.0000000000000000e+00" itree="30">
      <Node pos="s" depth="0" NCoef="0" IVar="10" Cut="9.9967414140701294e-01" cType="1" res="5.2867438644170761e-02" rms="8.1014893949031830e-02" purity="1.0000000000000000e+00" nType="0">
        <Node pos="l" depth="1" NCoef="0" IVar="-1" Cut="0.0000000000000000e+00" cType="1" res="9.1680742800235748e-02" rms="2.2558276355266571e-01" purity="1.0000000000000000e+00" nType="-99"/>
        <Node pos="r" depth="1" NCoef="0" IVar="11" Cut="4.1210207343101501e-01" cType="1" res="4.0146119892597198e-02" rms="3.2263945788145065e-02" purity="1.0000000000000000e+00" nType="0">
          <Node pos="l" depth="2" NCoef="0" IVar="-1" Cut="0.0000000000000000e+00" cType="1" res="5.5151879787445068e-02" rms="4.2116381227970123e-02" purity="1.0000000000000000e+00" nType="-99"/>
          <Node pos="r" depth="2" NCoef="0" IVar="-1" Cut="0.0000000000000000e+00" cType="1" res="5.1889117807149887e-02" rms="1.5344991348683834e-02" purity="1.0000000000000000e+00" nType="-99"/>
        </Node>
      </Node>
    </BinaryTree>
    <BinaryTree type="DecisionTree" boostWeight="1.0000000000000000e+00" itree="31">
      <Node pos="s" depth="0" NCoef="0" IVar="1" Cut="1.7898999452590942e+00" cType="1" res="-2.3219482600688934e-01" rms="2.3499807715415955e-01" purity="3.6622172594070435e-01" nType="0">
        <Node pos="l" depth="1" NCoef="0" IVar="11" Cut="4.9751859903335571e-01" cType="1" res="-3.6242517828941345e-01" rms="1.6265568137168884e-01" purity="6.6383592784404755e-02" nType="0">
          <Node pos="l" depth="2" NCoef="0" IVar="-1" Cut="0.0000000000000000e+00" cType="1" res="-8.8357500731945038e-02" rms="9.3371391296386719e-02" purity="2.6639875024557114e-02" nType="-99"/>
          <Node pos="r" depth="2" NCoef="0" IVar="-1" Cut="0.0000000000000000e+00" cType="1" res="-4.8275027424097061e-02" rms="1.5919300913810730e-01" purity="1.9745923578739166e-01" nType="-99"/>
        </Node>
        <Node pos="r" depth="1" NCoef="0" IVar="10" Cut="9.9967414140701294e-01" cType="1" res="4.3077584356069565e-02" rms="6.6382594406604767e-02" purity="1.0000000000000000e+00" nType="0">
          <Node pos="l" depth="2" NCoef="0" IVar="-1" Cut="0.0000000000000000e+00" cType="1" res="7.3954403400421143e-02" rms="1.6189403831958771e-01" purity="1.0000000000000000e+00" nType="-99"/>
          <Node pos="r" depth="2" NCoef="0" IVar="-1" Cut="0.0000000000000000e+00" cType="1" res="5.2142508327960968e-02" rms="1.8206220120191574e-02" purity="1.0000000000000000e+00" nType="-99"/>
        </Node>
      </Node>
    </BinaryTree>
    <BinaryTree type="DecisionTree" boostWeight="1.0000000000000000e+00" itree="32">
      <Node pos="s" depth="0" NCoef="0" IVar="6" Cut="7.0550255477428436e-03" cType="1" res="-5.9860671171918511e-04" rms="1.2845104932785034e-01" purity="7.7015584707260132e-01" nType="0">
        <Node pos="l" depth="1" NCoef="0" IVar="10" Cut="9.9949085712432861e-01" cType="1" res="5.1448650658130646e-02" rms="9.9681735038757324e-02" purity="1.0000000000000000e+00" nType="0">
          <Node pos="l" depth="2" NCoef="0" IVar="-1" Cut="0.0000000000000000e+00" cType="1" res="9.6831068396568298e-02" rms="1.9098991155624390e-01" purity="1.0000000000000000e+00" nType="-99"/>
          <Node pos="r" depth="2" NCoef="0" IVar="-1" Cut="0.0000000000000000e+00" cType="1" res="5.2751615643501282e-02" rms="2.5739666074514389e-02" purity="1.0000000000000000e+00" nType="-99"/>
        </Node>
        <Node pos="r" depth="1" NCoef="0" IVar="6" Cut="8.1705907359719276e-03" cType="1" res="-1.1192512512207031e-01" rms="1.1113169044256210e-01" purity="2.7853047847747803e-01" nType="0">
          <Node pos="l" depth="2" NCoef="0" IVar="-1" Cut="0.0000000000000000e+00" cType="1" res="-5.7402059435844421e-02" rms="6.7641213536262512e-02" purity="7.8751660883426666e-02" nType="-99"/>
          <Node pos="r" depth="2" NCoef="0" IVar="-1" Cut="0.0000000000000000e+00" cType="1" res="5.7658057659864426e-02" rms="6.5629847347736359e-02" purity="1.0000000000000000e+00" nType="-99"/>
        </Node>
      </Node>
    </BinaryTree>
    <BinaryTree type="DecisionTree" boostWeight="1.0000000000000000e+00" itree="33">
      <Node pos="s" depth="0" NCoef="0" IVar="6" Cut="1.0651824995875359e-02" cType="1" res="-2.0607526600360870e-01" rms="2.8506281971931458e-01" purity="3.9464405179023743e-01" nType="0">
        <Node pos="l" depth="1" NCoef="0" IVar="10" Cut="9.9963599443435669e-01" cType="1" res="-1.2200469523668289e-01" rms="1.7459744215011597e-01" purity="4.4003853201866150e-01" nType="0">
          <Node pos="l" depth="2" NCoef="0" IVar="-1" Cut="0.0000000000000000e+00" cType="1" res="-6.5923243761062622e-02" rms="1.5505640208721161e-01" purity="4.3779645115137100e-02" nType="-99"/>
          <Node pos="r" depth="2" NCoef="0" IVar="-1" Cut="0.0000000000000000e+00" cType="1" res="5.2647251635789871e-02" rms="2.4833852425217628e-02" purity="1.0000000000000000e+00" nType="-99"/>
        </Node>
        <Node pos="r" depth="1" NCoef="0" IVar="-1" Cut="0.0000000000000000e+00" cType="1" res="-2.9240730404853821e-01" rms="2.6744222640991211e-01" purity="1.0414705425500870e-01" nType="-99"/>
      </Node>
    </BinaryTree>
    <BinaryTree type="DecisionTree" boostWeight="1.0000000000000000e+00" itree="34">
      <Node pos="s" depth="0" NCoef="0" IVar="1" Cut="1.8342680931091309e+00" cType="1" res="-1.0728939622640610e-01" rms="1.8269854784011841e-01" purity="4.9878147244453430e-01" nType="0">
        <Node pos="l" depth="1" NCoef="0" IVar="6" Cut="2.0398823544383049e-03" cType="1" res="-2.5415334105491638e-01" rms="1.8420529365539551e-01" purity="1.5185716748237610e-01" nType="0">
          <Node pos="l" depth="2" NCoef="0" IVar="-1" Cut="0.0000000000000000e+00" cType="1" res="-7.4946574866771698e-02" rms="1.3488066196441650e-01" purity="5.7356894016265869e-02" nType="-99"/>
          <Node pos="r" depth="2" NCoef="0" IVar="-1" Cut="0.0000000000000000e+00" cType="1" res="7.5139649212360382e-02" rms="1.5835455060005188e-01" purity="1.0000000000000000e+00" nType="-99"/>
        </Node>
        <Node pos="r" depth="1" NCoef="0" IVar="11" Cut="9.5342986285686493e-02" cType="1" res="-1.1814240366220474e-02" rms="9.9408254027366638e-02" purity="7.2431433200836182e-01" nType="0">
          <Node pos="l" depth="2" NCoef="0" IVar="-1" Cut="0.0000000000000000e+00" cType="1" res="-5.1546365022659302e-02" rms="8.6944088339805603e-02" purity="7.5337819755077362e-02" nType="-99"/>
          <Node pos="r" depth="2" NCoef="0" IVar="-1" Cut="0.0000000000000000e+00" cType="1" res="5.7380046695470810e-02" rms="5.7567391544580460e-02" purity="1.0000000000000000e+00" nType="-99"/>
        </Node>
      </Node>
    </BinaryTree>
    <BinaryTree type="DecisionTree" boostWeight="1.0000000000000000e+00" itree="35">
      <Node pos="s" depth="0" NCoef="0" IVar="11" Cut="4.1173297166824341e-01" cType="1" res="-2.8042021393775940e-01" rms="2.8064081072807312e-01" purity="3.8392701745033264e-01" nType="0">
        <Node pos="l" depth="1" NCoef="0" IVar="9" Cut="6.6297185420989990e-01" cType="1" res="-3.8752341270446777e-01" rms="2.4846871197223663e-01" purity="1.6785000264644623e-01" nType="0">
          <Node pos="l" depth="2" NCoef="0" IVar="-1" Cut="0.0000000000000000e+00" cType="1" res="-7.7437303960323334e-02" rms="2.0002594590187073e-01" purity="1.9306014478206635e-01" nType="-99"/>
          <Node pos="r" depth="2" NCoef="0" IVar="-1" Cut="0.0000000000000000e+00" cType="1" res="-2.0634916424751282e-01" rms="1.7040474712848663e-01" purity="4.9007643014192581e-02" nType="-99"/>
        </Node>
        <Node pos="r" depth="1" NCoef="0" IVar="8" Cut="1.9390262663364410e-02" cType="1" res="2.4949496611952782e-02" rms="3.6562621593475342e-02" purity="1.0000000000000000e+00" nType="0">
          <Node pos="l" depth="2" NCoef="0" IVar="-1" Cut="0.0000000000000000e+00" cType="1" res="5.1369927823543549e-02" rms="1.2476497329771519e-02" purity="1.0000000000000000e+00" nType="-99"/>
          <Node pos="r" depth="2" NCoef="0" IVar="-1" Cut="0.0000000000000000e+00" cType="1" res="6.0848336666822433e-02" rms="8.8960222899913788e-02" purity="1.0000000000000000e+00" nType="-99"/>
        </Node>
      </Node>
    </BinaryTree>
    <BinaryTree type="DecisionTree" boostWeight="1.0000000000000000e+00" itree="36">
      <Node pos="s" depth="0" NCoef="0" IVar="0" Cut="1.7776243686676025e+00" cType="1" res="-2.3306390643119812e-01" rms="1.9541350007057190e-01" purity="2.7192738652229309e-01" nType="0">
        <Node pos="l" depth="1" NCoef="0" IVar="11" Cut="4.1150230169296265e-01" cType="1" res="-3.4457197785377502e-01" rms="1.2461142987012863e-01" purity="4.8619594424962997e-02" nType="0">
          <Node pos="l" depth="2" NCoef="0" IVar="-1" Cut="0.0000000000000000e+00" cType="1" res="-8.1381618976593018e-02" rms="7.9263120889663696e-02" purity="1.2601424939930439e-02" nType="-99"/>
          <Node pos="r" depth="2" NCoef="0" IVar="-1" Cut="0.0000000000000000e+00" cType="1" res="-5.4106283932924271e-02" rms="1.1568567901849747e-01" purity="2.1945513784885406e-01" nType="-99"/>
        </Node>
        <Node pos="r" depth="1" NCoef="0" IVar="11" Cut="9.5252029597759247e-02" cType="1" res="-7.0571447722613811e-03" rms="8.8489234447479248e-02" purity="7.2453200817108154e-01" nType="0">
          <Node pos="l" depth="2" NCoef="0" IVar="-1" Cut="0.0000000000000000e+00" cType="1" res="-4.5345332473516464e-02" rms="9.7317561507225037e-02" purity="7.2787359356880188e-02" nType="-99"/>
          <Node pos="r" depth="2" NCoef="0" IVar="-1" Cut="0.0000000000000000e+00" cType="1" res="5.6964792311191559e-02" rms="5.2119068801403046e-02" purity="1.0000000000000000e+00" nType="-99"/>
        </Node>
      </Node>
    </BinaryTree>
    <BinaryTree type="DecisionTree" boostWeight="1.0000000000000000e+00" itree="37">
      <Node pos="s" depth="0" NCoef="0" IVar="8" Cut="3.0899066478013992e-02" cType="1" res="-1.9487403333187103e-02" rms="1.2386152893304825e-01" purity="7.4276018142700195e-01" nType="0">
        <Node pos="l" depth="1" NCoef="0" IVar="10" Cut="9.9978017807006836e-01" cType="1" res="3.3040206879377365e-02" rms="6.8036206066608429e-02" purity="1.0000000000000000e+00" nType="0">
          <Node pos="l" depth="2" NCoef="0" IVar="-1" Cut="0.0000000000000000e+00" cType="1" res="8.4549114108085632e-02" rms="1.9568483531475067e-01" purity="1.0000000000000000e+00" nType="-99"/>
          <Node pos="r" depth="2" NCoef="0" IVar="-1" Cut="0.0000000000000000e+00" cType="1" res="5.3226970136165619e-02" rms="2.9675653204321861e-02" purity="1.0000000000000000e+00" nType="-99"/>
        </Node>
        <Node pos="r" depth="1" NCoef="0" IVar="-1" Cut="0.0000000000000000e+00" cType="1" res="-4.9875516444444656e-02" rms="1.3443818688392639e-01" purity="1.0377026349306107e-01" nType="-99"/>
      </Node>
    </BinaryTree>
    <BinaryTree type="DecisionTree" boostWeight="1.0000000000000000e+00" itree="38">
      <Node pos="s" depth="0" NCoef="0" IVar="6" Cut="1.0648326016962528e-02" cType="1" res="-2.0256976783275604e-01" rms="3.1301516294479370e-01" purity="5.8206474781036377e-01" nType="0">
        <Node pos="l" depth="1" NCoef="0" IVar="13" Cut="-1.9436397552490234e+00" cType="1" res="-6.9998823106288910e-02" rms="1.8264015018939972e-01" purity="7.2676396369934082e-01" nType="0">
          <Node pos="l" depth="2" NCoef="0" IVar="-1" Cut="0.0000000000000000e+00" cType="1" res="-7.0741616189479828e-02" rms="1.5788225829601288e-01" purity="1.1582154035568237e-01" nType="-99"/>
          <Node pos="r" depth="2" NCoef="0" IVar="-1" Cut="0.0000000000000000e+00" cType="1" res="5.8748111128807068e-02" rms="6.0902230441570282e-02" purity="1.0000000000000000e+00" nType="-99"/>
        </Node>
        <Node pos="r" depth="1" NCoef="0" IVar="-1" Cut="0.0000000000000000e+00" cType="1" res="-1.7133396863937378e-01" rms="2.5522884726524353e-01" purity="1.1157757043838501e-01" nType="-99"/>
      </Node>
    </BinaryTree>
    <BinaryTree type="DecisionTree" boostWeight="1.0000000000000000e+00" itree="39">
      <Node pos="s" depth="0" NCoef="0" IVar="8" Cut="2.5851741433143616e-02" cType="1" res="-7.5433447957038879e-02" rms="1.9673220813274384e-01" purity="7.6026201248168945e-01" nType="0">
        <Node pos="l" depth="1" NCoef="0" IVar="11" Cut="2.3095716536045074e-01" cType="1" res="2.1736290305852890e-02" rms="3.8004670292139053e-02" purity="1.0000000000000000e+00" nType="0">
          <Node pos="l" depth="2" NCoef="0" IVar="-1" Cut="0.0000000000000000e+00" cType="1" res="6.0317389667034149e-02" rms="8.1650681793689728e-02" purity="1.0000000000000000e+00" nType="-99"/>
          <Node pos="r" depth="2" NCoef="0" IVar="-1" Cut="0.0000000000000000e+00" cType="1" res="5.1771972328424454e-02" rms="1.7022727057337761e-02" purity="1.0000000000000000e+00" nType="-99"/>
        </Node>
        <Node pos="r" depth="1" NCoef="0" IVar="-1" Cut="0.0000000000000000e+00" cType="1" res="-7.1912281215190887e-02" rms="2.2121185064315796e-01" purity="1.5723848342895508e-01" nType="-99"/>
      </Node>
    </BinaryTree>
    <BinaryTree type="DecisionTree" boostWeight="1.0000000000000000e+00" itree="40">
      <Node pos="s" depth="0" NCoef="0" IVar="1" Cut="1.7760877609252930e+00" cType="1" res="-1.5170593559741974e-01" rms="2.3955640196800232e-01" purity="5.8767127990722656e-01" nType="0">
        <Node pos="l" depth="1" NCoef="0" IVar="11" Cut="4.6237814426422119e-01" cType="1" res="-3.5323944687843323e-01" rms="2.0298606157302856e-01" purity="1.2430558353662491e-01" nType="0">
          <Node pos="l" depth="2" NCoef="0" IVar="-1" Cut="0.0000000000000000e+00" cType="1" res="-8.3863385021686554e-02" rms="1.5383486449718475e-01" purity="4.7636121511459351e-02" nType="-99"/>
          <Node pos="r" depth="2" NCoef="0" IVar="-1" Cut="0.0000000000000000e+00" cType="1" res="7.4409134685993195e-02" rms="1.4915129542350769e-01" purity="1.0000000000000000e+00" nType="-99"/>
        </Node>
        <Node pos="r" depth="1" NCoef="0" IVar="8" Cut="2.3843022063374519e-02" cType="1" res="2.7629874646663666e-02" rms="5.9034906327724457e-02" purity="1.0000000000000000e+00" nType="0">
          <Node pos="l" depth="2" NCoef="0" IVar="-1" Cut="0.0000000000000000e+00" cType="1" res="5.3606346249580383e-02" rms="3.0302479863166809e-02" purity="1.0000000000000000e+00" nType="-99"/>
          <Node pos="r" depth="2" NCoef="0" IVar="-1" Cut="0.0000000000000000e+00" cType="1" res="7.2572343051433563e-02" rms="1.5551196038722992e-01" purity="1.0000000000000000e+00" nType="-99"/>
        </Node>
      </Node>
    </BinaryTree>
    <BinaryTree type="DecisionTree" boostWeight="1.0000000000000000e+00" itree="41">
      <Node pos="s" depth="0" NCoef="0" IVar="6" Cut="1.0650088079273701e-02" cType="1" res="-1.7226119339466095e-01" rms="2.9443624615669250e-01" purity="6.1727416515350342e-01" nType="0">
        <Node pos="l" depth="1" NCoef="0" IVar="11" Cut="9.5250330865383148e-02" cType="1" res="-5.2361581474542618e-02" rms="1.6352440416812897e-01" purity="7.5645899772644043e-01" nType="0">
          <Node pos="l" depth="2" NCoef="0" IVar="-1" Cut="0.0000000000000000e+00" cType="1" res="-6.4530178904533386e-02" rms="1.6881094872951508e-01" purity="1.0654224455356598e-01" nType="-99"/>
          <Node pos="r" depth="2" NCoef="0" IVar="-1" Cut="0.0000000000000000e+00" cType="1" res="6.2520496547222137e-02" rms="6.5786376595497131e-02" purity="1.0000000000000000e+00" nType="-99"/>
        </Node>
        <Node pos="r" depth="1" NCoef="0" IVar="-1" Cut="0.0000000000000000e+00" cType="1" res="-1.5571610629558563e-01" rms="2.4592866003513336e-01" purity="1.0681446641683578e-01" nType="-99"/>
      </Node>
    </BinaryTree>
    <BinaryTree type="DecisionTree" boostWeight="1.0000000000000000e+00" itree="42">
      <Node pos="s" depth="0" NCoef="0" IVar="11" Cut="4.1208851337432861e-01" cType="1" res="-2.1328124403953552e-01" rms="2.4660676717758179e-01" purity="3.7917095422744751e-01" nType="0">
        <Node pos="l" depth="1" NCoef="0" IVar="11" Cut="3.7668013572692871e-01" cType="1" res="-2.9411157965660095e-01" rms="2.3668713867664337e-01" purity="1.6279567778110504e-01" nType="0">
          <Node pos="l" depth="2" NCoef="0" IVar="-1" Cut="0.0000000000000000e+00" cType="1" res="-6.0508694499731064e-02" rms="1.8141253292560577e-01" purity="2.3052321374416351e-01" nType="-99"/>
          <Node pos="r" depth="2" NCoef="0" IVar="-1" Cut="0.0000000000000000e+00" cType="1" res="-1.1028560250997543e-01" rms="1.4915242791175842e-01" purity="3.5449489951133728e-02" nType="-99"/>
        </Node>
        <Node pos="r" depth="1" NCoef="0" IVar="8" Cut="2.3180829361081123e-02" cType="1" res="1.8639063462615013e-02" rms="4.5133057981729507e-02" purity="1.0000000000000000e+00" nType="0">
          <Node pos="l" depth="2" NCoef="0" IVar="-1" Cut="0.0000000000000000e+00" cType="1" res="5.1427986472845078e-02" rms="1.3400206342339516e-02" purity="1.0000000000000000e+00" nType="-99"/>
          <Node pos="r" depth="2" NCoef="0" IVar="-1" Cut="0.0000000000000000e+00" cType="1" res="6.4990550279617310e-02" rms="1.1532785743474960e-01" purity="1.0000000000000000e+00" nType="-99"/>
        </Node>
      </Node>
    </BinaryTree>
    <BinaryTree type="DecisionTree" boostWeight="1.0000000000000000e+00" itree="43">
      <Node pos="s" depth="0" NCoef="0" IVar="7" Cut="1.0885214233398438e+02" cType="1" res="-2.0825494825839996e-01" rms="2.9891926050186157e-01" purity="6.0634195804595947e-01" nType="0">
        <Node pos="l" depth="1" NCoef="0" IVar="8" Cut="2.4546289816498756e-02" cType="1" res="2.9642801731824875e-02" rms="6.7463636398315430e-02" purity="1.0000000000000000e+00" nType="0">
          <Node pos="l" depth="2" NCoef="0" IVar="-1" Cut="0.0000000000000000e+00" cType="1" res="5.4093778133392334e-02" rms="3.2540332525968552e-02" purity="1.0000000000000000e+00" nType="-99"/>
          <Node pos="r" depth="2" NCoef="0" IVar="-1" Cut="0.0000000000000000e+00" cType="1" res="7.4222758412361145e-02" rms="1.6241875290870667e-01" purity="1.0000000000000000e+00" nType="-99"/>
        </Node>
        <Node pos="r" depth="1" NCoef="0" IVar="-1" Cut="0.0000000000000000e+00" cType="1" res="-1.1664240062236786e-01" rms="1.4269644021987915e-01" purity="6.2680125236511230e-02" nType="-99"/>
      </Node>
    </BinaryTree>
    <BinaryTree type="DecisionTree" boostWeight="1.0000000000000000e+00" itree="44">
      <Node pos="s" depth="0" NCoef="0" IVar="10" Cut="9.9968773126602173e-01" cType="1" res="-1.1816487461328506e-01" rms="1.7989173531532288e-01" purity="5.0562947988510132e-01" nType="0">
        <Node pos="l" depth="1" NCoef="0" IVar="-1" Cut="0.0000000000000000e+00" cType="1" res="-7.1380898356437683e-02" rms="1.6461880505084991e-01" purity="4.8535175621509552e-02" nType="-99"/>
        <Node pos="r" depth="1" NCoef="0" IVar="6" Cut="1.0648326016962528e-02" cType="1" res="1.8384713679552078e-02" rms="4.6541932970285416e-02" purity="1.0000000000000000e+00" nType="0">
          <Node pos="l" depth="2" NCoef="0" IVar="-1" Cut="0.0000000000000000e+00" cType="1" res="5.2690222859382629e-02" rms="2.2333854809403419e-02" purity="1.0000000000000000e+00" nType="-99"/>
          <Node pos="r" depth="2" NCoef="0" IVar="-1" Cut="0.0000000000000000e+00" cType="1" res="7.3149971663951874e-02" rms="1.5215225517749786e-01" purity="1.0000000000000000e+00" nType="-99"/>
        </Node>
      </Node>
    </BinaryTree>
    <BinaryTree type="DecisionTree" boostWeight="1.0000000000000000e+00" itree="45">
      <Node pos="s" depth="0" NCoef="0" IVar="0" Cut="1.7955262660980225e+00" cType="1" res="-1.7493200302124023e-01" rms="2.0025092363357544e-01" purity="3.8656398653984070e-01" nType="0">
        <Node pos="l" depth="1" NCoef="0" IVar="1" Cut="1.4410290718078613e+00" cType="1" res="-3.1848433613777161e-01" rms="1.5660740435123444e-01" purity="9.1725707054138184e-02" nType="0">
          <Node pos="l" depth="2" NCoef="0" IVar="-1" Cut="0.0000000000000000e+00" cType="1" res="-7.7980667352676392e-02" rms="1.1353680491447449e-01" purity="3.4885548055171967e-02" nType="-99"/>
          <Node pos="r" depth="2" NCoef="0" IVar="-1" Cut="0.0000000000000000e+00" cType="1" res="8.3543531596660614e-02" rms="1.7044983804225922e-01" purity="1.0000000000000000e+00" nType="-99"/>
        </Node>
        <Node pos="r" depth="1" NCoef="0" IVar="11" Cut="9.5322445034980774e-02" cType="1" res="-6.2042349018156528e-03" rms="7.5604520738124847e-02" purity="7.3310941457748413e-01" nType="0">
          <Node pos="l" depth="2" NCoef="0" IVar="-1" Cut="0.0000000000000000e+00" cType="1" res="-4.0960017591714859e-02" rms="9.8247818648815155e-02" purity="1.0678721964359283e-01" nType="-99"/>
          <Node pos="r" depth="2" NCoef="0" IVar="-1" Cut="0.0000000000000000e+00" cType="1" res="5.7524669915437698e-02" rms="4.5254386961460114e-02" purity="1.0000000000000000e+00" nType="-99"/>
        </Node>
      </Node>
    </BinaryTree>
    <BinaryTree type="DecisionTree" boostWeight="1.0000000000000000e+00" itree="46">
      <Node pos="s" depth="0" NCoef="0" IVar="6" Cut="1.0648326016962528e-02" cType="1" res="-1.1432962864637375e-01" rms="2.6204130053520203e-01" purity="7.6909869909286499e-01" nType="0">
        <Node pos="l" depth="1" NCoef="0" IVar="10" Cut="9.9949085712432861e-01" cType="1" res="2.2911442443728447e-02" rms="6.3108973205089569e-02" purity="1.0000000000000000e+00" nType="0">
          <Node pos="l" depth="2" NCoef="0" IVar="-1" Cut="0.0000000000000000e+00" cType="1" res="7.5872801244258881e-02" rms="1.6532161831855774e-01" purity="1.0000000000000000e+00" nType="-99"/>
          <Node pos="r" depth="2" NCoef="0" IVar="-1" Cut="0.0000000000000000e+00" cType="1" res="5.2649997174739838e-02" rms="2.1462561562657356e-02" purity="1.0000000000000000e+00" nType="-99"/>
        </Node>
        <Node pos="r" depth="1" NCoef="0" IVar="-1" Cut="0.0000000000000000e+00" cType="1" res="-1.1232175678014755e-01" rms="2.1867199242115021e-01" purity="1.1660332232713699e-01" nType="-99"/>
      </Node>
    </BinaryTree>
    <BinaryTree type="DecisionTree" boostWeight="1.0000000000000000e+00" itree="47">
      <Node pos="s" depth="0" NCoef="0" IVar="11" Cut="9.5250330865383148e-02" cType="1" res="-5.5052939802408218e-02" rms="1.2688179314136505e-01" purity="4.9521031975746155e-01" nType="0">
        <Node pos="l" depth="1" NCoef="0" IVar="-1" Cut="0.0000000000000000e+00" cType="1" res="-5.6287311017513275e-02" rms="1.0169694572687149e-01" purity="3.9536934345960617e-02" nType="-99"/>
        <Node pos="r" depth="1" NCoef="0" IVar="10" Cut="9.9968773126602173e-01" cType="1" res="2.8303215280175209e-02" rms="9.6207007765769958e-02" purity="1.0000000000000000e+00" nType="0">
          <Node pos="l" depth="2" NCoef="0" IVar="-1" Cut="0.0000000000000000e+00" cType="1" res="1.1468496173620224e-01" rms="2.8199425339698792e-01" purity="1.0000000000000000e+00" nType="-99"/>
          <Node pos="r" depth="2" NCoef="0" IVar="-1" Cut="0.0000000000000000e+00" cType="1" res="5.2728179842233658e-02" rms="2.2005764767527580e-02" purity="1.0000000000000000e+00" nType="-99"/>
        </Node>
      </Node>
    </BinaryTree>
    <BinaryTree type="DecisionTree" boostWeight="1.0000000000000000e+00" itree="48">
      <Node pos="s" depth="0" NCoef="0" IVar="8" Cut="2.5798216462135315e-02" cType="1" res="-1.3217200338840485e-01" rms="1.9465239346027374e-01" purity="5.8409446477890015e-01" nType="0">
        <Node pos="l" depth="1" NCoef="0" IVar="6" Cut="8.4767751395702362e-03" cType="1" res="1.2418141588568687e-02" rms="3.7357777357101440e-02" purity="1.0000000000000000e+00" nType="0">
          <Node pos="l" depth="2" NCoef="0" IVar="-1" Cut="0.0000000000000000e+00" cType="1" res="5.1703825592994690e-02" rms="1.4607949182391167e-02" purity="1.0000000000000000e+00" nType="-99"/>
          <Node pos="r" depth="2" NCoef="0" IVar="-1" Cut="0.0000000000000000e+00" cType="1" res="7.2651706635951996e-02" rms="1.2921158969402313e-01" purity="1.0000000000000000e+00" nType="-99"/>
        </Node>
        <Node pos="r" depth="1" NCoef="0" IVar="-1" Cut="0.0000000000000000e+00" cType="1" res="-7.3568992316722870e-02" rms="1.5892003476619720e-01" purity="7.0475555956363678e-02" nType="-99"/>
      </Node>
    </BinaryTree>
    <BinaryTree type="DecisionTree" boostWeight="1.0000000000000000e+00" itree="49">
      <Node pos="s" depth="0" NCoef="0" IVar="1" Cut="1.7760877609252930e+00" cType="1" res="-1.6609835624694824e-01" rms="2.1484895050525665e-01" purity="5.0441360473632812e-01" nType="0">
        <Node pos="l" depth="1" NCoef="0" IVar="4" Cut="4.0308561325073242e+00" cType="1" res="-3.2914364337921143e-01" rms="1.5481242537498474e-01" purity="8.3366498351097107e-02" nType="0">
          <Node pos="l" depth="2" NCoef="0" IVar="-1" Cut="0.0000000000000000e+00" cType="1" res="-8.0772370100021362e-02" rms="1.3049846887588501e-01" purity="2.7871498838067055e-02" nType="-99"/>
          <Node pos="r" depth="2" NCoef="0" IVar="-1" Cut="0.0000000000000000e+00" cType="1" res="5.6800831109285355e-02" rms="5.1210857927799225e-02" purity="1.0000000000000000e+00" nType="-99"/>
        </Node>
        <Node pos="r" depth="1" NCoef="0" IVar="10" Cut="9.9970769882202148e-01" cType="1" res="2.5811363011598587e-02" rms="6.4520284533500671e-02" purity="1.0000000000000000e+00" nType="0">
          <Node pos="l" depth="2" NCoef="0" IVar="-1" Cut="0.0000000000000000e+00" cType="1" res="6.7756615579128265e-02" rms="1.3095596432685852e-01" purity="1.0000000000000000e+00" nType="-99"/>
          <Node pos="r" depth="2" NCoef="0" IVar="-1" Cut="0.0000000000000000e+00" cType="1" res="5.3007353097200394e-02" rms="2.2293955087661743e-02" purity="1.0000000000000000e+00" nType="-99"/>
        </Node>
      </Node>
    </BinaryTree>
    <BinaryTree type="DecisionTree" boostWeight="1.0000000000000000e+00" itree="50">
      <Node pos="s" depth="0" NCoef="0" IVar="1" Cut="1.7800443172454834e+00" cType="1" res="-8.8948674499988556e-02" rms="1.7820809781551361e-01" purity="6.0553741455078125e-01" nType="0">
        <Node pos="l" depth="1" NCoef="0" IVar="12" Cut="-5.3977936506271362e-01" cType="1" res="-2.1311610937118530e-01" rms="1.7568226158618927e-01" purity="1.6924965381622314e-01" nType="0">
          <Node pos="l" depth="2" NCoef="0" IVar="-1" Cut="0.0000000000000000e+00" cType="1" res="-6.6304646432399750e-02" rms="1.5466660261154175e-01" purity="3.8844138383865356e-02" nType="-99"/>
          <Node pos="r" depth="2" NCoef="0" IVar="-1" Cut="0.0000000000000000e+00" cType="1" res="5.5399369448423386e-02" rms="4.7487363219261169e-02" purity="1.0000000000000000e+00" nType="-99"/>
        </Node>
        <Node pos="r" depth="1" NCoef="0" IVar="10" Cut="9.9949085712432861e-01" cType="1" res="2.3315314203500748e-02" rms="7.7611640095710754e-02" purity="1.0000000000000000e+00" nType="0">
          <Node pos="l" depth="2" NCoef="0" IVar="-1" Cut="0.0000000000000000e+00" cType="1" res="8.3033397793769836e-02" rms="1.9814163446426392e-01" purity="1.0000000000000000e+00" nType="-99"/>
          <Node pos="r" depth="2" NCoef="0" IVar="-1" Cut="0.0000000000000000e+00" cType="1" res="5.2445568144321442e-02" rms="1.7845816910266876e-02" purity="1.0000000000000000e+00" nType="-99"/>
        </Node>
      </Node>
    </BinaryTree>
    <BinaryTree type="DecisionTree" boostWeight="1.0000000000000000e+00" itree="51">
      <Node pos="s" depth="0" NCoef="0" IVar="10" Cut="9.9963599443435669e-01" cType="1" res="2.3872001096606255e-02" rms="8.2279354333877563e-02" purity="1.0000000000000000e+00" nType="0">
        <Node pos="l" depth="1" NCoef="0" IVar="-1" Cut="0.0000000000000000e+00" cType="1" res="1.0423387587070465e-01" rms="2.5826326012611389e-01" purity="1.0000000000000000e+00" nType="-99"/>
        <Node pos="r" depth="1" NCoef="0" IVar="6" Cut="9.2288609594106674e-03" cType="1" res="1.2005820870399475e-02" rms="2.6970030739903450e-02" purity="1.0000000000000000e+00" nType="0">
          <Node pos="l" depth="2" NCoef="0" IVar="-1" Cut="0.0000000000000000e+00" cType="1" res="5.1928505301475525e-02" rms="1.5720412135124207e-02" purity="1.0000000000000000e+00" nType="-99"/>
          <Node pos="r" depth="2" NCoef="0" IVar="-1" Cut="0.0000000000000000e+00" cType="1" res="5.8506622910499573e-02" rms="7.0707373321056366e-02" purity="1.0000000000000000e+00" nType="-99"/>
        </Node>
      </Node>
    </BinaryTree>
    <BinaryTree type="DecisionTree" boostWeight="1.0000000000000000e+00" itree="52">
      <Node pos="s" depth="0" NCoef="0" IVar="1" Cut="1.7876265048980713e+00" cType="1" res="-9.3912303447723389e-02" rms="1.5407596528530121e-01" purity="5.1128387451171875e-01" nType="0">
        <Node pos="l" depth="1" NCoef="0" IVar="1" Cut="1.3520934581756592e+00" cType="1" res="-2.1123594045639038e-01" rms="1.7312581837177277e-01" purity="1.6068024933338165e-01" nType="0">
          <Node pos="l" depth="2" NCoef="0" IVar="-1" Cut="0.0000000000000000e+00" cType="1" res="-6.6779904067516327e-02" rms="1.3127759099006653e-01" purity="5.4389171302318573e-02" nType="-99"/>
          <Node pos="r" depth="2" NCoef="0" IVar="-1" Cut="0.0000000000000000e+00" cType="1" res="1.1818049103021622e-01" rms="1.9464710354804993e-01" purity="1.0000000000000000e+00" nType="-99"/>
        </Node>
        <Node pos="r" depth="1" NCoef="0" IVar="11" Cut="9.5252029597759247e-02" cType="1" res="-1.9472904503345490e-02" rms="7.4228532612323761e-02" purity="7.3373454809188843e-01" nType="0">
          <Node pos="l" depth="2" NCoef="0" IVar="-1" Cut="0.0000000000000000e+00" cType="1" res="-4.5095879584550858e-02" rms="9.8523162305355072e-02" purity="9.5538832247257233e-02" nType="-99"/>
          <Node pos="r" depth="2" NCoef="0" IVar="-1" Cut="0.0000000000000000e+00" cType="1" res="5.4736007004976273e-02" rms="2.7855148538947105e-02" purity="1.0000000000000000e+00" nType="-99"/>
        </Node>
      </Node>
    </BinaryTree>
    <BinaryTree type="DecisionTree" boostWeight="1.0000000000000000e+00" itree="53">
      <Node pos="s" depth="0" NCoef="0" IVar="13" Cut="-1.7165193557739258e+00" cType="1" res="-1.0205526649951935e-01" rms="2.5050643086433411e-01" purity="7.5422823429107666e-01" nType="0">
        <Node pos="l" depth="1" NCoef="0" IVar="13" Cut="-1.8474395275115967e+00" cType="1" res="-3.3736941218376160e-01" rms="2.8305786848068237e-01" purity="2.9154604673385620e-01" nType="0">
          <Node pos="l" depth="2" NCoef="0" IVar="-1" Cut="0.0000000000000000e+00" cType="1" res="7.1150071918964386e-02" rms="1.4312449097633362e-01" purity="1.0000000000000000e+00" nType="-99"/>
          <Node pos="r" depth="2" NCoef="0" IVar="-1" Cut="0.0000000000000000e+00" cType="1" res="-1.0244511067867279e-01" rms="1.3329139351844788e-01" purity="7.1678780019283295e-02" nType="-99"/>
        </Node>
        <Node pos="r" depth="1" NCoef="0" IVar="8" Cut="2.4593271315097809e-02" cType="1" res="2.2941034287214279e-02" rms="9.2142097651958466e-02" purity="1.0000000000000000e+00" nType="0">
          <Node pos="l" depth="2" NCoef="0" IVar="-1" Cut="0.0000000000000000e+00" cType="1" res="5.7338822633028030e-02" rms="3.4234505146741867e-02" purity="1.0000000000000000e+00" nType="-99"/>
          <Node pos="r" depth="2" NCoef="0" IVar="-1" Cut="0.0000000000000000e+00" cType="1" res="1.1591852456331253e-01" rms="2.6239848136901855e-01" purity="1.0000000000000000e+00" nType="-99"/>
        </Node>
      </Node>
    </BinaryTree>
    <BinaryTree type="DecisionTree" boostWeight="1.0000000000000000e+00" itree="54">
      <Node pos="s" depth="0" NCoef="0" IVar="10" Cut="9.9956035614013672e-01" cType="1" res="-1.0737594217061996e-01" rms="2.1706695854663849e-01" purity="7.3892402648925781e-01" nType="0">
        <Node pos="l" depth="1" NCoef="0" IVar="-1" Cut="0.0000000000000000e+00" cType="1" res="-8.4550216794013977e-02" rms="2.1069768071174622e-01" purity="1.1557681858539581e-01" nType="-99"/>
        <Node pos="r" depth="1" NCoef="0" IVar="6" Cut="9.9406493827700615e-03" cType="1" res="1.0900535620748997e-02" rms="2.9475999996066093e-02" purity="1.0000000000000000e+00" nType="0">
          <Node pos="l" depth="2" NCoef="0" IVar="-1" Cut="0.0000000000000000e+00" cType="1" res="5.2887685596942902e-02" rms="1.9032875075936317e-02" purity="1.0000000000000000e+00" nType="-99"/>
          <Node pos="r" depth="2" NCoef="0" IVar="-1" Cut="0.0000000000000000e+00" cType="1" res="5.9390183538198471e-02" rms="7.2389937937259674e-02" purity="1.0000000000000000e+00" nType="-99"/>
        </Node>
      </Node>
    </BinaryTree>
    <BinaryTree type="DecisionTree" boostWeight="1.0000000000000000e+00" itree="55">
      <Node pos="s" depth="0" NCoef="0" IVar="8" Cut="2.4546289816498756e-02" cType="1" res="-1.2105120718479156e-01" rms="1.5750004351139069e-01" purity="4.9585896730422974e-01" nType="0">
        <Node pos="l" depth="1" NCoef="0" IVar="10" Cut="9.9983316659927368e-01" cType="1" res="9.7671402618288994e-03" rms="2.4497635662555695e-02" purity="1.0000000000000000e+00" nType="0">
          <Node pos="l" depth="2" NCoef="0" IVar="-1" Cut="0.0000000000000000e+00" cType="1" res="5.7045754045248032e-02" rms="6.0010422021150589e-02" purity="1.0000000000000000e+00" nType="-99"/>
          <Node pos="r" depth="2" NCoef="0" IVar="-1" Cut="0.0000000000000000e+00" cType="1" res="5.2685614675283432e-02" rms="1.8030991777777672e-02" purity="1.0000000000000000e+00" nType="-99"/>
        </Node>
        <Node pos="r" depth="1" NCoef="0" IVar="13" Cut="1.2546522915363312e-01" cType="1" res="-2.3417600989341736e-01" rms="1.3469384610652924e-01" purity="5.9904430061578751e-02" nType="0">
          <Node pos="l" depth="2" NCoef="0" IVar="-1" Cut="0.0000000000000000e+00" cType="1" res="-7.8458867967128754e-02" rms="1.2236498296260834e-01" purity="8.4718495607376099e-02" nType="-99"/>
          <Node pos="r" depth="2" NCoef="0" IVar="-1" Cut="0.0000000000000000e+00" cType="1" res="-6.1351373791694641e-02" rms="1.0167715698480606e-01" purity="4.6985916793346405e-02" nType="-99"/>
        </Node>
      </Node>
    </BinaryTree>
    <BinaryTree type="DecisionTree" boostWeight="1.0000000000000000e+00" itree="56">
      <Node pos="s" depth="0" NCoef="0" IVar="12" Cut="-1.8777954578399658e+00" cType="1" res="-1.7305044829845428e-01" rms="2.3628772795200348e-01" purity="5.8763903379440308e-01" nType="0">
        <Node pos="l" depth="1" NCoef="0" IVar="-1" Cut="0.0000000000000000e+00" cType="1" res="-8.9157223701477051e-02" rms="1.3232523202896118e-01" purity="7.7356420457363129e-02" nType="-99"/>
        <Node pos="r" depth="1" NCoef="0" IVar="10" Cut="9.9968773126602173e-01" cType="1" res="1.8825996667146683e-02" rms="6.6514052450656891e-02" purity="1.0000000000000000e+00" nType="0">
          <Node pos="l" depth="2" NCoef="0" IVar="-1" Cut="0.0000000000000000e+00" cType="1" res="8.5550986230373383e-02" rms="1.9866213202476501e-01" purity="1.0000000000000000e+00" nType="-99"/>
          <Node pos="r" depth="2" NCoef="0" IVar="-1" Cut="0.0000000000000000e+00" cType="1" res="5.4729562252759933e-02" rms="2.7517529204487801e-02" purity="1.0000000000000000e+00" nType="-99"/>
        </Node>
      </Node>
    </BinaryTree>
    <BinaryTree type="DecisionTree" boostWeight="1.0000000000000000e+00" itree="57">
      <Node pos="s" depth="0" NCoef="0" IVar="6" Cut="1.0648326016962528e-02" cType="1" res="-3.0837926268577576e-01" rms="3.1180113554000854e-01" purity="4.0580716729164124e-01" nType="0">
        <Node pos="l" depth="1" NCoef="0" IVar="10" Cut="9.9949085712432861e-01" cType="1" res="-1.6739223897457123e-01" rms="1.9419482350349426e-01" purity="5.2405536174774170e-01" nType="0">
          <Node pos="l" depth="2" NCoef="0" IVar="-1" Cut="0.0000000000000000e+00" cType="1" res="-7.7337145805358887e-02" rms="1.2258278578519821e-01" purity="3.6760181188583374e-02" nType="-99"/>
          <Node pos="r" depth="2" NCoef="0" IVar="-1" Cut="0.0000000000000000e+00" cType="1" res="5.1341913640499115e-02" rms="9.8336786031723022e-03" purity="1.0000000000000000e+00" nType="-99"/>
        </Node>
        <Node pos="r" depth="1" NCoef="0" IVar="-1" Cut="0.0000000000000000e+00" cType="1" res="-2.1617433428764343e-01" rms="1.9594243168830872e-01" purity="5.2816212177276611e-02" nType="-99"/>
      </Node>
    </BinaryTree>
    <BinaryTree type="DecisionTree" boostWeight="1.0000000000000000e+00" itree="58">
      <Node pos="s" depth="0" NCoef="0" IVar="1" Cut="1.7513629198074341e+00" cType="1" res="-1.6042025387287140e-01" rms="1.9819845259189606e-01" purity="4.4302749633789062e-01" nType="0">
        <Node pos="l" depth="1" NCoef="0" IVar="6" Cut="2.9185684397816658e-03" cType="1" res="-3.1739276647567749e-01" rms="1.7488509416580200e-01" purity="1.2192735075950623e-01" nType="0">
          <Node pos="l" depth="2" NCoef="0" IVar="-1" Cut="0.0000000000000000e+00" cType="1" res="1.4431653916835785e-01" rms="2.4239729344844818e-01" purity="1.0000000000000000e+00" nType="-99"/>
          <Node pos="r" depth="2" NCoef="0" IVar="-1" Cut="0.0000000000000000e+00" cType="1" res="-7.7800460159778595e-02" rms="1.1259852349758148e-01" purity="5.1515605300664902e-02" nType="-99"/>
        </Node>
        <Node pos="r" depth="1" NCoef="0" IVar="11" Cut="9.5565274357795715e-02" cType="1" res="-1.7978658899664879e-02" rms="6.7277602851390839e-02" purity="7.3440343141555786e-01" nType="0">
          <Node pos="l" depth="2" NCoef="0" IVar="-1" Cut="0.0000000000000000e+00" cType="1" res="-4.6762559562921524e-02" rms="8.0144323408603668e-02" purity="1.0000169277191162e-01" nType="-99"/>
          <Node pos="r" depth="2" NCoef="0" IVar="-1" Cut="0.0000000000000000e+00" cType="1" res="5.8526802808046341e-02" rms="3.5281870514154434e-02" purity="1.0000000000000000e+00" nType="-99"/>
        </Node>
      </Node>
    </BinaryTree>
    <BinaryTree type="DecisionTree" boostWeight="1.0000000000000000e+00" itree="59">
      <Node pos="s" depth="0" NCoef="0" IVar="12" Cut="-1.7003165483474731e+00" cType="1" res="-1.0572055727243423e-01" rms="1.7209921777248383e-01" purity="6.2192070484161377e-01" nType="0">
        <Node pos="l" depth="1" NCoef="0" IVar="11" Cut="4.1355419158935547e-01" cType="1" res="-2.6132443547248840e-01" rms="1.3314926624298096e-01" purity="1.3639149069786072e-01" nType="0">
          <Node pos="l" depth="2" NCoef="0" IVar="-1" Cut="0.0000000000000000e+00" cType="1" res="-7.1276336908340454e-02" rms="8.0236859619617462e-02" purity="4.3452247977256775e-02" nType="-99"/>
          <Node pos="r" depth="2" NCoef="0" IVar="-1" Cut="0.0000000000000000e+00" cType="1" res="7.6729841530323029e-02" rms="1.2254287302494049e-01" purity="1.0000000000000000e+00" nType="-99"/>
        </Node>
        <Node pos="r" depth="1" NCoef="0" IVar="8" Cut="3.2764051109552383e-02" cType="1" res="1.5447431243956089e-02" rms="7.3078572750091553e-02" purity="1.0000000000000000e+00" nType="0">
          <Node pos="l" depth="2" NCoef="0" IVar="-1" Cut="0.0000000000000000e+00" cType="1" res="6.0266114771366119e-02" rms="3.7620857357978821e-02" purity="1.0000000000000000e+00" nType="-99"/>
          <Node pos="r" depth="2" NCoef="0" IVar="-1" Cut="0.0000000000000000e+00" cType="1" res="1.1950712651014328e-01" rms="2.4304173886775970e-01" purity="1.0000000000000000e+00" nType="-99"/>
        </Node>
      </Node>
    </BinaryTree>
    <BinaryTree type="DecisionTree" boostWeight="1.0000000000000000e+00" itree="60">
      <Node pos="s" depth="0" NCoef="0" IVar="1" Cut="1.7696313858032227e+00" cType="1" res="-1.0384377837181091e-01" rms="1.5812094509601593e-01" purity="5.9391999244689941e-01" nType="0">
        <Node pos="l" depth="1" NCoef="0" IVar="13" Cut="-5.8046168088912964e-01" cType="1" res="-2.4633172154426575e-01" rms="1.1370547860860825e-01" purity="1.0907029360532761e-01" nType="0">
          <Node pos="l" depth="2" NCoef="0" IVar="-1" Cut="0.0000000000000000e+00" cType="1" res="-6.8667769432067871e-02" rms="8.2214668393135071e-02" purity="2.6854047551751137e-02" nType="-99"/>
          <Node pos="r" depth="2" NCoef="0" IVar="-1" Cut="0.0000000000000000e+00" cType="1" res="6.6045708954334259e-02" rms="6.2409777194261551e-02" purity="1.0000000000000000e+00" nType="-99"/>
        </Node>
        <Node pos="r" depth="1" NCoef="0" IVar="8" Cut="1.6409918665885925e-02" cType="1" res="1.5495269559323788e-02" rms="6.2192410230636597e-02" purity="1.0000000000000000e+00" nType="0">
          <Node pos="l" depth="2" NCoef="0" IVar="-1" Cut="0.0000000000000000e+00" cType="1" res="5.4828152060508728e-02" rms="2.0982019603252411e-02" purity="1.0000000000000000e+00" nType="-99"/>
          <Node pos="r" depth="2" NCoef="0" IVar="-1" Cut="0.0000000000000000e+00" cType="1" res="7.5499661266803741e-02" rms="1.3823802769184113e-01" purity="1.0000000000000000e+00" nType="-99"/>
        </Node>
      </Node>
    </BinaryTree>
    <BinaryTree type="DecisionTree" boostWeight="1.0000000000000000e+00" itree="61">
      <Node pos="s" depth="0" NCoef="0" IVar="0" Cut="1.7826206684112549e+00" cType="1" res="-1.2521429359912872e-01" rms="1.6583380103111267e-01" purity="5.0182294845581055e-01" nType="0">
        <Node pos="l" depth="1" NCoef="0" IVar="1" Cut="1.4680258035659790e+00" cType="1" res="-2.8255975246429443e-01" rms="1.5429632365703583e-01" purity="1.2265171855688095e-01" nType="0">
          <Node pos="l" depth="2" NCoef="0" IVar="-1" Cut="0.0000000000000000e+00" cType="1" res="-7.4678577482700348e-02" rms="1.1442561447620392e-01" purity="4.6594753861427307e-02" nType="-99"/>
          <Node pos="r" depth="2" NCoef="0" IVar="-1" Cut="0.0000000000000000e+00" cType="1" res="7.5450830161571503e-02" rms="1.3175569474697113e-01" purity="1.0000000000000000e+00" nType="-99"/>
        </Node>
        <Node pos="r" depth="1" NCoef="0" IVar="11" Cut="9.5252029597759247e-02" cType="1" res="-2.9369881376624107e-02" rms="7.4052996933460236e-02" purity="7.3278886079788208e-01" nType="0">
          <Node pos="l" depth="2" NCoef="0" IVar="-1" Cut="0.0000000000000000e+00" cType="1" res="-4.9309659749269485e-02" rms="9.6132524311542511e-02" purity="8.0196909606456757e-02" nType="-99"/>
          <Node pos="r" depth="2" NCoef="0" IVar="-1" Cut="0.0000000000000000e+00" cType="1" res="5.1662296056747437e-02" rms="1.0613773949444294e-02" purity="1.0000000000000000e+00" nType="-99"/>
        </Node>
      </Node>
    </BinaryTree>
    <BinaryTree type="DecisionTree" boostWeight="1.0000000000000000e+00" itree="62">
      <Node pos="s" depth="0" NCoef="0" IVar="9" Cut="6.0967522859573364e-01" cType="1" res="-1.7216163873672485e-01" rms="2.3931336402893066e-01" purity="3.3214023709297180e-01" nType="0">
        <Node pos="l" depth="1" NCoef="0" IVar="7" Cut="8.7647943496704102e+00" cType="1" res="-9.8680987954139709e-02" rms="1.1277127265930176e-01" purity="3.5922235250473022e-01" nType="0">
          <Node pos="l" depth="2" NCoef="0" IVar="-1" Cut="0.0000000000000000e+00" cType="1" res="-5.7812135666608810e-02" rms="1.0165951400995255e-01" purity="2.8249830007553101e-02" nType="-99"/>
          <Node pos="r" depth="2" NCoef="0" IVar="-1" Cut="0.0000000000000000e+00" cType="1" res="5.4997179657220840e-02" rms="2.3436835035681725e-02" purity="1.0000000000000000e+00" nType="-99"/>
        </Node>
        <Node pos="r" depth="1" NCoef="0" IVar="-1" Cut="0.0000000000000000e+00" cType="1" res="-2.2311890125274658e-01" rms="2.8327235579490662e-01" purity="1.5319043397903442e-01" nType="-99"/>
      </Node>
    </BinaryTree>
    <BinaryTree type="DecisionTree" boostWeight="1.0000000000000000e+00" itree="63">
      <Node pos="s" depth="0" NCoef="0" IVar="10" Cut="9.9962520599365234e-01" cType="1" res="-1.4666864275932312e-01" rms="1.5996040403842926e-01" purity="4.8426276445388794e-01" nType="0">
        <Node pos="l" depth="1" NCoef="0" IVar="-1" Cut="0.0000000000000000e+00" cType="1" res="-6.9300524890422821e-02" rms="1.0034446418285370e-01" purity="3.3330548554658890e-02" nType="-99"/>
        <Node pos="r" depth="1" NCoef="0" IVar="6" Cut="9.9409380927681923e-03" cType="1" res="4.8898616805672646e-03" rms="1.6798144206404686e-02" purity="1.0000000000000000e+00" nType="0">
          <Node pos="l" depth="2" NCoef="0" IVar="-1" Cut="0.0000000000000000e+00" cType="1" res="5.1247566938400269e-02" rms="8.2755656912922859e-03" purity="1.0000000000000000e+00" nType="-99"/>
          <Node pos="r" depth="2" NCoef="0" IVar="-1" Cut="0.0000000000000000e+00" cType="1" res="5.7226419448852539e-02" rms="5.4436724632978439e-02" purity="1.0000000000000000e+00" nType="-99"/>
        </Node>
      </Node>
    </BinaryTree>
    <BinaryTree type="DecisionTree" boostWeight="1.0000000000000000e+00" itree="64">
      <Node pos="s" depth="0" NCoef="0" IVar="6" Cut="1.1081765405833721e-02" cType="1" res="-2.1181243658065796e-01" rms="2.7434730529785156e-01" purity="4.9474143981933594e-01" nType="0">
        <Node pos="l" depth="1" NCoef="0" IVar="1" Cut="1.8266859054565430e+00" cType="1" res="-1.1253569275140762e-01" rms="1.6907203197479248e-01" purity="5.8828592300415039e-01" nType="0">
          <Node pos="l" depth="2" NCoef="0" IVar="-1" Cut="0.0000000000000000e+00" cType="1" res="-6.8395547568798065e-02" rms="1.5964822471141815e-01" purity="1.5595589578151703e-01" nType="-99"/>
          <Node pos="r" depth="2" NCoef="0" IVar="-1" Cut="0.0000000000000000e+00" cType="1" res="7.6787464320659637e-02" rms="4.8288632184267044e-02" purity="1.0000000000000000e+00" nType="-99"/>
        </Node>
        <Node pos="r" depth="1" NCoef="0" IVar="-1" Cut="0.0000000000000000e+00" cType="1" res="-1.7133364081382751e-01" rms="2.0363403856754303e-01" purity="7.3914654552936554e-02" nType="-99"/>
      </Node>
    </BinaryTree>
    <BinaryTree type="DecisionTree" boostWeight="1.0000000000000000e+00" itree="65">
      <Node pos="s" depth="0" NCoef="0" IVar="7" Cut="1.0550607299804688e+02" cType="1" res="-1.5234054625034332e-01" rms="2.6598396897315979e-01" purity="6.0346853733062744e-01" nType="0">
        <Node pos="l" depth="1" NCoef="0" IVar="11" Cut="9.5250330865383148e-02" cType="1" res="-3.3242497593164444e-02" rms="1.2319730222225189e-01" purity="7.4042612314224243e-01" nType="0">
          <Node pos="l" depth="2" NCoef="0" IVar="-1" Cut="0.0000000000000000e+00" cType="1" res="-5.2976265549659729e-02" rms="1.2196147441864014e-01" purity="1.1765307933092117e-01" nType="-99"/>
          <Node pos="r" depth="2" NCoef="0" IVar="-1" Cut="0.0000000000000000e+00" cType="1" res="9.8358787596225739e-02" rms="8.5391037166118622e-02" purity="1.0000000000000000e+00" nType="-99"/>
        </Node>
        <Node pos="r" depth="1" NCoef="0" IVar="11" Cut="4.1508251428604126e-01" cType="1" res="-5.3749418258666992e-01" rms="2.3715350031852722e-01" purity="1.6055861115455627e-01" nType="0">
          <Node pos="l" depth="2" NCoef="0" IVar="-1" Cut="0.0000000000000000e+00" cType="1" res="-1.3884201645851135e-01" rms="1.2632718682289124e-01" purity="3.8316793739795685e-02" nType="-99"/>
          <Node pos="r" depth="2" NCoef="0" IVar="-1" Cut="0.0000000000000000e+00" cType="1" res="5.0318978726863861e-02" rms="2.7146185748279095e-03" purity="1.0000000000000000e+00" nType="-99"/>
        </Node>
      </Node>
    </BinaryTree>
    <BinaryTree type="DecisionTree" boostWeight="1.0000000000000000e+00" itree="66">
      <Node pos="s" depth="0" NCoef="0" IVar="7" Cut="1.0183552551269531e+02" cType="1" res="-1.5620253980159760e-01" rms="2.1228262782096863e-01" purity="4.3313649296760559e-01" nType="0">
        <Node pos="l" depth="1" NCoef="0" IVar="7" Cut="7.7291011810302734e+00" cType="1" res="-8.9483372867107391e-02" rms="1.3771501183509827e-01" purity="4.9181920289993286e-01" nType="0">
          <Node pos="l" depth="2" NCoef="0" IVar="-1" Cut="0.0000000000000000e+00" cType="1" res="-5.8751165866851807e-02" rms="1.3226474821567535e-01" purity="6.1745423823595047e-02" nType="-99"/>
          <Node pos="r" depth="2" NCoef="0" IVar="-1" Cut="0.0000000000000000e+00" cType="1" res="8.3847053349018097e-02" rms="5.6231118738651276e-02" purity="1.0000000000000000e+00" nType="-99"/>
        </Node>
        <Node pos="r" depth="1" NCoef="0" IVar="-1" Cut="0.0000000000000000e+00" cType="1" res="-1.1696441471576691e-01" rms="1.9798913598060608e-01" purity="1.3266888260841370e-01" nType="-99"/>
      </Node>
    </BinaryTree>
    <BinaryTree type="DecisionTree" boostWeight="1.0000000000000000e+00" itree="67">
      <Node pos="s" depth="0" NCoef="0" IVar="1" Cut="1.7547620534896851e+00" cType="1" res="-9.7735546529293060e-02" rms="1.6073529422283173e-01" purity="4.9607399106025696e-01" nType="0">
        <Node pos="l" depth="1" NCoef="0" IVar="1" Cut="1.4325501918792725e+00" cType="1" res="-2.1038433909416199e-01" rms="1.8966612219810486e-01" purity="1.7806424200534821e-01" nType="0">
          <Node pos="l" depth="2" NCoef="0" IVar="-1" Cut="0.0000000000000000e+00" cType="1" res="-6.8821027874946594e-02" rms="1.4152979850769043e-01" purity="8.0362163484096527e-02" nType="-99"/>
          <Node pos="r" depth="2" NCoef="0" IVar="-1" Cut="0.0000000000000000e+00" cType="1" res="1.2458769232034683e-01" rms="2.3295439779758453e-01" purity="1.0000000000000000e+00" nType="-99"/>
        </Node>
        <Node pos="r" depth="1" NCoef="0" IVar="8" Cut="3.2757353037595749e-02" cType="1" res="-1.9863957539200783e-02" rms="6.3181877136230469e-02" purity="7.1590703725814819e-01" nType="0">
          <Node pos="l" depth="2" NCoef="0" IVar="-1" Cut="0.0000000000000000e+00" cType="1" res="5.6089304387569427e-02" rms="2.0712403580546379e-02" purity="1.0000000000000000e+00" nType="-99"/>
          <Node pos="r" depth="2" NCoef="0" IVar="-1" Cut="0.0000000000000000e+00" cType="1" res="-4.5079052448272705e-02" rms="8.8220626115798950e-02" purity="9.2332914471626282e-02" nType="-99"/>
        </Node>
      </Node>
    </BinaryTree>
    <BinaryTree type="DecisionTree" boostWeight="1.0000000000000000e+00" itree="68">
      <Node pos="s" depth="0" NCoef="0" IVar="6" Cut="1.0560765862464905e-02" cType="1" res="-1.5919882059097290e-01" rms="1.8207016587257385e-01" purity="3.2505330443382263e-01" nType="0">
        <Node pos="l" depth="1" NCoef="0" IVar="1" Cut="1.7369043827056885e+00" cType="1" res="-1.1357703059911728e-01" rms="1.2153143435716629e-01" purity="3.5628697276115417e-01" nType="0">
          <Node pos="l" depth="2" NCoef="0" IVar="-1" Cut="0.0000000000000000e+00" cType="1" res="-6.7519232630729675e-02" rms="1.0801427811384201e-01" purity="9.3836165964603424e-02" nType="-99"/>
          <Node pos="r" depth="2" NCoef="0" IVar="-1" Cut="0.0000000000000000e+00" cType="1" res="-4.8166941851377487e-02" rms="5.1463887095451355e-02" purity="5.5124515295028687e-01" nType="-99"/>
        </Node>
        <Node pos="r" depth="1" NCoef="0" IVar="-1" Cut="0.0000000000000000e+00" cType="1" res="-1.0567079484462738e-01" rms="2.1503940224647522e-01" purity="1.0885737091302872e-01" nType="-99"/>
      </Node>
    </BinaryTree>
    <BinaryTree type="DecisionTree" boostWeight="1.0000000000000000e+00" itree="69">
      <Node pos="s" depth="0" NCoef="0" IVar="6" Cut="1.0650088079273701e-02" cType="1" res="-1.4199189841747284e-01" rms="1.6088855266571045e-01" purity="3.7016791105270386e-01" nType="0">
        <Node pos="l" depth="1" NCoef="0" IVar="10" Cut="9.9970769882202148e-01" cType="1" res="-9.3992128968238831e-02" rms="9.5004625618457794e-02" purity="4.1364353895187378e-01" nType="0">
          <Node pos="l" depth="2" NCoef="0" IVar="-1" Cut="0.0000000000000000e+00" cType="1" res="-5.8409240096807480e-02" rms="7.1507290005683899e-02" purity="5.1787264645099640e-02" nType="-99"/>
          <Node pos="r" depth="2" NCoef="0" IVar="-1" Cut="0.0000000000000000e+00" cType="1" res="5.2549157291650772e-02" rms="1.1767332442104816e-02" purity="1.0000000000000000e+00" nType="-99"/>
        </Node>
        <Node pos="r" depth="1" NCoef="0" IVar="-1" Cut="0.0000000000000000e+00" cType="1" res="-9.5254465937614441e-02" rms="1.6979612410068512e-01" purity="1.0461227595806122e-01" nType="-99"/>
      </Node>
    </BinaryTree>
    <BinaryTree type="DecisionTree" boostWeight="1.0000000000000000e+00" itree="70">
      <Node pos="s" depth="0" NCoef="0" IVar="6" Cut="1.0576521977782249e-02" cType="1" res="-1.0698201507329941e-01" rms="1.8560576438903809e-01" purity="5.8837896585464478e-01" nType="0">
        <Node pos="l" depth="1" NCoef="0" IVar="11" Cut="9.5941424369812012e-02" cType="1" res="-2.1434184163808823e-02" rms="7.7314622700214386e-02" purity="7.3275309801101685e-01" nType="0">
          <Node pos="l" depth="2" NCoef="0" IVar="-1" Cut="0.0000000000000000e+00" cType="1" res="-5.1986265927553177e-02" rms="4.9595728516578674e-02" purity="7.0169970393180847e-02" nType="-99"/>
          <Node pos="r" depth="2" NCoef="0" IVar="-1" Cut="0.0000000000000000e+00" cType="1" res="8.8290892541408539e-02" rms="6.3673295080661774e-02" purity="1.0000000000000000e+00" nType="-99"/>
        </Node>
        <Node pos="r" depth="1" NCoef="0" IVar="-1" Cut="0.0000000000000000e+00" cType="1" res="-8.7385527789592743e-02" rms="1.5226037800312042e-01" purity="1.0472821444272995e-01" nType="-99"/>
      </Node>
    </BinaryTree>
    <BinaryTree type="DecisionTree" boostWeight="1.0000000000000000e+00" itree="71">
      <Node pos="s" depth="0" NCoef="0" IVar="11" Cut="9.7341097891330719e-02" cType="1" res="-4.9416042864322662e-02" rms="8.7459407746791840e-02" purity="4.2915549874305725e-01" nType="0">
        <Node pos="l" depth="1" NCoef="0" IVar="-1" Cut="0.0000000000000000e+00" cType="1" res="-5.3715281188488007e-02" rms="4.0403246879577637e-02" purity="2.3639265447854996e-02" nType="-99"/>
        <Node pos="r" depth="1" NCoef="0" IVar="10" Cut="9.9968773126602173e-01" cType="1" res="1.6057455912232399e-02" rms="9.3738265335559845e-02" purity="1.0000000000000000e+00" nType="0">
