<?xml version="1.0"?>
<MethodSetup Method="BDT::BDTG">
  <GeneralInfo>
    <Info name="TMVA Release" value="4.2.1 [262657]"/>
    <Info name="ROOT Release" value="6.12/07 [396295]"/>
    <Info name="Creator" value="zzshi"/>
    <Info name="Date" value="Sat Jul  6 15:27:45 2019"/>
    <Info name="Host" value="Linux vocms0315.cern.ch 2.6.32-696.30.1.el6.x86_64 #1 SMP Tue May 22 06:09:36 CEST 2018 x86_64 x86_64 x86_64 GNU/Linux"/>
    <Info name="Dir" value="/export/d00/scratch/zzshi/CMSSW_10_3_2/src/JingTMVA/TMVA/BmesonRun2018/tmva/train"/>
    <Info name="Training events" value="6067"/>
    <Info name="TrainingTime" value="6.41427729e+01"/>
    <Info name="AnalysisType" value="Classification"/>
  </GeneralInfo>
  <Options>
    <Option name="V" modified="Yes">False</Option>
    <Option name="VerbosityLevel" modified="No">Default</Option>
    <Option name="VarTransform" modified="No">None</Option>
    <Option name="H" modified="Yes">False</Option>
    <Option name="CreateMVAPdfs" modified="No">False</Option>
    <Option name="IgnoreNegWeightsInTraining" modified="No">False</Option>
    <Option name="NTrees" modified="Yes">1000</Option>
    <Option name="MaxDepth" modified="Yes">4</Option>
    <Option name="MinNodeSize" modified="Yes">5.0%</Option>
    <Option name="nCuts" modified="Yes">35000</Option>
    <Option name="BoostType" modified="Yes">Grad</Option>
    <Option name="AdaBoostR2Loss" modified="No">quadratic</Option>
    <Option name="UseBaggedBoost" modified="Yes">True</Option>
    <Option name="Shrinkage" modified="Yes">1.000000e+00</Option>
    <Option name="AdaBoostBeta" modified="No">5.000000e-01</Option>
    <Option name="UseRandomisedTrees" modified="No">False</Option>
    <Option name="UseNvars" modified="No">4</Option>
    <Option name="UsePoissonNvars" modified="No">True</Option>
    <Option name="BaggedSampleFraction" modified="Yes">5.000000e-01</Option>
    <Option name="UseYesNoLeaf" modified="No">True</Option>
    <Option name="NegWeightTreatment" modified="No">pray</Option>
    <Option name="Css" modified="No">1.000000e+00</Option>
    <Option name="Cts_sb" modified="No">1.000000e+00</Option>
    <Option name="Ctb_ss" modified="No">1.000000e+00</Option>
    <Option name="Cbb" modified="No">1.000000e+00</Option>
    <Option name="NodePurityLimit" modified="No">5.000000e-01</Option>
    <Option name="SeparationType" modified="No">giniindex</Option>
    <Option name="RegressionLossFunctionBDTG" modified="No">huber</Option>
    <Option name="HuberQuantile" modified="No">7.000000e-01</Option>
    <Option name="DoBoostMonitor" modified="No">False</Option>
    <Option name="UseFisherCuts" modified="No">False</Option>
    <Option name="MinLinCorrForFisher" modified="No">8.000000e-01</Option>
    <Option name="UseExclusiveVars" modified="No">False</Option>
    <Option name="DoPreselection" modified="No">False</Option>
    <Option name="SigToBkgFraction" modified="No">1.000000e+00</Option>
    <Option name="PruneMethod" modified="No">nopruning</Option>
    <Option name="PruneStrength" modified="No">0.000000e+00</Option>
    <Option name="PruningValFraction" modified="No">5.000000e-01</Option>
    <Option name="SkipNormalization" modified="No">False</Option>
    <Option name="nEventsMin" modified="No">0</Option>
    <Option name="UseBaggedGrad" modified="No">False</Option>
    <Option name="GradBaggingFraction" modified="No">5.000000e-01</Option>
    <Option name="UseNTrainEvents" modified="No">0</Option>
    <Option name="NNodesMax" modified="No">0</Option>
  </Options>
  <Variables NVar="14">
    <Variable VarIndex="0" Expression="Btrk1Pt" Label="Btrk1Pt" Title="Btrk1Pt" Unit="" Internal="Btrk1Pt" Type="F" Min="1.00086164e+00" Max="1.78300934e+01"/>
    <Variable VarIndex="1" Expression="Btrk2Pt" Label="Btrk2Pt" Title="Btrk2Pt" Unit="" Internal="Btrk2Pt" Type="F" Min="1.00004661e+00" Max="1.88748302e+01"/>
    <Variable VarIndex="2" Expression="abs(Btrk1Dz1/Btrk1DzError1)" Label="Trk1DCAz" Title="Trk1DCAz" Unit="" Internal="Trk1DCAz" Type="F" Min="3.52803909e-04" Max="1.03137077e+02"/>
    <Variable VarIndex="3" Expression="abs(Btrk2Dz1/Btrk2DzError1)" Label="Trk2DCAz" Title="Trk2DCAz" Unit="" Internal="Trk2DCAz" Type="F" Min="1.43641315e-03" Max="8.54057312e+01"/>
    <Variable VarIndex="4" Expression="abs(Btrk1Dxy1/Btrk1DxyError1)" Label="Trk1DCAxy" Title="Trk1DCAxy" Unit="" Internal="Trk1DCAxy" Type="F" Min="2.19018082e-04" Max="1.11390892e+02"/>
    <Variable VarIndex="5" Expression="abs(Btrk2Dxy1/Btrk2DxyError1)" Label="Trk2DCAxy" Title="Trk2DCAxy" Unit="" Internal="Trk2DCAxy" Type="F" Min="1.56209717e-04" Max="1.33892090e+02"/>
    <Variable VarIndex="6" Expression="abs(Btktkmass-1.019455)" Label="MassDis" Title="MassDis" Unit="" Internal="MassDis" Type="F" Min="1.94473273e-07" Max="1.49901351e-02"/>
    <Variable VarIndex="7" Expression="BsvpvDistance/BsvpvDisErr" Label="dls" Title="dls" Unit="" Internal="dls" Type="F" Min="2.00223708e+00" Max="3.75979675e+02"/>
    <Variable VarIndex="8" Expression="Balpha" Label="Balpha" Title="Balpha" Unit="" Internal="Balpha" Type="F" Min="2.61219739e-05" Max="3.13767910e+00"/>
    <Variable VarIndex="9" Expression="Bd0" Label="dls2D" Title="dls2D" Unit="" Internal="dls2D" Type="F" Min="9.02295578e-05" Max="3.47416210e+00"/>
    <Variable VarIndex="10" Expression="cos(Bdtheta)" Label="cos(Bdtheta)" Title="cos(Bdtheta)" Unit="" Internal="cos_Bdtheta_" Type="F" Min="-9.99997795e-01" Max="1.00000000e+00"/>
    <Variable VarIndex="11" Expression="Bchi2cl" Label="Bchi2cl" Title="Bchi2cl" Unit="" Internal="Bchi2cl" Type="F" Min="5.00169806e-02" Max="9.99833286e-01"/>
    <Variable VarIndex="12" Expression="Btrk1Eta" Label="Btrk1Eta" Title="Btrk1Eta" Unit="" Internal="Btrk1Eta" Type="F" Min="-2.39535666e+00" Max="2.39289212e+00"/>
    <Variable VarIndex="13" Expression="Btrk2Eta" Label="Btrk2Eta" Title="Btrk2Eta" Unit="" Internal="Btrk2Eta" Type="F" Min="-2.38070536e+00" Max="2.39053583e+00"/>
  </Variables>
  <Spectators NSpec="0"/>
  <Classes NClass="2">
    <Class Name="Signal" Index="0"/>
    <Class Name="Background" Index="1"/>
  </Classes>
  <Transformations NTransformations="0"/>
  <MVAPdfs/>
  <Weights NTrees="1000" AnalysisType="1">
    <BinaryTree type="DecisionTree" boostWeight="1.0000000000000000e+00" itree="0">
      <Node pos="s" depth="0" NCoef="0" IVar="1" Cut="1.8774180412292480e+00" cType="1" res="1.2140001635998487e-03" rms="4.9999853968620300e-01" purity="5.0121402740478516e-01" nType="0">
        <Node pos="l" depth="1" NCoef="0" IVar="4" Cut="2.7580351829528809e+00" cType="1" res="-3.6644634604454041e-01" rms="3.4017211198806763e-01" purity="1.3355363905429840e-01" nType="0">
          <Node pos="l" depth="2" NCoef="0" IVar="6" Cut="5.1791253499686718e-03" cType="1" res="-4.5082807540893555e-01" rms="2.1622683107852936e-01" purity="4.9171924591064453e-02" nType="0">
            <Node pos="l" depth="3" NCoef="0" IVar="-1" Cut="0.0000000000000000e+00" cType="1" res="-7.4816888570785522e-01" rms="3.3175414800643921e-01" purity="1.2591555714607239e-01" nType="-99"/>
            <Node pos="r" depth="3" NCoef="0" IVar="-1" Cut="0.0000000000000000e+00" cType="1" res="-9.8727065324783325e-01" rms="7.9524703323841095e-02" purity="6.3646873459219933e-03" nType="-99"/>
          </Node>
          <Node pos="r" depth="2" NCoef="0" IVar="-1" Cut="0.0000000000000000e+00" cType="1" res="7.8605312108993530e-01" rms="3.0907946825027466e-01" purity="8.9302659034729004e-01" nType="-99"/>
        </Node>
        <Node pos="r" depth="1" NCoef="0" IVar="9" Cut="3.0289582908153534e-02" cType="1" res="4.5191898941993713e-01" rms="2.1393744647502899e-01" purity="9.5191901922225952e-01" nType="0">
          <Node pos="l" depth="2" NCoef="0" IVar="-1" Cut="0.0000000000000000e+00" cType="1" res="2.6072436571121216e-01" rms="4.8270663619041443e-01" purity="6.3036215305328369e-01" nType="-99"/>
          <Node pos="r" depth="2" NCoef="0" IVar="12" Cut="-1.3004814386367798e+00" cType="1" res="4.9504280090332031e-01" rms="7.0232614874839783e-02" purity="9.9504286050796509e-01" nType="0">
            <Node pos="l" depth="3" NCoef="0" IVar="-1" Cut="0.0000000000000000e+00" cType="1" res="9.2574697732925415e-01" rms="1.8907175958156586e-01" purity="9.6287351846694946e-01" nType="-99"/>
            <Node pos="r" depth="3" NCoef="0" IVar="1" Cut="3.0612678527832031e+00" cType="1" res="5.0000000000000000e-01" rms="4.1816278439910093e-08" purity="1.0000000000000000e+00" nType="0">
              <Node pos="l" depth="4" NCoef="0" IVar="-1" Cut="0.0000000000000000e+00" cType="1" res="1.0000000000000000e+00" rms="0.0000000000000000e+00" purity="1.0000000000000000e+00" nType="-99"/>
              <Node pos="r" depth="4" NCoef="0" IVar="-1" Cut="0.0000000000000000e+00" cType="1" res="1.0000000000000000e+00" rms="0.0000000000000000e+00" purity="1.0000000000000000e+00" nType="-99"/>
            </Node>
          </Node>
        </Node>
      </Node>
    </BinaryTree>
    <BinaryTree type="DecisionTree" boostWeight="1.0000000000000000e+00" itree="1">
      <Node pos="s" depth="0" NCoef="0" IVar="0" Cut="1.7446537017822266e+00" cType="1" res="-4.3743434362113476e-03" rms="2.4531315267086029e-01" purity="4.9893766641616821e-01" nType="0">
        <Node pos="l" depth="1" NCoef="0" IVar="3" Cut="2.3381075859069824e+00" cType="1" res="-1.3499011099338531e-01" rms="2.1955962479114532e-01" purity="1.0099991410970688e-01" nType="0">
          <Node pos="l" depth="2" NCoef="0" IVar="11" Cut="3.6096125841140747e-01" cType="1" res="-1.6409905254840851e-01" rms="1.8615685403347015e-01" purity="3.0377130955457687e-02" nType="0">
            <Node pos="l" depth="3" NCoef="0" IVar="-1" Cut="0.0000000000000000e+00" cType="1" res="-8.0695289373397827e-01" rms="2.0077815651893616e-01" purity="6.2034456059336662e-03" nType="-99"/>
            <Node pos="r" depth="3" NCoef="0" IVar="-1" Cut="0.0000000000000000e+00" cType="1" res="-4.8956170678138733e-01" rms="1.5371379256248474e-01" purity="6.1487149447202682e-02" nType="-99"/>
          </Node>
          <Node pos="r" depth="2" NCoef="0" IVar="-1" Cut="0.0000000000000000e+00" cType="1" res="4.9093955755233765e-01" rms="3.0602407455444336e-01" purity="7.4370050430297852e-01" nType="-99"/>
        </Node>
        <Node pos="r" depth="1" NCoef="0" IVar="6" Cut="4.4883885420858860e-03" cType="1" res="1.3803632557392120e-01" rms="1.8533721566200256e-01" purity="9.3281012773513794e-01" nType="0">
          <Node pos="l" depth="2" NCoef="0" IVar="7" Cut="9.0300035476684570e+00" cType="1" res="1.6726391017436981e-01" rms="1.6123905777931213e-01" purity="9.8784488439559937e-01" nType="0">
            <Node pos="l" depth="3" NCoef="0" IVar="-1" Cut="0.0000000000000000e+00" cType="1" res="7.9008138179779053e-01" rms="2.5895798206329346e-01" purity="9.5230835676193237e-01" nType="-99"/>
            <Node pos="r" depth="3" NCoef="0" IVar="1" Cut="2.6805222034454346e+00" cType="1" res="1.3679839670658112e-01" rms="9.1167688369750977e-02" purity="1.0000000000000000e+00" nType="0">
              <Node pos="l" depth="4" NCoef="0" IVar="-1" Cut="0.0000000000000000e+00" cType="1" res="7.9074496030807495e-01" rms="1.8366162478923798e-01" purity="1.0000000000000000e+00" nType="-99"/>
              <Node pos="r" depth="4" NCoef="0" IVar="-1" Cut="0.0000000000000000e+00" cType="1" res="5.6911957263946533e-01" rms="5.3924885578453541e-03" purity="1.0000000000000000e+00" nType="-99"/>
            </Node>
          </Node>
          <Node pos="r" depth="2" NCoef="0" IVar="3" Cut="1.3008739948272705e+00" cType="1" res="8.3680719137191772e-02" rms="2.1292936801910400e-01" purity="8.3045995235443115e-01" nType="0">
            <Node pos="l" depth="3" NCoef="0" IVar="-1" Cut="0.0000000000000000e+00" cType="1" res="-1.4107814431190491e-01" rms="3.0328094959259033e-01" purity="5.7034361362457275e-01" nType="-99"/>
            <Node pos="r" depth="3" NCoef="0" IVar="11" Cut="6.7278301715850830e-01" cType="1" res="1.3816717267036438e-01" rms="1.2008076906204224e-01" purity="9.5045036077499390e-01" nType="0">
              <Node pos="l" depth="4" NCoef="0" IVar="-1" Cut="0.0000000000000000e+00" cType="1" res="4.8530438542366028e-01" rms="8.4438264369964600e-02" purity="9.1046613454818726e-01" nType="-99"/>
              <Node pos="r" depth="4" NCoef="0" IVar="-1" Cut="0.0000000000000000e+00" cType="1" res="7.0844095945358276e-01" rms="1.4409799873828888e-01" purity="1.0000000000000000e+00" nType="-99"/>
            </Node>
          </Node>
        </Node>
      </Node>
    </BinaryTree>
    <BinaryTree type="DecisionTree" boostWeight="1.0000000000000000e+00" itree="2">
      <Node pos="s" depth="0" NCoef="0" IVar="7" Cut="7.5796842575073242e+00" cType="1" res="2.7703968808054924e-03" rms="1.7790135741233826e-01" purity="5.0974744558334351e-01" nType="0">
        <Node pos="l" depth="1" NCoef="0" IVar="0" Cut="2.2427997589111328e+00" cType="1" res="-4.9769025295972824e-02" rms="1.9725954532623291e-01" purity="1.4553663134574890e-01" nType="0">
          <Node pos="l" depth="2" NCoef="0" IVar="1" Cut="1.3289248943328857e+00" cType="1" res="-6.6733926534652710e-02" rms="1.9692510366439819e-01" purity="5.1818776875734329e-02" nType="0">
            <Node pos="l" depth="3" NCoef="0" IVar="-1" Cut="0.0000000000000000e+00" cType="1" res="-3.5512495040893555e-01" rms="1.3933153450489044e-01" purity="2.0891677588224411e-02" nType="-99"/>
            <Node pos="r" depth="3" NCoef="0" IVar="-1" Cut="0.0000000000000000e+00" cType="1" res="-6.3347190618515015e-01" rms="2.5385075807571411e-01" purity="9.9435143172740936e-02" nType="-99"/>
          </Node>
          <Node pos="r" depth="2" NCoef="0" IVar="-1" Cut="0.0000000000000000e+00" cType="1" res="4.8768761754035950e-01" rms="1.3670240342617035e-01" purity="9.0615296363830566e-01" nType="-99"/>
        </Node>
        <Node pos="r" depth="1" NCoef="0" IVar="1" Cut="1.8110976219177246e+00" cType="1" res="7.0310242474079132e-02" rms="1.1917566508054733e-01" purity="9.7794336080551147e-01" nType="0">
          <Node pos="l" depth="2" NCoef="0" IVar="-1" Cut="0.0000000000000000e+00" cType="1" res="7.9136705398559570e-01" rms="2.6410248875617981e-01" purity="8.5263383388519287e-01" nType="-99"/>
          <Node pos="r" depth="2" NCoef="0" IVar="3" Cut="1.0798001289367676e+00" cType="1" res="4.7393284738063812e-02" rms="3.0276330187916756e-02" purity="1.0000000000000000e+00" nType="0">
            <Node pos="l" depth="3" NCoef="0" IVar="-1" Cut="0.0000000000000000e+00" cType="1" res="5.6984889507293701e-01" rms="5.9482373297214508e-02" purity="1.0000000000000000e+00" nType="-99"/>
            <Node pos="r" depth="3" NCoef="0" IVar="11" Cut="7.0797663927078247e-01" cType="1" res="4.2343027889728546e-02" rms="1.6865473240613937e-02" purity="1.0000000000000000e+00" nType="0">
              <Node pos="l" depth="4" NCoef="0" IVar="-1" Cut="0.0000000000000000e+00" cType="1" res="5.2737677097320557e-01" rms="1.7788132652640343e-02" purity="1.0000000000000000e+00" nType="-99"/>
              <Node pos="r" depth="4" NCoef="0" IVar="-1" Cut="0.0000000000000000e+00" cType="1" res="5.2236503362655640e-01" rms="1.3872779905796051e-02" purity="1.0000000000000000e+00" nType="-99"/>
            </Node>
          </Node>
        </Node>
      </Node>
    </BinaryTree>
    <BinaryTree type="DecisionTree" boostWeight="1.0000000000000000e+00" itree="3">
      <Node pos="s" depth="0" NCoef="0" IVar="8" Cut="8.2913182675838470e-02" cType="1" res="-5.5172396823763847e-03" rms="1.5118254721164703e-01" purity="4.9706491827964783e-01" nType="0">
        <Node pos="l" depth="1" NCoef="0" IVar="11" Cut="9.8619051277637482e-02" cType="1" res="1.6830975189805031e-02" rms="1.4992088079452515e-01" purity="6.6162467002868652e-01" nType="0">
          <Node pos="l" depth="2" NCoef="0" IVar="-1" Cut="0.0000000000000000e+00" cType="1" res="-6.2440878152847290e-01" rms="1.7674547433853149e-01" purity="2.9176878929138184e-01" nType="-99"/>
          <Node pos="r" depth="2" NCoef="0" IVar="12" Cut="-1.8290116786956787e+00" cType="1" res="2.5168193504214287e-02" rms="1.4432290196418762e-01" purity="6.9976311922073364e-01" nType="0">
            <Node pos="l" depth="3" NCoef="0" IVar="-1" Cut="0.0000000000000000e+00" cType="1" res="1.2735847234725952e+00" rms="2.7850532531738281e-01" purity="7.2521817684173584e-01" nType="-99"/>
            <Node pos="r" depth="3" NCoef="0" IVar="0" Cut="1.4053157567977905e+00" cType="1" res="1.7499633133411407e-02" rms="1.2342011928558350e-01" purity="6.9758719205856323e-01" nType="0">
              <Node pos="l" depth="4" NCoef="0" IVar="-1" Cut="0.0000000000000000e+00" cType="1" res="-3.7027922272682190e-01" rms="1.1679062247276306e-01" purity="9.6457108855247498e-02" nType="-99"/>
              <Node pos="r" depth="4" NCoef="0" IVar="-1" Cut="0.0000000000000000e+00" cType="1" res="5.2449625730514526e-01" rms="1.2166956812143326e-01" purity="8.9818853139877319e-01" nType="-99"/>
            </Node>
          </Node>
        </Node>
        <Node pos="r" depth="1" NCoef="0" IVar="-1" Cut="0.0000000000000000e+00" cType="1" res="-6.4452809095382690e-01" rms="1.3582736253738403e-01" purity="2.7534730732440948e-02" nType="-99"/>
      </Node>
    </BinaryTree>
    <BinaryTree type="DecisionTree" boostWeight="1.0000000000000000e+00" itree="4">
      <Node pos="s" depth="0" NCoef="0" IVar="5" Cut="1.4959987401962280e+00" cType="1" res="-8.9502865448594093e-03" rms="1.7230668663978577e-01" purity="4.8620483279228210e-01" nType="0">
        <Node pos="l" depth="1" NCoef="0" IVar="12" Cut="-5.4400241374969482e-01" cType="1" res="-3.7965413182973862e-02" rms="1.8560601770877838e-01" purity="2.1954876184463501e-01" nType="0">
          <Node pos="l" depth="2" NCoef="0" IVar="-1" Cut="0.0000000000000000e+00" cType="1" res="-8.6537808179855347e-01" rms="2.5965443253517151e-01" purity="1.9608557224273682e-01" nType="-99"/>
          <Node pos="r" depth="2" NCoef="0" IVar="11" Cut="4.7605091333389282e-01" cType="1" res="-5.5833752267062664e-03" rms="1.1673364788293839e-01" purity="2.3224136233329773e-01" nType="0">
            <Node pos="l" depth="3" NCoef="0" IVar="-1" Cut="0.0000000000000000e+00" cType="1" res="-4.0188157558441162e-01" rms="8.2392446696758270e-02" purity="1.4189529418945312e-01" nType="-99"/>
            <Node pos="r" depth="3" NCoef="0" IVar="12" Cut="6.7873746156692505e-01" cType="1" res="2.3802511394023895e-02" rms="1.5710213780403137e-01" purity="3.9599373936653137e-01" nType="0">
              <Node pos="l" depth="4" NCoef="0" IVar="-1" Cut="0.0000000000000000e+00" cType="1" res="2.2656179964542389e-01" rms="1.5115442872047424e-01" purity="3.2564938068389893e-01" nType="-99"/>
              <Node pos="r" depth="4" NCoef="0" IVar="-1" Cut="0.0000000000000000e+00" cType="1" res="8.6096763610839844e-01" rms="1.6328978538513184e-01" purity="5.0355076789855957e-01" nType="-99"/>
            </Node>
          </Node>
        </Node>
        <Node pos="r" depth="1" NCoef="0" IVar="1" Cut="1.8890829086303711e+00" cType="1" res="2.5968616828322411e-02" rms="1.4740610122680664e-01" purity="8.0711799860000610e-01" nType="0">
          <Node pos="l" depth="2" NCoef="0" IVar="-1" Cut="0.0000000000000000e+00" cType="1" res="9.0243375301361084e-01" rms="2.2630855441093445e-01" purity="4.1633927822113037e-01" nType="-99"/>
          <Node pos="r" depth="2" NCoef="0" IVar="8" Cut="1.8681423738598824e-02" cType="1" res="3.5808975808322430e-03" rms="8.7835960090160370e-02" purity="9.7028082609176636e-01" nType="0">
            <Node pos="l" depth="3" NCoef="0" IVar="11" Cut="2.5501152873039246e-01" cType="1" res="1.1984718032181263e-02" rms="3.7751190364360809e-02" purity="1.0000000000000000e+00" nType="0">
              <Node pos="l" depth="4" NCoef="0" IVar="-1" Cut="0.0000000000000000e+00" cType="1" res="6.4177644252777100e-01" rms="8.1471703946590424e-02" purity="1.0000000000000000e+00" nType="-99"/>
              <Node pos="r" depth="4" NCoef="0" IVar="-1" Cut="0.0000000000000000e+00" cType="1" res="5.1003170013427734e-01" rms="9.2784510925412178e-03" purity="1.0000000000000000e+00" nType="-99"/>
            </Node>
            <Node pos="r" depth="3" NCoef="0" IVar="-1" Cut="0.0000000000000000e+00" cType="1" res="-4.0313789248466492e-01" rms="1.9836060702800751e-01" purity="8.0921685695648193e-01" nType="-99"/>
          </Node>
        </Node>
      </Node>
    </BinaryTree>
    <BinaryTree type="DecisionTree" boostWeight="1.0000000000000000e+00" itree="5">
      <Node pos="s" depth="0" NCoef="0" IVar="11" Cut="5.7637482881546021e-01" cType="1" res="4.3650758452713490e-03" rms="1.6986180841922760e-01" purity="4.9962440133094788e-01" nType="0">
        <Node pos="l" depth="1" NCoef="0" IVar="0" Cut="2.6134293079376221e+00" cType="1" res="-1.4359387569129467e-02" rms="1.5319240093231201e-01" purity="3.9410290122032166e-01" nType="0">
          <Node pos="l" depth="2" NCoef="0" IVar="1" Cut="1.9543082714080811e+00" cType="1" res="-3.0698325484991074e-02" rms="1.7140896618366241e-01" purity="1.6129215061664581e-01" nType="0">
            <Node pos="l" depth="3" NCoef="0" IVar="7" Cut="4.6750259399414062e+00" cType="1" res="-1.8891131505370140e-02" rms="1.4669740200042725e-01" purity="9.5711849629878998e-02" nType="0">
              <Node pos="l" depth="4" NCoef="0" IVar="-1" Cut="0.0000000000000000e+00" cType="1" res="-2.0155538618564606e-01" rms="7.2339698672294617e-02" purity="8.1694377586245537e-03" nType="-99"/>
              <Node pos="r" depth="4" NCoef="0" IVar="-1" Cut="0.0000000000000000e+00" cType="1" res="-5.8597058057785034e-01" rms="2.5248768925666809e-01" purity="3.3528220653533936e-01" nType="-99"/>
            </Node>
            <Node pos="r" depth="3" NCoef="0" IVar="-1" Cut="0.0000000000000000e+00" cType="1" res="-8.9268118143081665e-01" rms="2.6839751005172729e-01" purity="5.6944280862808228e-01" nType="-99"/>
          </Node>
          <Node pos="r" depth="2" NCoef="0" IVar="5" Cut="2.1730661392211914e+00" cType="1" res="2.8163200244307518e-02" rms="7.4671782553195953e-02" purity="1.0000000000000000e+00" nType="0">
            <Node pos="l" depth="3" NCoef="0" IVar="-1" Cut="0.0000000000000000e+00" cType="1" res="6.6623318195343018e-01" rms="1.1428138613700867e-01" purity="1.0000000000000000e+00" nType="-99"/>
            <Node pos="r" depth="3" NCoef="0" IVar="2" Cut="4.8736934661865234e+00" cType="1" res="4.2798123322427273e-03" rms="7.3455926030874252e-03" purity="1.0000000000000000e+00" nType="0">
              <Node pos="l" depth="4" NCoef="0" IVar="-1" Cut="0.0000000000000000e+00" cType="1" res="5.1125293970108032e-01" rms="9.7362399101257324e-03" purity="1.0000000000000000e+00" nType="-99"/>
              <Node pos="r" depth="4" NCoef="0" IVar="-1" Cut="0.0000000000000000e+00" cType="1" res="5.0422477722167969e-01" rms="4.0017748251557350e-03" purity="1.0000000000000000e+00" nType="-99"/>
            </Node>
          </Node>
        </Node>
        <Node pos="r" depth="1" NCoef="0" IVar="12" Cut="-3.8229840993881226e-01" cType="1" res="3.1981140375137329e-02" rms="1.8845590949058533e-01" purity="6.5525448322296143e-01" nType="0">
          <Node pos="l" depth="2" NCoef="0" IVar="5" Cut="1.4495635032653809e+00" cType="1" res="8.5473522543907166e-02" rms="2.4703183770179749e-01" purity="6.4799648523330688e-01" nType="0">
            <Node pos="l" depth="3" NCoef="0" IVar="-1" Cut="0.0000000000000000e+00" cType="1" res="1.8259334564208984e+00" rms="3.3223047852516174e-01" purity="4.3145945668220520e-01" nType="-99"/>
            <Node pos="r" depth="3" NCoef="0" IVar="-1" Cut="0.0000000000000000e+00" cType="1" res="4.0163689851760864e-01" rms="1.1011689901351929e-01" purity="8.2536387443542480e-01" nType="-99"/>
          </Node>
          <Node pos="r" depth="2" NCoef="0" IVar="10" Cut="9.9982857704162598e-01" cType="1" res="-7.5983894057571888e-03" rms="1.1383084207773209e-01" purity="6.6062468290328979e-01" nType="0">
            <Node pos="l" depth="3" NCoef="0" IVar="-1" Cut="0.0000000000000000e+00" cType="1" res="-3.9139622449874878e-01" rms="1.4089982211589813e-01" purity="2.5892546772956848e-01" nType="-99"/>
            <Node pos="r" depth="3" NCoef="0" IVar="0" Cut="2.5427062511444092e+00" cType="1" res="9.6534779295325279e-03" rms="8.6801096796989441e-02" purity="9.3371033668518066e-01" nType="0">
              <Node pos="l" depth="4" NCoef="0" IVar="-1" Cut="0.0000000000000000e+00" cType="1" res="6.4267712831497192e-01" rms="1.4433595538139343e-01" purity="8.1434816122055054e-01" nType="-99"/>
              <Node pos="r" depth="4" NCoef="0" IVar="-1" Cut="0.0000000000000000e+00" cType="1" res="5.0514215230941772e-01" rms="4.5935343950986862e-03" purity="1.0000000000000000e+00" nType="-99"/>
            </Node>
          </Node>
        </Node>
      </Node>
    </BinaryTree>
    <BinaryTree type="DecisionTree" boostWeight="1.0000000000000000e+00" itree="6">
      <Node pos="s" depth="0" NCoef="0" IVar="3" Cut="1.0334378480911255e+00" cType="1" res="3.0118399299681187e-03" rms="1.3840976357460022e-01" purity="5.2572685480117798e-01" nType="0">
        <Node pos="l" depth="1" NCoef="0" IVar="7" Cut="8.8153800964355469e+00" cType="1" res="-1.7648871988058090e-02" rms="1.4809103310108185e-01" purity="2.3078826069831848e-01" nType="0">
          <Node pos="l" depth="2" NCoef="0" IVar="0" Cut="1.7040662765502930e+00" cType="1" res="-5.1612313836812973e-03" rms="1.1591645330190659e-01" purity="1.4161302149295807e-01" nType="0">
            <Node pos="l" depth="3" NCoef="0" IVar="-1" Cut="0.0000000000000000e+00" cType="1" res="-3.9085298776626587e-01" rms="1.0547367483377457e-01" purity="1.5566331334412098e-02" nType="-99"/>
            <Node pos="r" depth="3" NCoef="0" IVar="-1" Cut="0.0000000000000000e+00" cType="1" res="4.8326539993286133e-01" rms="1.4411184191703796e-01" purity="6.4791136980056763e-01" nType="-99"/>
          </Node>
          <Node pos="r" depth="2" NCoef="0" IVar="-1" Cut="0.0000000000000000e+00" cType="1" res="-8.4453266859054565e-01" rms="2.5224459171295166e-01" purity="7.2870534658432007e-01" nType="-99"/>
        </Node>
        <Node pos="r" depth="1" NCoef="0" IVar="11" Cut="1.4761729538440704e-01" cType="1" res="1.9548529759049416e-02" rms="1.2775798141956329e-01" purity="7.6179367303848267e-01" nType="0">
          <Node pos="l" depth="2" NCoef="0" IVar="-1" Cut="0.0000000000000000e+00" cType="1" res="1.1307214498519897e+00" rms="2.1605212986469269e-01" purity="5.2121710777282715e-01" nType="-99"/>
          <Node pos="r" depth="2" NCoef="0" IVar="6" Cut="9.6334218978881836e-03" cType="1" res="1.0510421358048916e-02" rms="1.0149583220481873e-01" purity="8.0527919530868530e-01" nType="0">
            <Node pos="l" depth="3" NCoef="0" IVar="9" Cut="4.7511976212263107e-02" cType="1" res="1.5923729166388512e-02" rms="1.0138914734125137e-01" purity="8.4812903404235840e-01" nType="0">
              <Node pos="l" depth="4" NCoef="0" IVar="-1" Cut="0.0000000000000000e+00" cType="1" res="6.1626565456390381e-01" rms="2.0158678293228149e-01" purity="4.2427536845207214e-01" nType="-99"/>
              <Node pos="r" depth="4" NCoef="0" IVar="-1" Cut="0.0000000000000000e+00" cType="1" res="5.4124557971954346e-01" rms="4.0959816426038742e-02" purity="9.6266269683837891e-01" nType="-99"/>
            </Node>
            <Node pos="r" depth="3" NCoef="0" IVar="-1" Cut="0.0000000000000000e+00" cType="1" res="-5.6122100353240967e-01" rms="9.2553056776523590e-02" purity="4.8108565807342529e-01" nType="-99"/>
          </Node>
        </Node>
      </Node>
    </BinaryTree>
    <BinaryTree type="DecisionTree" boostWeight="1.0000000000000000e+00" itree="7">
      <Node pos="s" depth="0" NCoef="0" IVar="7" Cut="5.0715665817260742e+00" cType="1" res="-1.1560748331248760e-02" rms="1.1292796581983566e-01" purity="5.0191462039947510e-01" nType="0">
        <Node pos="l" depth="1" NCoef="0" IVar="3" Cut="1.0440347194671631e+00" cType="1" res="-3.4168481826782227e-02" rms="1.4622765779495239e-01" purity="8.1948943436145782e-02" nType="0">
          <Node pos="l" depth="2" NCoef="0" IVar="9" Cut="2.3104265332221985e-02" cType="1" res="-1.4641388319432735e-02" rms="9.3135491013526917e-02" purity="7.1093894541263580e-02" nType="0">
            <Node pos="l" depth="3" NCoef="0" IVar="-1" Cut="0.0000000000000000e+00" cType="1" res="-5.4904127120971680e-01" rms="9.1261789202690125e-02" purity="5.2603840827941895e-02" nType="-99"/>
            <Node pos="r" depth="3" NCoef="0" IVar="-1" Cut="0.0000000000000000e+00" cType="1" res="9.2355698347091675e-02" rms="9.3185164034366608e-02" purity="9.7908958792686462e-02" nType="-99"/>
          </Node>
          <Node pos="r" depth="2" NCoef="0" IVar="-1" Cut="0.0000000000000000e+00" cType="1" res="-7.1838730573654175e-01" rms="2.1969307959079742e-01" purity="1.0747876018285751e-01" nType="-99"/>
        </Node>
        <Node pos="r" depth="1" NCoef="0" IVar="11" Cut="1.4760103821754456e-01" cType="1" res="9.3233911320567131e-03" rms="6.2229905277490616e-02" purity="8.8986241817474365e-01" nType="0">
          <Node pos="l" depth="2" NCoef="0" IVar="-1" Cut="0.0000000000000000e+00" cType="1" res="7.2485148906707764e-01" rms="1.2128565460443497e-01" purity="7.5136935710906982e-01" nType="-99"/>
          <Node pos="r" depth="2" NCoef="0" IVar="3" Cut="9.9121791124343872e-01" cType="1" res="5.4800333455204964e-03" rms="4.5830417424440384e-02" purity="9.1108793020248413e-01" nType="0">
            <Node pos="l" depth="3" NCoef="0" IVar="-1" Cut="0.0000000000000000e+00" cType="1" res="4.1301950812339783e-01" rms="8.9573018252849579e-02" purity="7.2696524858474731e-01" nType="-99"/>
            <Node pos="r" depth="3" NCoef="0" IVar="0" Cut="2.5935249328613281e+00" cType="1" res="2.7882661670446396e-03" rms="2.8980597853660583e-02" purity="9.4895362854003906e-01" nType="0">
              <Node pos="l" depth="4" NCoef="0" IVar="-1" Cut="0.0000000000000000e+00" cType="1" res="2.9048925638198853e-01" rms="5.0216719508171082e-02" purity="8.4472125768661499e-01" nType="-99"/>
              <Node pos="r" depth="4" NCoef="0" IVar="-1" Cut="0.0000000000000000e+00" cType="1" res="5.0252354145050049e-01" rms="1.7479077214375138e-03" purity="1.0000000000000000e+00" nType="-99"/>
            </Node>
          </Node>
        </Node>
      </Node>
    </BinaryTree>
    <BinaryTree type="DecisionTree" boostWeight="1.0000000000000000e+00" itree="8">
      <Node pos="s" depth="0" NCoef="0" IVar="11" Cut="1.1047609150409698e-01" cType="1" res="-1.5286388806998730e-02" rms="1.2374282628297806e-01" purity="4.8768752813339233e-01" nType="0">
        <Node pos="l" depth="1" NCoef="0" IVar="-1" Cut="0.0000000000000000e+00" cType="1" res="-1.0796698331832886e+00" rms="1.9940702617168427e-01" purity="2.0514027774333954e-01" nType="-99"/>
        <Node pos="r" depth="1" NCoef="0" IVar="12" Cut="-1.8960047960281372e+00" cType="1" res="-5.1887608133256435e-03" rms="1.0080587863922119e-01" purity="5.3961557149887085e-01" nType="0">
          <Node pos="l" depth="2" NCoef="0" IVar="-1" Cut="0.0000000000000000e+00" cType="1" res="-5.8227139711380005e-01" rms="1.3156266510486603e-01" purity="4.7274500131607056e-01" nType="-99"/>
          <Node pos="r" depth="2" NCoef="0" IVar="6" Cut="6.9851870648562908e-04" cType="1" res="-7.5342529453337193e-04" rms="9.6794299781322479e-02" purity="5.4410928487777710e-01" nType="0">
            <Node pos="l" depth="3" NCoef="0" IVar="-1" Cut="0.0000000000000000e+00" cType="1" res="1.2079620361328125e+00" rms="1.4686344563961029e-01" purity="8.0396640300750732e-01" nType="-99"/>
            <Node pos="r" depth="3" NCoef="0" IVar="1" Cut="2.1423015594482422e+00" cType="1" res="-4.7418745234608650e-03" rms="8.8896796107292175e-02" purity="5.1638758182525635e-01" nType="0">
              <Node pos="l" depth="4" NCoef="0" IVar="-1" Cut="0.0000000000000000e+00" cType="1" res="-3.3044719696044922e-01" rms="1.0142611712217331e-01" purity="1.6150134801864624e-01" nType="-99"/>
              <Node pos="r" depth="4" NCoef="0" IVar="-1" Cut="0.0000000000000000e+00" cType="1" res="8.2168179750442505e-01" rms="6.5889120101928711e-02" purity="9.9386870861053467e-01" nType="-99"/>
            </Node>
          </Node>
        </Node>
      </Node>
    </BinaryTree>
    <BinaryTree type="DecisionTree" boostWeight="1.0000000000000000e+00" itree="9">
      <Node pos="s" depth="0" NCoef="0" IVar="6" Cut="4.2234393768012524e-03" cType="1" res="-2.6092764455825090e-03" rms="8.9314348995685577e-02" purity="5.0577747821807861e-01" nType="0">
        <Node pos="l" depth="1" NCoef="0" IVar="9" Cut="2.8786102309823036e-02" cType="1" res="9.3972198665142059e-03" rms="8.1061415374279022e-02" purity="7.1519654989242554e-01" nType="0">
          <Node pos="l" depth="2" NCoef="0" IVar="-1" Cut="0.0000000000000000e+00" cType="1" res="6.1293298006057739e-01" rms="1.4183448255062103e-01" purity="2.3872587084770203e-01" nType="-99"/>
          <Node pos="r" depth="2" NCoef="0" IVar="11" Cut="1.3611879944801331e-01" cType="1" res="4.2121256701648235e-03" rms="4.5191723853349686e-02" purity="8.7064391374588013e-01" nType="0">
            <Node pos="l" depth="3" NCoef="0" IVar="-1" Cut="0.0000000000000000e+00" cType="1" res="6.2790220975875854e-01" rms="8.6718820035457611e-02" purity="6.2198001146316528e-01" nType="-99"/>
            <Node pos="r" depth="3" NCoef="0" IVar="3" Cut="6.9246363639831543e-01" cType="1" res="1.3435538858175278e-03" rms="3.3368740230798721e-02" purity="9.1007804870605469e-01" nType="0">
              <Node pos="l" depth="4" NCoef="0" IVar="-1" Cut="0.0000000000000000e+00" cType="1" res="-2.9049366712570190e-01" rms="4.0485844016075134e-02" purity="5.1950150728225708e-01" nType="-99"/>
              <Node pos="r" depth="4" NCoef="0" IVar="-1" Cut="0.0000000000000000e+00" cType="1" res="6.5162569284439087e-01" rms="3.1550254672765732e-02" purity="9.8568940162658691e-01" nType="-99"/>
            </Node>
          </Node>
        </Node>
        <Node pos="r" depth="1" NCoef="0" IVar="4" Cut="1.9113878011703491e+00" cType="1" res="-1.4843247830867767e-02" rms="9.5463261008262634e-02" purity="2.9239079356193542e-01" nType="0">
          <Node pos="l" depth="2" NCoef="0" IVar="1" Cut="1.6966551542282104e+00" cType="1" res="-2.2480459883809090e-02" rms="1.0222341120243073e-01" purity="1.1097206920385361e-01" nType="0">
            <Node pos="l" depth="3" NCoef="0" IVar="-1" Cut="0.0000000000000000e+00" cType="1" res="-4.3256321549415588e-01" rms="3.3921454101800919e-02" purity="5.9320172294974327e-03" nType="-99"/>
            <Node pos="r" depth="3" NCoef="0" IVar="-1" Cut="0.0000000000000000e+00" cType="1" res="-9.3234413862228394e-01" rms="2.1600471436977386e-01" purity="5.7067501544952393e-01" nType="-99"/>
          </Node>
          <Node pos="r" depth="2" NCoef="0" IVar="3" Cut="1.9087827205657959e+00" cType="1" res="7.6762060634791851e-03" rms="6.7034147679805756e-02" purity="8.2733088731765747e-01" nType="0">
            <Node pos="l" depth="3" NCoef="0" IVar="-1" Cut="0.0000000000000000e+00" cType="1" res="6.5144127607345581e-01" rms="1.0251227766275406e-01" purity="5.8968710899353027e-01" nType="-99"/>
            <Node pos="r" depth="3" NCoef="0" IVar="-1" Cut="0.0000000000000000e+00" cType="1" res="5.0724208354949951e-01" rms="3.2956432551145554e-03" purity="1.0000000000000000e+00" nType="-99"/>
          </Node>
        </Node>
      </Node>
    </BinaryTree>
    <BinaryTree type="DecisionTree" boostWeight="1.0000000000000000e+00" itree="10">
      <Node pos="s" depth="0" NCoef="0" IVar="11" Cut="6.1082679033279419e-01" cType="1" res="-2.0156863611191511e-03" rms="1.2091194838285446e-01" purity="4.8594209551811218e-01" nType="0">
        <Node pos="l" depth="1" NCoef="0" IVar="2" Cut="8.3197438716888428e-01" cType="1" res="1.0475086979568005e-02" rms="1.2335366755723953e-01" purity="4.0132963657379150e-01" nType="0">
          <Node pos="l" depth="2" NCoef="0" IVar="4" Cut="1.5565626621246338e+00" cType="1" res="-4.0546585805714130e-03" rms="8.9484930038452148e-02" purity="1.5688459575176239e-01" nType="0">
            <Node pos="l" depth="3" NCoef="0" IVar="-1" Cut="0.0000000000000000e+00" cType="1" res="7.4758969247341156e-02" rms="8.2736641168594360e-02" purity="5.8334466069936752e-02" nType="-99"/>
            <Node pos="r" depth="3" NCoef="0" IVar="-1" Cut="0.0000000000000000e+00" cType="1" res="-3.9002028107643127e-01" rms="1.1313106119632721e-01" purity="6.3138598203659058e-01" nType="-99"/>
          </Node>
          <Node pos="r" depth="2" NCoef="0" IVar="4" Cut="2.5427346229553223e+00" cType="1" res="2.2349165752530098e-02" rms="1.4419999718666077e-01" purity="6.0109633207321167e-01" nType="0">
            <Node pos="l" depth="3" NCoef="0" IVar="5" Cut="1.2597702741622925e+00" cType="1" res="4.1938189417123795e-02" rms="1.8348436057567596e-01" purity="3.3942669630050659e-01" nType="0">
              <Node pos="l" depth="4" NCoef="0" IVar="-1" Cut="0.0000000000000000e+00" cType="1" res="5.3169822692871094e-01" rms="1.1662568897008896e-01" purity="1.9754736125469208e-01" nType="-99"/>
              <Node pos="r" depth="4" NCoef="0" IVar="-1" Cut="0.0000000000000000e+00" cType="1" res="2.7192351818084717e+00" rms="2.9008510708808899e-01" purity="7.4995142221450806e-01" nType="-99"/>
            </Node>
            <Node pos="r" depth="3" NCoef="0" IVar="12" Cut="3.0113059282302856e-01" cType="1" res="-3.0591145623475313e-03" rms="5.4344784468412399e-02" purity="9.4049948453903198e-01" nType="0">
              <Node pos="l" depth="4" NCoef="0" IVar="-1" Cut="0.0000000000000000e+00" cType="1" res="5.1716756820678711e-01" rms="2.2461520507931709e-02" purity="9.4739800691604614e-01" nType="-99"/>
              <Node pos="r" depth="4" NCoef="0" IVar="-1" Cut="0.0000000000000000e+00" cType="1" res="-8.0533933639526367e-01" rms="8.8185995817184448e-02" purity="9.2592793703079224e-01" nType="-99"/>
            </Node>
          </Node>
        </Node>
        <Node pos="r" depth="1" NCoef="0" IVar="8" Cut="3.8317028433084488e-02" cType="1" res="-2.2183414548635483e-02" rms="1.1400900036096573e-01" purity="6.2255817651748657e-01" nType="0">
          <Node pos="l" depth="2" NCoef="0" IVar="6" Cut="7.8680310398340225e-03" cType="1" res="-8.1714533735066652e-05" rms="6.2659546732902527e-02" purity="8.8694041967391968e-01" nType="0">
            <Node pos="l" depth="3" NCoef="0" IVar="2" Cut="1.5449613332748413e+00" cType="1" res="6.3765975646674633e-03" rms="4.5494839549064636e-02" purity="9.8230588436126709e-01" nType="0">
              <Node pos="l" depth="4" NCoef="0" IVar="-1" Cut="0.0000000000000000e+00" cType="1" res="7.1449977159500122e-01" rms="8.9986070990562439e-02" purity="9.2546796798706055e-01" nType="-99"/>
              <Node pos="r" depth="4" NCoef="0" IVar="-1" Cut="0.0000000000000000e+00" cType="1" res="5.4405397176742554e-01" rms="7.7216960489749908e-03" purity="1.0000000000000000e+00" nType="-99"/>
            </Node>
            <Node pos="r" depth="3" NCoef="0" IVar="-1" Cut="0.0000000000000000e+00" cType="1" res="-4.8806458711624146e-01" rms="1.0232406109571457e-01" purity="5.0853842496871948e-01" nType="-99"/>
          </Node>
          <Node pos="r" depth="2" NCoef="0" IVar="-1" Cut="0.0000000000000000e+00" cType="1" res="-8.5094916820526123e-01" rms="1.6532233357429504e-01" purity="1.2852567434310913e-01" nType="-99"/>
        </Node>
      </Node>
    </BinaryTree>
    <BinaryTree type="DecisionTree" boostWeight="1.0000000000000000e+00" itree="11">
      <Node pos="s" depth="0" NCoef="0" IVar="10" Cut="9.9868577718734741e-01" cType="1" res="-9.8059112206101418e-03" rms="1.4012520015239716e-01" purity="5.3506588935852051e-01" nType="0">
        <Node pos="l" depth="1" NCoef="0" IVar="-1" Cut="0.0000000000000000e+00" cType="1" res="-7.5517129898071289e-01" rms="1.8453028798103333e-01" purity="6.0971785336732864e-02" nType="-99"/>
        <Node pos="r" depth="1" NCoef="0" IVar="5" Cut="6.2022209167480469e-01" cType="1" res="3.9513786323368549e-03" rms="1.0992954671382904e-01" purity="7.6427477598190308e-01" nType="0">
          <Node pos="l" depth="2" NCoef="0" IVar="5" Cut="2.6346933841705322e-01" cType="1" res="3.5310856997966766e-02" rms="1.8405173718929291e-01" purity="3.0588096380233765e-01" nType="0">
            <Node pos="l" depth="3" NCoef="0" IVar="-1" Cut="0.0000000000000000e+00" cType="1" res="6.6468653678894043e+00" rms="1.5577507019042969e-01" purity="2.9865166544914246e-01" nType="-99"/>
            <Node pos="r" depth="3" NCoef="0" IVar="-1" Cut="0.0000000000000000e+00" cType="1" res="1.6450749635696411e+00" rms="2.0667898654937744e-01" purity="3.1265786290168762e-01" nType="-99"/>
          </Node>
          <Node pos="r" depth="2" NCoef="0" IVar="4" Cut="4.5196759700775146e-01" cType="1" res="-3.3410156611353159e-03" rms="8.2069635391235352e-02" purity="8.7087059020996094e-01" nType="0">
            <Node pos="l" depth="3" NCoef="0" IVar="-1" Cut="0.0000000000000000e+00" cType="1" res="-1.3448219299316406e+00" rms="1.9584676623344421e-01" purity="4.4203537702560425e-01" nType="-99"/>
            <Node pos="r" depth="3" NCoef="0" IVar="2" Cut="5.8106976747512817e-01" cType="1" res="2.9136592056602240e-03" rms="5.2247349172830582e-02" purity="9.2003661394119263e-01" nType="0">
              <Node pos="l" depth="4" NCoef="0" IVar="-1" Cut="0.0000000000000000e+00" cType="1" res="4.3348315358161926e-01" rms="1.3235278427600861e-01" purity="7.6979851722717285e-01" nType="-99"/>
              <Node pos="r" depth="4" NCoef="0" IVar="-1" Cut="0.0000000000000000e+00" cType="1" res="2.3047424852848053e-02" rms="2.4935752153396606e-02" purity="9.4083011150360107e-01" nType="-99"/>
            </Node>
          </Node>
        </Node>
      </Node>
    </BinaryTree>
    <BinaryTree type="DecisionTree" boostWeight="1.0000000000000000e+00" itree="12">
      <Node pos="s" depth="0" NCoef="0" IVar="5" Cut="2.3814114928245544e-01" cType="1" res="-6.6136978566646576e-02" rms="2.6878267526626587e-01" purity="5.1198416948318481e-01" nType="0">
        <Node pos="l" depth="1" NCoef="0" IVar="-1" Cut="0.0000000000000000e+00" cType="1" res="-1.3732345581054688e+01" rms="5.0178509950637817e-01" purity="2.3509256541728973e-01" nType="-99"/>
        <Node pos="r" depth="1" NCoef="0" IVar="6" Cut="1.0837868787348270e-02" cType="1" res="-1.6937272623181343e-02" rms="1.6561140120029449e-01" purity="5.5060011148452759e-01" nType="0">
          <Node pos="l" depth="2" NCoef="0" IVar="5" Cut="6.6994553804397583e-01" cType="1" res="-5.8978698216378689e-03" rms="1.4102914929389954e-01" purity="6.2018460035324097e-01" nType="0">
            <Node pos="l" depth="3" NCoef="0" IVar="-1" Cut="0.0000000000000000e+00" cType="1" res="-5.6039410829544067e-01" rms="2.2739242017269135e-01" purity="2.6758810877799988e-01" nType="-99"/>
            <Node pos="r" depth="3" NCoef="0" IVar="6" Cut="2.3963896092027426e-03" cType="1" res="5.3666862659156322e-03" rms="1.0967948287725449e-01" purity="6.9963562488555908e-01" nType="0">
              <Node pos="l" depth="4" NCoef="0" IVar="-1" Cut="0.0000000000000000e+00" cType="1" res="-2.8853893280029297e-01" rms="1.1020232737064362e-01" purity="8.0557805299758911e-01" nType="-99"/>
              <Node pos="r" depth="4" NCoef="0" IVar="-1" Cut="0.0000000000000000e+00" cType="1" res="1.1446367502212524e+00" rms="1.0802464932203293e-01" purity="6.0997533798217773e-01" nType="-99"/>
            </Node>
          </Node>
          <Node pos="r" depth="2" NCoef="0" IVar="-1" Cut="0.0000000000000000e+00" cType="1" res="-1.5355997085571289e+00" rms="2.5225225090980530e-01" purity="1.7813639342784882e-01" nType="-99"/>
        </Node>
      </Node>
    </BinaryTree>
    <BinaryTree type="DecisionTree" boostWeight="1.0000000000000000e+00" itree="13">
      <Node pos="s" depth="0" NCoef="0" IVar="5" Cut="2.1268083155155182e-01" cType="1" res="2.1169619634747505e-02" rms="2.0366829633712769e-01" purity="5.1355361938476562e-01" nType="0">
        <Node pos="l" depth="1" NCoef="0" IVar="-1" Cut="0.0000000000000000e+00" cType="1" res="1.0885215759277344e+01" rms="3.9952310919761658e-01" purity="2.3358641564846039e-01" nType="-99"/>
        <Node pos="r" depth="1" NCoef="0" IVar="0" Cut="1.2523312568664551e+00" cType="1" res="-3.6721487995237112e-03" rms="1.4484576880931854e-01" purity="5.4918181896209717e-01" nType="0">
          <Node pos="l" depth="2" NCoef="0" IVar="-1" Cut="0.0000000000000000e+00" cType="1" res="-9.7311598062515259e-01" rms="1.8842439353466034e-01" purity="6.8321593105792999e-02" nType="-99"/>
          <Node pos="r" depth="2" NCoef="0" IVar="6" Cut="5.1938868127763271e-03" cType="1" res="1.1314036324620247e-02" rms="1.2355080991983414e-01" purity="7.0854473114013672e-01" nType="0">
            <Node pos="l" depth="3" NCoef="0" IVar="2" Cut="1.1533179283142090e+00" cType="1" res="-7.6174223795533180e-04" rms="9.0000778436660767e-02" purity="8.1077849864959717e-01" nType="0">
              <Node pos="l" depth="4" NCoef="0" IVar="-1" Cut="0.0000000000000000e+00" cType="1" res="-2.9194816946983337e-01" rms="1.0975242406129837e-01" purity="5.3450685739517212e-01" nType="-99"/>
              <Node pos="r" depth="4" NCoef="0" IVar="-1" Cut="0.0000000000000000e+00" cType="1" res="1.4866316318511963e+00" rms="7.6007440686225891e-02" purity="9.5851331949234009e-01" nType="-99"/>
            </Node>
            <Node pos="r" depth="3" NCoef="0" IVar="8" Cut="1.7061186954379082e-02" cType="1" res="3.2830148935317993e-02" rms="1.6525049507617950e-01" purity="5.2638894319534302e-01" nType="0">
              <Node pos="l" depth="4" NCoef="0" IVar="-1" Cut="0.0000000000000000e+00" cType="1" res="-1.8621467053890228e-01" rms="6.1294578015804291e-02" purity="9.1848802566528320e-01" nType="-99"/>
              <Node pos="r" depth="4" NCoef="0" IVar="-1" Cut="0.0000000000000000e+00" cType="1" res="1.9073612689971924e+00" rms="2.0284219086170197e-01" purity="2.7154493331909180e-01" nType="-99"/>
            </Node>
          </Node>
        </Node>
      </Node>
    </BinaryTree>
    <BinaryTree type="DecisionTree" boostWeight="1.0000000000000000e+00" itree="14">
      <Node pos="s" depth="0" NCoef="0" IVar="5" Cut="3.1898933649063110e-01" cType="1" res="-4.3797116726636887e-02" rms="2.2193923592567444e-01" purity="5.1299238204956055e-01" nType="0">
        <Node pos="l" depth="1" NCoef="0" IVar="-1" Cut="0.0000000000000000e+00" cType="1" res="-1.9560574293136597e+00" rms="3.5162284970283508e-01" purity="1.8972350656986237e-01" nType="-99"/>
        <Node pos="r" depth="1" NCoef="0" IVar="6" Cut="5.7529918849468231e-03" cType="1" res="-1.9343128427863121e-02" rms="1.7540809512138367e-01" purity="5.7778054475784302e-01" nType="0">
          <Node pos="l" depth="2" NCoef="0" IVar="9" Cut="3.3073972910642624e-02" cType="1" res="3.4770939964801073e-03" rms="1.2052681297063828e-01" purity="7.5768613815307617e-01" nType="0">
            <Node pos="l" depth="3" NCoef="0" IVar="-1" Cut="0.0000000000000000e+00" cType="1" res="8.3651679754257202e-01" rms="1.9202095270156860e-01" purity="3.1183561682701111e-01" nType="-99"/>
            <Node pos="r" depth="3" NCoef="0" IVar="1" Cut="1.5982785224914551e+00" cType="1" res="-7.2601186111569405e-03" rms="8.5123643279075623e-02" purity="8.9308035373687744e-01" nType="0">
              <Node pos="l" depth="4" NCoef="0" IVar="-1" Cut="0.0000000000000000e+00" cType="1" res="-8.3495700359344482e-01" rms="1.8055894970893860e-01" purity="4.3499898910522461e-01" nType="-99"/>
              <Node pos="r" depth="4" NCoef="0" IVar="-1" Cut="0.0000000000000000e+00" cType="1" res="7.4664413928985596e-01" rms="3.6935683339834213e-02" purity="9.8826044797897339e-01" nType="-99"/>
            </Node>
          </Node>
          <Node pos="r" depth="2" NCoef="0" IVar="6" Cut="7.0027732290327549e-03" cType="1" res="-5.6942302733659744e-02" rms="2.3506560921669006e-01" purity="2.8136354684829712e-01" nType="0">
            <Node pos="l" depth="3" NCoef="0" IVar="-1" Cut="0.0000000000000000e+00" cType="1" res="-3.5009112358093262e+00" rms="3.5444116592407227e-01" purity="5.4510223865509033e-01" nType="-99"/>
            <Node pos="r" depth="3" NCoef="0" IVar="0" Cut="2.2210538387298584e+00" cType="1" res="-3.2153621315956116e-02" rms="1.9456699490547180e-01" purity="2.3036761581897736e-01" nType="0">
              <Node pos="l" depth="4" NCoef="0" IVar="-1" Cut="0.0000000000000000e+00" cType="1" res="-5.6838291883468628e-01" rms="1.6343000531196594e-01" purity="6.4436480402946472e-02" nType="-99"/>
              <Node pos="r" depth="4" NCoef="0" IVar="-1" Cut="0.0000000000000000e+00" cType="1" res="-2.0368554592132568e+00" rms="2.7641332149505615e-01" purity="8.5951328277587891e-01" nType="-99"/>
            </Node>
          </Node>
        </Node>
      </Node>
    </BinaryTree>
    <BinaryTree type="DecisionTree" boostWeight="1.0000000000000000e+00" itree="15">
      <Node pos="s" depth="0" NCoef="0" IVar="0" Cut="2.0398898124694824e+00" cType="1" res="-1.2930802069604397e-02" rms="1.7704159021377563e-01" purity="4.9693804979324341e-01" nType="0">
        <Node pos="l" depth="1" NCoef="0" IVar="3" Cut="7.8257763385772705e-01" cType="1" res="-4.1741684079170227e-02" rms="1.9667415320873260e-01" purity="1.7544962465763092e-01" nType="0">
          <Node pos="l" depth="2" NCoef="0" IVar="-1" Cut="0.0000000000000000e+00" cType="1" res="-1.4568855762481689e+00" rms="2.3642697930335999e-01" purity="6.8294703960418701e-02" nType="-99"/>
          <Node pos="r" depth="2" NCoef="0" IVar="2" Cut="1.9171390533447266e+00" cType="1" res="-5.7867690920829773e-03" rms="1.3724191486835480e-01" purity="2.8289294242858887e-01" nType="0">
            <Node pos="l" depth="3" NCoef="0" IVar="-1" Cut="0.0000000000000000e+00" cType="1" res="-5.2613568305969238e-01" rms="1.0998205095529556e-01" purity="7.6956689357757568e-02" nType="-99"/>
            <Node pos="r" depth="3" NCoef="0" IVar="-1" Cut="0.0000000000000000e+00" cType="1" res="1.9721257686614990e+00" rms="1.9401463866233826e-01" purity="1.0000000000000000e+00" nType="-99"/>
          </Node>
        </Node>
        <Node pos="r" depth="1" NCoef="0" IVar="6" Cut="8.5504176095128059e-03" cType="1" res="2.8355328366160393e-02" rms="1.3392440974712372e-01" purity="9.5763242244720459e-01" nType="0">
          <Node pos="l" depth="2" NCoef="0" IVar="7" Cut="5.9227108955383301e+00" cType="1" res="1.0000651702284813e-02" rms="8.3490557968616486e-02" purity="9.8926186561584473e-01" nType="0">
            <Node pos="l" depth="3" NCoef="0" IVar="-1" Cut="0.0000000000000000e+00" cType="1" res="1.9604847431182861e+00" rms="2.0203395187854767e-01" purity="9.2344421148300171e-01" nType="-99"/>
            <Node pos="r" depth="3" NCoef="0" IVar="4" Cut="1.7278475761413574e+00" cType="1" res="1.9163552206009626e-03" rms="3.1346861273050308e-02" purity="1.0000000000000000e+00" nType="0">
              <Node pos="l" depth="4" NCoef="0" IVar="-1" Cut="0.0000000000000000e+00" cType="1" res="1.2599203586578369e+00" rms="6.6815674304962158e-02" purity="1.0000000000000000e+00" nType="-99"/>
              <Node pos="r" depth="4" NCoef="0" IVar="-1" Cut="0.0000000000000000e+00" cType="1" res="5.6391608715057373e-01" rms="7.0314467884600163e-03" purity="1.0000000000000000e+00" nType="-99"/>
            </Node>
          </Node>
          <Node pos="r" depth="2" NCoef="0" IVar="-1" Cut="0.0000000000000000e+00" cType="1" res="1.3183499574661255e+00" rms="2.7659919857978821e-01" purity="7.3255300521850586e-01" nType="-99"/>
        </Node>
      </Node>
    </BinaryTree>
    <BinaryTree type="DecisionTree" boostWeight="1.0000000000000000e+00" itree="16">
      <Node pos="s" depth="0" NCoef="0" IVar="10" Cut="9.9971431493759155e-01" cType="1" res="-7.6659484766423702e-03" rms="1.7080433666706085e-01" purity="5.0311088562011719e-01" nType="0">
        <Node pos="l" depth="1" NCoef="0" IVar="0" Cut="2.2056539058685303e+00" cType="1" res="-3.3374842256307602e-02" rms="2.1981696784496307e-01" purity="1.7445006966590881e-01" nType="0">
          <Node pos="l" depth="2" NCoef="0" IVar="-1" Cut="0.0000000000000000e+00" cType="1" res="-3.7708148360252380e-01" rms="1.6679944097995758e-01" purity="7.6843082904815674e-02" nType="-99"/>
          <Node pos="r" depth="2" NCoef="0" IVar="-1" Cut="0.0000000000000000e+00" cType="1" res="-7.5233297348022461e+00" rms="4.0094429254531860e-01" purity="8.1090492010116577e-01" nType="-99"/>
        </Node>
        <Node pos="r" depth="1" NCoef="0" IVar="3" Cut="6.5952271223068237e-01" cType="1" res="1.5353033319115639e-02" rms="1.0445213317871094e-01" purity="7.9738408327102661e-01" nType="0">
          <Node pos="l" depth="2" NCoef="0" IVar="-1" Cut="0.0000000000000000e+00" cType="1" res="1.2398705482482910e+00" rms="1.8476805090904236e-01" purity="4.6161133050918579e-01" nType="-99"/>
          <Node pos="r" depth="2" NCoef="0" IVar="6" Cut="9.3624005094170570e-03" cType="1" res="7.6444619335234165e-03" rms="6.8791747093200684e-02" purity="8.8243573904037476e-01" nType="0">
            <Node pos="l" depth="3" NCoef="0" IVar="11" Cut="2.2757680714130402e-01" cType="1" res="3.6745520774275064e-03" rms="5.4827671498060226e-02" purity="9.3023872375488281e-01" nType="0">
              <Node pos="l" depth="4" NCoef="0" IVar="-1" Cut="0.0000000000000000e+00" cType="1" res="1.1801789999008179e+00" rms="1.1254776269197464e-01" purity="1.0000000000000000e+00" nType="-99"/>
              <Node pos="r" depth="4" NCoef="0" IVar="-1" Cut="0.0000000000000000e+00" cType="1" res="1.6149489581584930e-01" rms="3.6780584603548050e-02" purity="9.1880881786346436e-01" nType="-99"/>
            </Node>
            <Node pos="r" depth="3" NCoef="0" IVar="-1" Cut="0.0000000000000000e+00" cType="1" res="9.5319241285324097e-01" rms="1.2673091888427734e-01" purity="5.4372411966323853e-01" nType="-99"/>
          </Node>
        </Node>
      </Node>
    </BinaryTree>
    <BinaryTree type="DecisionTree" boostWeight="1.0000000000000000e+00" itree="17">
      <Node pos="s" depth="0" NCoef="0" IVar="0" Cut="2.2602732181549072e+00" cType="1" res="3.0806638300418854e-02" rms="2.2731672227382660e-01" purity="5.0268548727035522e-01" nType="0">
        <Node pos="l" depth="1" NCoef="0" IVar="3" Cut="1.5922137498855591e+00" cType="1" res="-1.6147103160619736e-02" rms="1.6493088006973267e-01" purity="1.8084149062633514e-01" nType="0">
          <Node pos="l" depth="2" NCoef="0" IVar="1" Cut="1.3029670715332031e+00" cType="1" res="-3.0175779014825821e-02" rms="1.5908087790012360e-01" purity="6.3897810876369476e-02" nType="0">
            <Node pos="l" depth="3" NCoef="0" IVar="-1" Cut="0.0000000000000000e+00" cType="1" res="-4.9016961455345154e-01" rms="8.4816880524158478e-02" purity="1.4393589459359646e-02" nType="-99"/>
            <Node pos="r" depth="3" NCoef="0" IVar="-1" Cut="0.0000000000000000e+00" cType="1" res="-1.1344600915908813e+00" rms="2.2039707005023956e-01" purity="1.3278022408485413e-01" nType="-99"/>
          </Node>
          <Node pos="r" depth="2" NCoef="0" IVar="12" Cut="2.6458866894245148e-02" cType="1" res="3.5533409565687180e-02" rms="1.7546814680099487e-01" purity="6.1165255308151245e-01" nType="0">
            <Node pos="l" depth="3" NCoef="0" IVar="-1" Cut="0.0000000000000000e+00" cType="1" res="1.1120314598083496e+00" rms="7.8181311488151550e-02" purity="5.5355900526046753e-01" nType="-99"/>
            <Node pos="r" depth="3" NCoef="0" IVar="-1" Cut="0.0000000000000000e+00" cType="1" res="1.2830731868743896e+00" rms="2.2959083318710327e-01" purity="6.6683042049407959e-01" nType="-99"/>
          </Node>
        </Node>
        <Node pos="r" depth="1" NCoef="0" IVar="10" Cut="9.9971461296081543e-01" cType="1" res="1.0189468413591385e-01" rms="2.8342586755752563e-01" purity="9.8995780944824219e-01" nType="0">
          <Node pos="l" depth="2" NCoef="0" IVar="-1" Cut="0.0000000000000000e+00" cType="1" res="4.8836660385131836e+00" rms="4.0616893768310547e-01" purity="9.3505156040191650e-01" nType="-99"/>
          <Node pos="r" depth="2" NCoef="0" IVar="5" Cut="1.1785562038421631e+00" cType="1" res="3.5226698964834213e-03" rms="4.7563169151544571e-02" purity="1.0000000000000000e+00" nType="0">
            <Node pos="l" depth="3" NCoef="0" IVar="-1" Cut="0.0000000000000000e+00" cType="1" res="2.3216536045074463e+00" rms="1.1275314539670944e-01" purity="1.0000000000000000e+00" nType="-99"/>
            <Node pos="r" depth="3" NCoef="0" IVar="6" Cut="6.0959588736295700e-03" cType="1" res="1.0344558395445347e-03" rms="1.5093022957444191e-02" purity="1.0000000000000000e+00" nType="0">
              <Node pos="l" depth="4" NCoef="0" IVar="-1" Cut="0.0000000000000000e+00" cType="1" res="5.0127840042114258e-01" rms="1.4290047693066299e-04" purity="1.0000000000000000e+00" nType="-99"/>
              <Node pos="r" depth="4" NCoef="0" IVar="-1" Cut="0.0000000000000000e+00" cType="1" res="6.4319992065429688e-01" rms="3.4607682377099991e-02" purity="1.0000000000000000e+00" nType="-99"/>
            </Node>
          </Node>
        </Node>
      </Node>
    </BinaryTree>
    <BinaryTree type="DecisionTree" boostWeight="1.0000000000000000e+00" itree="18">
      <Node pos="s" depth="0" NCoef="0" IVar="2" Cut="1.7067081928253174e+00" cType="1" res="-1.1480178218334913e-03" rms="1.6393148899078369e-01" purity="4.9373334646224976e-01" nType="0">
        <Node pos="l" depth="1" NCoef="0" IVar="1" Cut="2.3595364093780518e+00" cType="1" res="1.8299287185072899e-02" rms="1.4788971841335297e-01" purity="2.5806629657745361e-01" nType="0">
          <Node pos="l" depth="2" NCoef="0" IVar="8" Cut="4.0442120283842087e-02" cType="1" res="2.1825407166033983e-03" rms="1.0912654548883438e-01" purity="6.4245410263538361e-02" nType="0">
            <Node pos="l" depth="3" NCoef="0" IVar="-1" Cut="0.0000000000000000e+00" cType="1" res="7.9501634836196899e-01" rms="1.4371612668037415e-01" purity="1.8891946971416473e-01" nType="-99"/>
            <Node pos="r" depth="3" NCoef="0" IVar="-1" Cut="0.0000000000000000e+00" cType="1" res="-4.1233536601066589e-01" rms="9.1163709759712219e-02" purity="1.8360333517193794e-02" nType="-99"/>
          </Node>
          <Node pos="r" depth="2" NCoef="0" IVar="10" Cut="9.9982875585556030e-01" cType="1" res="7.7432669699192047e-02" rms="2.3232650756835938e-01" purity="9.6920770406723022e-01" nType="0">
            <Node pos="l" depth="3" NCoef="0" IVar="-1" Cut="0.0000000000000000e+00" cType="1" res="2.3242671489715576e+00" rms="3.2756954431533813e-01" purity="9.6366572380065918e-01" nType="-99"/>
            <Node pos="r" depth="3" NCoef="0" IVar="-1" Cut="0.0000000000000000e+00" cType="1" res="9.5063626766204834e-01" rms="4.7811560332775116e-02" purity="9.7328281402587891e-01" nType="-99"/>
          </Node>
        </Node>
        <Node pos="r" depth="1" NCoef="0" IVar="7" Cut="7.9169416427612305e+00" cType="1" res="-2.9457520693540573e-02" rms="1.8111659586429596e-01" purity="8.3679467439651489e-01" nType="0">
          <Node pos="l" depth="2" NCoef="0" IVar="-1" Cut="0.0000000000000000e+00" cType="1" res="-1.4594933986663818e+00" rms="3.1948566436767578e-01" purity="2.2844216227531433e-01" nType="-99"/>
          <Node pos="r" depth="2" NCoef="0" IVar="1" Cut="7.1154460906982422e+00" cType="1" res="1.7354093142785132e-04" rms="1.0571217536926270e-01" purity="9.8801332712173462e-01" nType="0">
            <Node pos="l" depth="3" NCoef="0" IVar="10" Cut="9.9995309114456177e-01" cType="1" res="7.1807755157351494e-03" rms="7.8221574425697327e-02" purity="9.9286705255508423e-01" nType="0">
              <Node pos="l" depth="4" NCoef="0" IVar="-1" Cut="0.0000000000000000e+00" cType="1" res="4.1503539085388184e+00" rms="1.7517435550689697e-01" purity="9.6237838268280029e-01" nType="-99"/>
              <Node pos="r" depth="4" NCoef="0" IVar="-1" Cut="0.0000000000000000e+00" cType="1" res="7.7513509988784790e-01" rms="1.1185528710484505e-02" purity="1.0000000000000000e+00" nType="-99"/>
            </Node>
            <Node pos="r" depth="3" NCoef="0" IVar="-1" Cut="0.0000000000000000e+00" cType="1" res="-2.8157566070556641e+01" rms="1.9013695418834686e-01" purity="9.6248596906661987e-01" nType="-99"/>
          </Node>
        </Node>
      </Node>
    </BinaryTree>
    <BinaryTree type="DecisionTree" boostWeight="1.0000000000000000e+00" itree="19">
      <Node pos="s" depth="0" NCoef="0" IVar="1" Cut="7.1324810981750488e+00" cType="1" res="3.7119481712579727e-02" rms="2.5749999284744263e-01" purity="4.9636501073837280e-01" nType="0">
        <Node pos="l" depth="1" NCoef="0" IVar="11" Cut="4.4537407159805298e-01" cType="1" res="-5.5945771746337414e-03" rms="1.6605827212333679e-01" purity="4.5738157629966736e-01" nType="0">
          <Node pos="l" depth="2" NCoef="0" IVar="10" Cut="9.9994283914566040e-01" cType="1" res="-3.5816095769405365e-02" rms="1.6805166006088257e-01" purity="2.7991345524787903e-01" nType="0">
            <Node pos="l" depth="3" NCoef="0" IVar="3" Cut="1.1119753122329712e+00" cType="1" res="-1.8905241042375565e-02" rms="1.0824596136808395e-01" purity="1.0090013593435287e-01" nType="0">
              <Node pos="l" depth="4" NCoef="0" IVar="-1" Cut="0.0000000000000000e+00" cType="1" res="-2.1107175946235657e-01" rms="4.1406054049730301e-02" purity="4.4198159128427505e-02" nType="-99"/>
              <Node pos="r" depth="4" NCoef="0" IVar="-1" Cut="0.0000000000000000e+00" cType="1" res="-8.6382198333740234e-01" rms="1.8080134689807892e-01" purity="2.3360973596572876e-01" nType="-99"/>
            </Node>
            <Node pos="r" depth="3" NCoef="0" IVar="3" Cut="2.4560389518737793e+00" cType="1" res="-7.1607284247875214e-02" rms="2.4764466285705566e-01" purity="6.5878844261169434e-01" nType="0">
              <Node pos="l" depth="4" NCoef="0" IVar="-1" Cut="0.0000000000000000e+00" cType="1" res="-3.0050950050354004e+00" rms="3.4961649775505066e-01" purity="2.7119037508964539e-01" nType="-99"/>
              <Node pos="r" depth="4" NCoef="0" IVar="-1" Cut="0.0000000000000000e+00" cType="1" res="5.6532835960388184e-01" rms="5.8262688107788563e-03" purity="9.7613173723220825e-01" nType="-99"/>
            </Node>
          </Node>
          <Node pos="r" depth="2" NCoef="0" IVar="13" Cut="-1.6410102844238281e+00" cType="1" res="2.2800732403993607e-02" rms="1.5901301801204681e-01" purity="6.2412583827972412e-01" nType="0">
            <Node pos="l" depth="3" NCoef="0" IVar="-1" Cut="0.0000000000000000e+00" cType="1" res="4.0941019058227539e+00" rms="2.7055835723876953e-01" purity="4.8960533738136292e-01" nType="-99"/>
            <Node pos="r" depth="3" NCoef="0" IVar="3" Cut="7.4034935235977173e-01" cType="1" res="1.2497172690927982e-02" rms="1.3117331266403198e-01" purity="6.4454424381256104e-01" nType="0">
              <Node pos="l" depth="4" NCoef="0" IVar="-1" Cut="0.0000000000000000e+00" cType="1" res="2.1908650398254395e+00" rms="1.8957683444023132e-01" purity="3.1367063522338867e-01" nType="-99"/>
              <Node pos="r" depth="4" NCoef="0" IVar="-1" Cut="0.0000000000000000e+00" cType="1" res="1.3459314405918121e-01" rms="9.2788450419902802e-02" purity="7.9004466533660889e-01" nType="-99"/>
            </Node>
          </Node>
        </Node>
        <Node pos="r" depth="1" NCoef="0" IVar="-1" Cut="0.0000000000000000e+00" cType="1" res="8.4177955627441406e+01" rms="4.8845604062080383e-01" purity="1.0000000000000000e+00" nType="-99"/>
      </Node>
    </BinaryTree>
    <BinaryTree type="DecisionTree" boostWeight="1.0000000000000000e+00" itree="20">
      <Node pos="s" depth="0" NCoef="0" IVar="13" Cut="-1.8776863813400269e+00" cType="1" res="-9.2638703063130379e-03" rms="1.5686224400997162e-01" purity="5.0297939777374268e-01" nType="0">
        <Node pos="l" depth="1" NCoef="0" IVar="-1" Cut="0.0000000000000000e+00" cType="1" res="-4.4602970123291016e+01" rms="3.8629570603370667e-01" purity="5.0024020671844482e-01" nType="-99"/>
        <Node pos="r" depth="1" NCoef="0" IVar="1" Cut="1.4006391763687134e+00" cType="1" res="-2.1186577214393765e-04" rms="1.2735947966575623e-01" purity="5.0312894582748413e-01" nType="0">
          <Node pos="l" depth="2" NCoef="0" IVar="-1" Cut="0.0000000000000000e+00" cType="1" res="-9.1859567165374756e-01" rms="1.4614507555961609e-01" purity="8.2648612558841705e-02" nType="-99"/>
          <Node pos="r" depth="2" NCoef="0" IVar="2" Cut="9.2317545413970947e-01" cType="1" res="1.3706658035516739e-02" rms="1.1251455545425415e-01" purity="7.5189572572708130e-01" nType="0">
            <Node pos="l" depth="3" NCoef="0" IVar="4" Cut="9.3693244457244873e-01" cType="1" res="4.2333289980888367e-02" rms="1.8885795772075653e-01" purity="4.7282502055168152e-01" nType="0">
              <Node pos="l" depth="4" NCoef="0" IVar="-1" Cut="0.0000000000000000e+00" cType="1" res="3.9731365442276001e-01" rms="5.4983232170343399e-02" purity="2.4465963244438171e-01" nType="-99"/>
              <Node pos="r" depth="4" NCoef="0" IVar="-1" Cut="0.0000000000000000e+00" cType="1" res="3.8123245239257812e+00" rms="2.5927445292472839e-01" purity="7.1653246879577637e-01" nType="-99"/>
            </Node>
            <Node pos="r" depth="3" NCoef="0" IVar="8" Cut="2.4374943226575851e-02" cType="1" res="1.7773993313312531e-03" rms="5.0871767103672028e-02" purity="8.6818975210189819e-01" nType="0">
              <Node pos="l" depth="4" NCoef="0" IVar="-1" Cut="0.0000000000000000e+00" cType="1" res="-3.0416201800107956e-02" rms="3.7730712443590164e-02" purity="9.8322510719299316e-01" nType="-99"/>
              <Node pos="r" depth="4" NCoef="0" IVar="-1" Cut="0.0000000000000000e+00" cType="1" res="2.2011308670043945e+00" rms="8.2451924681663513e-02" purity="4.4627752900123596e-01" nType="-99"/>
            </Node>
          </Node>
        </Node>
      </Node>
    </BinaryTree>
    <BinaryTree type="DecisionTree" boostWeight="1.0000000000000000e+00" itree="21">
      <Node pos="s" depth="0" NCoef="0" IVar="13" Cut="-1.8323009014129639e+00" cType="1" res="-2.3685685300733894e-04" rms="2.0165124535560608e-01" purity="4.7936758399009705e-01" nType="0">
        <Node pos="l" depth="1" NCoef="0" IVar="-1" Cut="0.0000000000000000e+00" cType="1" res="1.0832130432128906e+02" rms="4.6921226382255554e-01" purity="5.6465864181518555e-01" nType="-99"/>
        <Node pos="r" depth="1" NCoef="0" IVar="5" Cut="1.1861436367034912e+00" cType="1" res="-2.2126816213130951e-02" rms="1.4519472420215607e-01" purity="4.7374379634857178e-01" nType="0">
          <Node pos="l" depth="2" NCoef="0" IVar="4" Cut="1.2926913499832153e+00" cType="1" res="-4.6146556735038757e-02" rms="1.9670197367668152e-01" purity="1.7481151223182678e-01" nType="0">
            <Node pos="l" depth="3" NCoef="0" IVar="11" Cut="5.4072284698486328e-01" cType="1" res="-2.0228493958711624e-02" rms="1.4298215508460999e-01" purity="1.5511946380138397e-01" nType="0">
              <Node pos="l" depth="4" NCoef="0" IVar="-1" Cut="0.0000000000000000e+00" cType="1" res="1.1924225836992264e-01" rms="7.3473379015922546e-02" purity="7.3764570057392120e-02" nType="-99"/>
              <Node pos="r" depth="4" NCoef="0" IVar="-1" Cut="0.0000000000000000e+00" cType="1" res="-1.0760048627853394e+00" rms="2.2973272204399109e-01" purity="3.5014152526855469e-01" nType="-99"/>
            </Node>
            <Node pos="r" depth="3" NCoef="0" IVar="-1" Cut="0.0000000000000000e+00" cType="1" res="-2.2597603797912598e+00" rms="2.9363232851028442e-01" purity="2.3512125015258789e-01" nType="-99"/>
          </Node>
          <Node pos="r" depth="2" NCoef="0" IVar="10" Cut="9.9948573112487793e-01" cType="1" res="-1.5589861141052097e-04" rms="6.2952280044555664e-02" purity="7.4717795848846436e-01" nType="0">
            <Node pos="l" depth="3" NCoef="0" IVar="-1" Cut="0.0000000000000000e+00" cType="1" res="-7.1402388811111450e-01" rms="8.2716867327690125e-02" purity="1.5947358310222626e-01" nType="-99"/>
            <Node pos="r" depth="3" NCoef="0" IVar="0" Cut="1.8130941390991211e+00" cType="1" res="3.7318980321288109e-03" rms="5.3509078919887543e-02" purity="9.6006906032562256e-01" nType="0">
              <Node pos="l" depth="4" NCoef="0" IVar="-1" Cut="0.0000000000000000e+00" cType="1" res="3.0496244430541992e+00" rms="1.4125722646713257e-01" purity="7.0827102661132812e-01" nType="-99"/>
              <Node pos="r" depth="4" NCoef="0" IVar="-1" Cut="0.0000000000000000e+00" cType="1" res="5.9917986392974854e-01" rms="8.6185373365879059e-03" purity="1.0000000000000000e+00" nType="-99"/>
            </Node>
          </Node>
        </Node>
      </Node>
    </BinaryTree>
    <BinaryTree type="DecisionTree" boostWeight="1.0000000000000000e+00" itree="22">
      <Node pos="s" depth="0" NCoef="0" IVar="12" Cut="-1.8906701803207397e+00" cType="1" res="-3.8462519645690918e-02" rms="1.8704326450824738e-01" purity="5.0659322738647461e-01" nType="0">
        <Node pos="l" depth="1" NCoef="0" IVar="-1" Cut="0.0000000000000000e+00" cType="1" res="-3.0622257232666016e+01" rms="4.9235144257545471e-01" purity="5.1083052158355713e-01" nType="-99"/>
        <Node pos="r" depth="1" NCoef="0" IVar="2" Cut="1.5462365150451660e+00" cType="1" res="-1.4939201995730400e-02" rms="1.1397822201251984e-01" purity="5.0636631250381470e-01" nType="0">
          <Node pos="l" depth="2" NCoef="0" IVar="5" Cut="1.0351490974426270e+00" cType="1" res="-2.6831503957509995e-02" rms="1.4446240663528442e-01" purity="2.3371471464633942e-01" nType="0">
            <Node pos="l" depth="3" NCoef="0" IVar="7" Cut="3.7812824249267578e+00" cType="1" res="-1.2014559470117092e-02" rms="9.9020838737487793e-02" purity="1.1149667203426361e-01" nType="0">
              <Node pos="l" depth="4" NCoef="0" IVar="-1" Cut="0.0000000000000000e+00" cType="1" res="-4.2108869552612305e-01" rms="2.3738814517855644e-02" purity="5.5252164602279663e-02" nType="-99"/>
              <Node pos="r" depth="4" NCoef="0" IVar="-1" Cut="0.0000000000000000e+00" cType="1" res="-2.7028582096099854e+00" rms="1.7961621284484863e-01" purity="2.5243127346038818e-01" nType="-99"/>
            </Node>
            <Node pos="r" depth="3" NCoef="0" IVar="5" Cut="1.8282458782196045e+00" cType="1" res="-4.7980699688196182e-02" rms="1.8947684764862061e-01" purity="4.0816450119018555e-01" nType="0">
              <Node pos="l" depth="4" NCoef="0" IVar="-1" Cut="0.0000000000000000e+00" cType="1" res="-2.2265763282775879e+00" rms="2.5833094120025635e-01" purity="1.7351591587066650e-01" nType="-99"/>
              <Node pos="r" depth="4" NCoef="0" IVar="-1" Cut="0.0000000000000000e+00" cType="1" res="-3.7578839063644409e-01" rms="3.1254522502422333e-02" purity="6.4400035142898560e-01" nType="-99"/>
            </Node>
          </Node>
          <Node pos="r" depth="2" NCoef="0" IVar="2" Cut="2.2564480304718018e+00" cType="1" res="1.3798425206914544e-03" rms="4.1469227522611618e-02" purity="8.8050860166549683e-01" nType="0">
            <Node pos="l" depth="3" NCoef="0" IVar="-1" Cut="0.0000000000000000e+00" cType="1" res="4.2946062088012695e+00" rms="1.0057957470417023e-01" purity="6.4683818817138672e-01" nType="-99"/>
            <Node pos="r" depth="3" NCoef="0" IVar="2" Cut="2.8756728172302246e+00" cType="1" res="-3.5465013934299350e-04" rms="1.5192950144410133e-02" purity="9.2138051986694336e-01" nType="0">
              <Node pos="l" depth="4" NCoef="0" IVar="-1" Cut="0.0000000000000000e+00" cType="1" res="-4.3814960122108459e-01" rms="2.4101749062538147e-02" purity="6.2077391147613525e-01" nType="-99"/>
              <Node pos="r" depth="4" NCoef="0" IVar="-1" Cut="0.0000000000000000e+00" cType="1" res="9.2136007547378540e-01" rms="1.2906935997307301e-02" purity="9.7363281250000000e-01" nType="-99"/>
            </Node>
          </Node>
        </Node>
      </Node>
    </BinaryTree>
    <BinaryTree type="DecisionTree" boostWeight="1.0000000000000000e+00" itree="23">
      <Node pos="s" depth="0" NCoef="0" IVar="13" Cut="-1.8775868415832520e+00" cType="1" res="-5.0896134227514267e-02" rms="2.3096099495887756e-01" purity="4.7731226682662964e-01" nType="0">
        <Node pos="l" depth="1" NCoef="0" IVar="-1" Cut="0.0000000000000000e+00" cType="1" res="-6.2840868380081496e+31" rms="4.8213943839073181e-01" purity="3.6755540966987610e-01" nType="-99"/>
        <Node pos="r" depth="1" NCoef="0" IVar="2" Cut="1.5605458021163940e+00" cType="1" res="-1.1118026450276375e-02" rms="1.2796965241432190e-01" purity="4.8481965065002441e-01" nType="0">
          <Node pos="l" depth="2" NCoef="0" IVar="7" Cut="2.7912964820861816e+00" cType="1" res="1.7245151102542877e-03" rms="7.0665419101715088e-02" purity="2.4196605384349823e-01" nType="0">
            <Node pos="l" depth="3" NCoef="0" IVar="-1" Cut="0.0000000000000000e+00" cType="1" res="-5.2734160423278809e-01" rms="5.1113158464431763e-02" purity="5.6068684905767441e-02" nType="-99"/>
            <Node pos="r" depth="3" NCoef="0" IVar="10" Cut="9.9920004606246948e-01" cType="1" res="7.6358378864824772e-03" rms="8.0719575285911560e-02" purity="3.6756426095962524e-01" nType="0">
              <Node pos="l" depth="4" NCoef="0" IVar="-1" Cut="0.0000000000000000e+00" cType="1" res="1.1555395126342773e+00" rms="1.0098348557949066e-01" purity="1.5467225015163422e-01" nType="-99"/>
              <Node pos="r" depth="4" NCoef="0" IVar="-1" Cut="0.0000000000000000e+00" cType="1" res="1.6980932652950287e-01" rms="6.1120543628931046e-02" purity="5.2250742912292480e-01" nType="-99"/>
            </Node>
          </Node>
          <Node pos="r" depth="2" NCoef="0" IVar="2" Cut="1.9719878435134888e+00" cType="1" res="-3.2068543136119843e-02" rms="1.8503287434577942e-01" purity="8.8099575042724609e-01" nType="0">
            <Node pos="l" depth="3" NCoef="0" IVar="-1" Cut="0.0000000000000000e+00" cType="1" res="-5.6797685623168945e+00" rms="3.9403444528579712e-01" purity="5.5666708946228027e-01" nType="-99"/>
            <Node pos="r" depth="3" NCoef="0" IVar="0" Cut="1.8302001953125000e+00" cType="1" res="-1.8828291213139892e-03" rms="8.9559406042098999e-02" purity="9.3381577730178833e-01" nType="0">
              <Node pos="l" depth="4" NCoef="0" IVar="-1" Cut="0.0000000000000000e+00" cType="1" res="-3.8555240631103516e+00" rms="1.7156028747558594e-01" purity="5.8680164813995361e-01" nType="-99"/>
              <Node pos="r" depth="4" NCoef="0" IVar="-1" Cut="0.0000000000000000e+00" cType="1" res="4.1981401443481445e+00" rms="6.0861773788928986e-02" purity="1.0000000000000000e+00" nType="-99"/>
            </Node>
          </Node>
        </Node>
      </Node>
    </BinaryTree>
    <BinaryTree type="DecisionTree" boostWeight="1.0000000000000000e+00" itree="24">
      <Node pos="s" depth="0" NCoef="0" IVar="12" Cut="-1.8672963380813599e+00" cType="1" res="2.0341239869594574e-02" rms="2.0579157769680023e-01" purity="4.8067179322242737e-01" nType="0">
        <Node pos="l" depth="1" NCoef="0" IVar="-1" Cut="0.0000000000000000e+00" cType="1" res="2.2300339931709440e+16" rms="4.9999675154685974e-01" purity="5.0273340940475464e-01" nType="-99"/>
        <Node pos="r" depth="1" NCoef="0" IVar="6" Cut="1.1813915334641933e-02" cType="1" res="-6.5634003840386868e-03" rms="1.3064928352832794e-01" purity="4.7943899035453796e-01" nType="0">
          <Node pos="l" depth="2" NCoef="0" IVar="3" Cut="8.7777101993560791e-01" cType="1" res="2.0808975677937269e-03" rms="1.0415237396955490e-01" purity="5.3717333078384399e-01" nType="0">
            <Node pos="l" depth="3" NCoef="0" IVar="9" Cut="4.8646625131368637e-02" cType="1" res="-9.3505000695586205e-03" rms="1.1846184730529785e-01" purity="2.2206850349903107e-01" nType="0">
              <Node pos="l" depth="4" NCoef="0" IVar="-1" Cut="0.0000000000000000e+00" cType="1" res="1.5127311646938324e-01" rms="7.5159929692745209e-02" purity="1.3192290067672729e-01" nType="-99"/>
              <Node pos="r" depth="4" NCoef="0" IVar="-1" Cut="0.0000000000000000e+00" cType="1" res="-2.7009692192077637e+00" rms="2.0327353477478027e-01" purity="5.3411728143692017e-01" nType="-99"/>
            </Node>
            <Node pos="r" depth="3" NCoef="0" IVar="1" Cut="1.5197439193725586e+00" cType="1" res="1.0100936517119408e-02" rms="9.1961070895195007e-02" purity="7.5824457406997681e-01" nType="0">
              <Node pos="l" depth="4" NCoef="0" IVar="-1" Cut="0.0000000000000000e+00" cType="1" res="2.1071298122406006e+00" rms="1.6839084029197693e-01" purity="2.9775527119636536e-01" nType="-99"/>
              <Node pos="r" depth="4" NCoef="0" IVar="-1" Cut="0.0000000000000000e+00" cType="1" res="1.4200483560562134e+00" rms="3.9352457970380783e-02" purity="9.1204541921615601e-01" nType="-99"/>
            </Node>
          </Node>
          <Node pos="r" depth="2" NCoef="0" IVar="-1" Cut="0.0000000000000000e+00" cType="1" res="-1.9144769906997681e+00" rms="2.2838704288005829e-01" purity="1.2310381978750229e-01" nType="-99"/>
        </Node>
      </Node>
    </BinaryTree>
    <BinaryTree type="DecisionTree" boostWeight="1.0000000000000000e+00" itree="25">
      <Node pos="s" depth="0" NCoef="0" IVar="13" Cut="-1.8837267160415649e+00" cType="1" res="1.3574691489338875e-02" rms="2.2137174010276794e-01" purity="4.9890819191932678e-01" nType="0">
        <Node pos="l" depth="1" NCoef="0" IVar="-1" Cut="0.0000000000000000e+00" cType="1" res="4.0488581927266803e+31" rms="4.9999040365219116e-01" purity="5.0309985876083374e-01" nType="-99"/>
        <Node pos="r" depth="1" NCoef="0" IVar="13" Cut="-1.5830879211425781e+00" cType="1" res="-1.4419116079807281e-02" rms="1.5173882246017456e-01" purity="4.9866846203804016e-01" nType="0">
          <Node pos="l" depth="2" NCoef="0" IVar="-1" Cut="0.0000000000000000e+00" cType="1" res="-6.6250190734863281e+00" rms="3.2213717699050903e-01" purity="4.9125108122825623e-01" nType="-99"/>
          <Node pos="r" depth="2" NCoef="0" IVar="4" Cut="2.7182111144065857e-01" cType="1" res="-7.6885726302862167e-03" rms="1.3204829394817352e-01" purity="4.9910724163055420e-01" nType="0">
            <Node pos="l" depth="3" NCoef="0" IVar="-1" Cut="0.0000000000000000e+00" cType="1" res="-1.4692879915237427e+00" rms="2.2518166899681091e-01" purity="1.4197163283824921e-01" nType="-99"/>
            <Node pos="r" depth="3" NCoef="0" IVar="4" Cut="8.5509479045867920e-01" cType="1" res="2.8659452218562365e-03" rms="1.0589134693145752e-01" purity="5.5739325284957886e-01" nType="0">
              <Node pos="l" depth="4" NCoef="0" IVar="-1" Cut="0.0000000000000000e+00" cType="1" res="-1.3535058498382568e+00" rms="1.2172079831361771e-01" purity="2.3121608793735504e-01" nType="-99"/>
              <Node pos="r" depth="4" NCoef="0" IVar="-1" Cut="0.0000000000000000e+00" cType="1" res="3.2706794738769531e+00" rms="9.7617805004119873e-02" purity="6.9028943777084351e-01" nType="-99"/>
            </Node>
          </Node>
        </Node>
      </Node>
    </BinaryTree>
    <BinaryTree type="DecisionTree" boostWeight="1.0000000000000000e+00" itree="26">
      <Node pos="s" depth="0" NCoef="0" IVar="12" Cut="-1.8366523981094360e+00" cType="1" res="1.2492699548602104e-02" rms="2.3308622837066650e-01" purity="5.3289735317230225e-01" nType="0">
        <Node pos="l" depth="1" NCoef="0" IVar="-1" Cut="0.0000000000000000e+00" cType="1" res="9.5081669921875000e+03" rms="4.9061021208763123e-01" purity="6.6752594709396362e-01" nType="-99"/>
        <Node pos="r" depth="1" NCoef="0" IVar="0" Cut="2.6135904788970947e+00" cType="1" res="-2.0262846723198891e-02" rms="1.5387341380119324e-01" purity="5.2534353733062744e-01" nType="0">
          <Node pos="l" depth="2" NCoef="0" IVar="4" Cut="8.5438448190689087e-01" cType="1" res="-3.8674481213092804e-02" rms="1.8220728635787964e-01" purity="2.2175700962543488e-01" nType="0">
            <Node pos="l" depth="3" NCoef="0" IVar="-1" Cut="0.0000000000000000e+00" cType="1" res="1.0230720043182373e-01" rms="8.3685286343097687e-02" purity="4.3158825486898422e-02" nType="-99"/>
            <Node pos="r" depth="3" NCoef="0" IVar="4" Cut="2.5052299499511719e+00" cType="1" res="-7.9155437648296356e-02" rms="2.3876789212226868e-01" purity="4.0608748793601990e-01" nType="0">
              <Node pos="l" depth="4" NCoef="0" IVar="-1" Cut="0.0000000000000000e+00" cType="1" res="-2.2806410789489746e+00" rms="2.9594466090202332e-01" purity="1.6203045845031738e-01" nType="-99"/>
              <Node pos="r" depth="4" NCoef="0" IVar="-1" Cut="0.0000000000000000e+00" cType="1" res="3.6897715926170349e-01" rms="1.8574479967355728e-02" purity="7.7464646100997925e-01" nType="-99"/>
            </Node>
          </Node>
          <Node pos="r" depth="2" NCoef="0" IVar="4" Cut="7.7004623413085938e-01" cType="1" res="8.5236802697181702e-03" rms="8.6197540163993835e-02" purity="1.0000000000000000e+00" nType="0">
            <Node pos="l" depth="3" NCoef="0" IVar="-1" Cut="0.0000000000000000e+00" cType="1" res="4.4156069755554199e+00" rms="2.0810352265834808e-01" purity="1.0000000000000000e+00" nType="-99"/>
            <Node pos="r" depth="3" NCoef="0" IVar="6" Cut="3.1318513210862875e-03" cType="1" res="1.2180337216705084e-03" rms="3.1833659857511520e-02" purity="1.0000000000000000e+00" nType="0">
              <Node pos="l" depth="4" NCoef="0" IVar="-1" Cut="0.0000000000000000e+00" cType="1" res="5.1452350616455078e-01" rms="4.8674998106434941e-04" purity="1.0000000000000000e+00" nType="-99"/>
              <Node pos="r" depth="4" NCoef="0" IVar="-1" Cut="0.0000000000000000e+00" cType="1" res="3.0572040081024170e+00" rms="4.9285244196653366e-02" purity="1.0000000000000000e+00" nType="-99"/>
            </Node>
          </Node>
        </Node>
      </Node>
    </BinaryTree>
    <BinaryTree type="DecisionTree" boostWeight="1.0000000000000000e+00" itree="27">
      <Node pos="s" depth="0" NCoef="0" IVar="13" Cut="-1.8654837608337402e+00" cType="1" res="1.0769687592983246e-02" rms="2.2587548196315765e-01" purity="4.8798134922981262e-01" nType="0">
        <Node pos="l" depth="1" NCoef="0" IVar="-1" Cut="0.0000000000000000e+00" cType="1" res="3.9946429472054066e+31" rms="4.9868431687355042e-01" purity="5.3986138105392456e-01" nType="-99"/>
        <Node pos="r" depth="1" NCoef="0" IVar="6" Cut="8.7429005652666092e-03" cType="1" res="-1.7003081738948822e-02" rms="1.5876801311969757e-01" purity="4.8523938655853271e-01" nType="0">
          <Node pos="l" depth="2" NCoef="0" IVar="4" Cut="3.2945767045021057e-01" cType="1" res="-1.9501586211845279e-03" rms="1.2517909705638885e-01" purity="6.0068362951278687e-01" nType="0">
            <Node pos="l" depth="3" NCoef="0" IVar="-1" Cut="0.0000000000000000e+00" cType="1" res="6.4321174621582031e+00" rms="1.7505611479282379e-01" purity="1.8004199862480164e-01" nType="-99"/>
            <Node pos="r" depth="3" NCoef="0" IVar="8" Cut="4.4218733906745911e-02" cType="1" res="-8.7589267641305923e-03" rms="1.1143147945404053e-01" purity="6.8419384956359863e-01" nType="0">
              <Node pos="l" depth="4" NCoef="0" IVar="-1" Cut="0.0000000000000000e+00" cType="1" res="1.3826447725296021e+00" rms="3.5244684666395187e-02" purity="8.5687285661697388e-01" nType="-99"/>
              <Node pos="r" depth="4" NCoef="0" IVar="-1" Cut="0.0000000000000000e+00" cType="1" res="-2.2810347080230713e+00" rms="2.0319744944572449e-01" purity="2.2223716974258423e-01" nType="-99"/>
            </Node>
          </Node>
          <Node pos="r" depth="2" NCoef="0" IVar="5" Cut="1.8052340745925903e+00" cType="1" res="-6.1226870864629745e-02" rms="2.2495749592781067e-01" purity="1.4607717096805573e-01" nType="0">
            <Node pos="l" depth="3" NCoef="0" IVar="-1" Cut="0.0000000000000000e+00" cType="1" res="-3.9409706592559814e+00" rms="1.8471363186836243e-01" purity="4.0067344903945923e-02" nType="-99"/>
            <Node pos="r" depth="3" NCoef="0" IVar="-1" Cut="0.0000000000000000e+00" cType="1" res="-2.9631433486938477e+00" rms="3.1687048077583313e-01" purity="5.2521002292633057e-01" nType="-99"/>
          </Node>
        </Node>
      </Node>
    </BinaryTree>
    <BinaryTree type="DecisionTree" boostWeight="1.0000000000000000e+00" itree="28">
      <Node pos="s" depth="0" NCoef="0" IVar="13" Cut="-1.8372536897659302e+00" cType="1" res="-5.4334584623575211e-02" rms="2.3411023616790771e-01" purity="5.2262461185455322e-01" nType="0">
        <Node pos="l" depth="1" NCoef="0" IVar="-1" Cut="0.0000000000000000e+00" cType="1" res="-3.9558504519352845e+31" rms="5.0608116388320923e-01" purity="4.9061852693557739e-01" nType="-99"/>
        <Node pos="r" depth="1" NCoef="0" IVar="4" Cut="3.2353103160858154e-01" cType="1" res="-2.9242208227515221e-02" rms="1.7723114788532257e-01" purity="5.2470219135284424e-01" nType="0">
          <Node pos="l" depth="2" NCoef="0" IVar="-1" Cut="0.0000000000000000e+00" cType="1" res="-3.7508766651153564e+00" rms="3.6181038618087769e-01" purity="1.4329287409782410e-01" nType="-99"/>
          <Node pos="r" depth="2" NCoef="0" IVar="1" Cut="7.4052472114562988e+00" cType="1" res="-1.6391593962907791e-03" rms="9.6486389636993408e-02" purity="5.8924454450607300e-01" nType="0">
            <Node pos="l" depth="3" NCoef="0" IVar="6" Cut="3.9183080662041903e-04" cType="1" res="3.4563508816063404e-03" rms="6.9548867642879486e-02" purity="5.6063288450241089e-01" nType="0">
              <Node pos="l" depth="4" NCoef="0" IVar="-1" Cut="0.0000000000000000e+00" cType="1" res="1.4886374473571777e+00" rms="1.3722074031829834e-01" purity="7.3589670658111572e-01" nType="-99"/>
              <Node pos="r" depth="4" NCoef="0" IVar="-1" Cut="0.0000000000000000e+00" cType="1" res="3.6638024449348450e-01" rms="6.1271570622920990e-02" purity="5.4757922887802124e-01" nType="-99"/>
            </Node>
            <Node pos="r" depth="3" NCoef="0" IVar="-1" Cut="0.0000000000000000e+00" cType="1" res="-5.7128061614198715e+30" rms="2.4383381009101868e-01" purity="9.3651467561721802e-01" nType="-99"/>
          </Node>
        </Node>
      </Node>
    </BinaryTree>
    <BinaryTree type="DecisionTree" boostWeight="1.0000000000000000e+00" itree="29">
      <Node pos="s" depth="0" NCoef="0" IVar="1" Cut="7.4060621261596680e+00" cType="1" res="5.7474389672279358e-02" rms="2.8883695602416992e-01" purity="5.1107162237167358e-01" nType="0">
        <Node pos="l" depth="1" NCoef="0" IVar="12" Cut="-1.7713718414306641e+00" cType="1" res="3.9159441366791725e-03" rms="1.8704541027545929e-01" purity="4.8049369454383850e-01" nType="0">
          <Node pos="l" depth="2" NCoef="0" IVar="-1" Cut="0.0000000000000000e+00" cType="1" res="7.3695390000000000e+06" rms="4.6488350629806519e-01" purity="4.5516201853752136e-01" nType="-99"/>
          <Node pos="r" depth="2" NCoef="0" IVar="11" Cut="1.1048411577939987e-01" cType="1" res="-1.4395895414054394e-02" rms="1.3530202209949493e-01" purity="4.8198041319847107e-01" nType="0">
            <Node pos="l" depth="3" NCoef="0" IVar="-1" Cut="0.0000000000000000e+00" cType="1" res="-1.5654127597808838e+00" rms="2.2416837513446808e-01" purity="1.3672052323818207e-01" nType="-99"/>
            <Node pos="r" depth="3" NCoef="0" IVar="0" Cut="6.2878866195678711e+00" cType="1" res="-1.4658805448561907e-03" rms="1.0607804358005524e-01" purity="5.4678767919540405e-01" nType="0">
              <Node pos="l" depth="4" NCoef="0" IVar="-1" Cut="0.0000000000000000e+00" cType="1" res="-5.6032246351242065e-01" rms="9.6935905516147614e-02" purity="5.1331067085266113e-01" nType="-99"/>
              <Node pos="r" depth="4" NCoef="0" IVar="-1" Cut="0.0000000000000000e+00" cType="1" res="5.4184346199035645e+00" rms="1.8587504327297211e-01" purity="1.0000000000000000e+00" nType="-99"/>
            </Node>
          </Node>
        </Node>
        <Node pos="r" depth="1" NCoef="0" IVar="-1" Cut="0.0000000000000000e+00" cType="1" res="8.1074990131856822e+31" rms="2.8058186173439026e-01" purity="1.0000000000000000e+00" nType="-99"/>
      </Node>
    </BinaryTree>
    <BinaryTree type="DecisionTree" boostWeight="1.0000000000000000e+00" itree="30">
      <Node pos="s" depth="0" NCoef="0" IVar="13" Cut="-1.8375953435897827e+00" cType="1" res="8.0577097833156586e-03" rms="1.9096393883228302e-01" purity="4.7548145055770874e-01" nType="0">
        <Node pos="l" depth="1" NCoef="0" IVar="-1" Cut="0.0000000000000000e+00" cType="1" res="3.0787970140399519e+31" rms="4.7857463359832764e-01" purity="4.7272825241088867e-01" nType="-99"/>
        <Node pos="r" depth="1" NCoef="0" IVar="12" Cut="1.3618024587631226e+00" cType="1" res="-1.2944421730935574e-02" rms="1.3071019947528839e-01" purity="4.7564801573753357e-01" nType="0">
          <Node pos="l" depth="2" NCoef="0" IVar="12" Cut="-1.1194192171096802e+00" cType="1" res="-4.5949430204927921e-03" rms="9.0957872569561005e-02" purity="4.7463330626487732e-01" nType="0">
            <Node pos="l" depth="3" NCoef="0" IVar="11" Cut="5.5049556493759155e-01" cType="1" res="-3.3234845846891403e-02" rms="1.9013381004333496e-01" purity="5.3476762771606445e-01" nType="0">
              <Node pos="l" depth="4" NCoef="0" IVar="-1" Cut="0.0000000000000000e+00" cType="1" res="-1.1412084579467773e+01" rms="1.8814785778522491e-01" purity="4.3041184544563293e-01" nType="-99"/>
              <Node pos="r" depth="4" NCoef="0" IVar="-1" Cut="0.0000000000000000e+00" cType="1" res="-6.4480560302734375e+01" rms="1.9226996600627899e-01" purity="6.5437686443328857e-01" nType="-99"/>
            </Node>
            <Node pos="r" depth="3" NCoef="0" IVar="12" Cut="9.2553269863128662e-01" cType="1" res="-2.0708196097984910e-04" rms="6.2107589095830917e-02" purity="4.6542027592658997e-01" nType="0">
              <Node pos="l" depth="4" NCoef="0" IVar="-1" Cut="0.0000000000000000e+00" cType="1" res="2.8645023703575134e-01" rms="5.9664998203516006e-02" purity="4.6048319339752197e-01" nType="-99"/>
              <Node pos="r" depth="4" NCoef="0" IVar="-1" Cut="0.0000000000000000e+00" cType="1" res="-6.2014466524124146e-01" rms="8.2550756633281708e-02" purity="5.2197420597076416e-01" nType="-99"/>
            </Node>
          </Node>
          <Node pos="r" depth="2" NCoef="0" IVar="6" Cut="2.6511924806982279e-03" cType="1" res="-5.6352578103542328e-02" rms="2.4627277255058289e-01" purity="4.8092329502105713e-01" nType="0">
            <Node pos="l" depth="3" NCoef="0" IVar="-1" Cut="0.0000000000000000e+00" cType="1" res="-2.8074278831481934e+00" rms="3.6064121127128601e-01" purity="6.3844901323318481e-01" nType="-99"/>
            <Node pos="r" depth="3" NCoef="0" IVar="-1" Cut="0.0000000000000000e+00" cType="1" res="3.9273643493652344e+00" rms="8.8934190571308136e-02" purity="3.8599780201911926e-01" nType="-99"/>
          </Node>
        </Node>
      </Node>
    </BinaryTree>
    <BinaryTree type="DecisionTree" boostWeight="1.0000000000000000e+00" itree="31">
      <Node pos="s" depth="0" NCoef="0" IVar="13" Cut="-1.8949972391128540e+00" cType="1" res="-1.7792632803320885e-02" rms="2.7791798114776611e-01" purity="4.7964432835578918e-01" nType="0">
        <Node pos="l" depth="1" NCoef="0" IVar="-1" Cut="0.0000000000000000e+00" cType="1" res="-3.7133239746997710e+31" rms="4.9941363930702209e-01" purity="5.2420759201049805e-01" nType="-99"/>
        <Node pos="r" depth="1" NCoef="0" IVar="12" Cut="-1.1147272586822510e+00" cType="1" res="5.4813660681247711e-03" rms="2.3934882879257202e-01" purity="4.7737973928451538e-01" nType="0">
          <Node pos="l" depth="2" NCoef="0" IVar="11" Cut="5.4479324817657471e-01" cType="1" res="1.6946473717689514e-01" rms="4.9712195992469788e-01" purity="4.7309187054634094e-01" nType="0">
            <Node pos="l" depth="3" NCoef="0" IVar="-1" Cut="0.0000000000000000e+00" cType="1" res="-2.4980771541595459e+00" rms="3.0484986305236816e-01" purity="3.5577866435050964e-01" nType="-99"/>
            <Node pos="r" depth="3" NCoef="0" IVar="-1" Cut="0.0000000000000000e+00" cType="1" res="7.5515617370605469e+01" rms="5.9299963712692261e-01" purity="6.1376082897186279e-01" nType="-99"/>
          </Node>
          <Node pos="r" depth="2" NCoef="0" IVar="4" Cut="3.3034625649452209e-01" cType="1" res="-2.0696315914392471e-02" rms="1.4833801984786987e-01" purity="4.7806426882743835e-01" nType="0">
            <Node pos="l" depth="3" NCoef="0" IVar="-1" Cut="0.0000000000000000e+00" cType="1" res="-2.5538761615753174e+00" rms="2.6507991552352905e-01" purity="9.8559014499187469e-02" nType="-99"/>
            <Node pos="r" depth="3" NCoef="0" IVar="11" Cut="2.0100964605808258e-01" cType="1" res="-2.3478760849684477e-03" rms="8.8682495057582855e-02" purity="5.7638138532638550e-01" nType="0">
              <Node pos="l" depth="4" NCoef="0" IVar="-1" Cut="0.0000000000000000e+00" cType="1" res="-2.5688710212707520e+00" rms="1.3213215768337250e-01" purity="3.8336056470870972e-01" nType="-99"/>
              <Node pos="r" depth="4" NCoef="0" IVar="-1" Cut="0.0000000000000000e+00" cType="1" res="7.5580412149429321e-01" rms="6.7740850150585175e-02" purity="6.3956296443939209e-01" nType="-99"/>
            </Node>
          </Node>
        </Node>
      </Node>
    </BinaryTree>
    <BinaryTree type="DecisionTree" boostWeight="1.0000000000000000e+00" itree="32">
      <Node pos="s" depth="0" NCoef="0" IVar="13" Cut="-1.9026709794998169e+00" cType="1" res="1.1738064698874950e-02" rms="2.3581361770629883e-01" purity="4.9537807703018188e-01" nType="0">
        <Node pos="l" depth="1" NCoef="0" IVar="-1" Cut="0.0000000000000000e+00" cType="1" res="3.0750491022139827e+31" rms="4.8547333478927612e-01" purity="4.3470755219459534e-01" nType="-99"/>
        <Node pos="r" depth="1" NCoef="0" IVar="3" Cut="9.7155165672302246e-01" cType="1" res="-9.6883326768875122e-03" rms="1.9179056584835052e-01" purity="4.9890470504760742e-01" nType="0">
          <Node pos="l" depth="2" NCoef="0" IVar="8" Cut="2.2919803857803345e-02" cType="1" res="-4.3218567967414856e-02" rms="2.1909250319004059e-01" purity="1.8680718541145325e-01" nType="0">
            <Node pos="l" depth="3" NCoef="0" IVar="-1" Cut="0.0000000000000000e+00" cType="1" res="-4.3504362106323242e+00" rms="3.6507067084312439e-01" purity="5.1791667938232422e-01" nType="-99"/>
            <Node pos="r" depth="3" NCoef="0" IVar="6" Cut="3.1869728118181229e-03" cType="1" res="-1.3860355131328106e-02" rms="1.4714267849922180e-01" purity="1.0070911049842834e-01" nType="0">
              <Node pos="l" depth="4" NCoef="0" IVar="-1" Cut="0.0000000000000000e+00" cType="1" res="2.6522431373596191e+00" rms="1.6087798774242401e-01" purity="2.8193423151969910e-01" nType="-99"/>
              <Node pos="r" depth="4" NCoef="0" IVar="-1" Cut="0.0000000000000000e+00" cType="1" res="-1.4873297214508057e+00" rms="1.3928614556789398e-01" purity="3.5149078816175461e-02" nType="-99"/>
            </Node>
          </Node>
          <Node pos="r" depth="2" NCoef="0" IVar="6" Cut="6.5658509265631437e-04" cType="1" res="2.0622119307518005e-02" rms="1.5718746185302734e-01" purity="7.8103256225585938e-01" nType="0">
            <Node pos="l" depth="3" NCoef="0" IVar="-1" Cut="0.0000000000000000e+00" cType="1" res="2.4938898086547852e+00" rms="2.8127303719520569e-01" purity="9.6522086858749390e-01" nType="-99"/>
            <Node pos="r" depth="3" NCoef="0" IVar="12" Cut="-1.1625874042510986e+00" cType="1" res="8.6033307015895844e-03" rms="1.2857472896575928e-01" purity="7.5770181417465210e-01" nType="0">
              <Node pos="l" depth="4" NCoef="0" IVar="-1" Cut="0.0000000000000000e+00" cType="1" res="2.0820014476776123e+00" rms="3.0283579230308533e-01" purity="8.1722986698150635e-01" nType="-99"/>
              <Node pos="r" depth="4" NCoef="0" IVar="-1" Cut="0.0000000000000000e+00" cType="1" res="2.0136158168315887e-01" rms="5.8368850499391556e-02" purity="7.4763715267181396e-01" nType="-99"/>
            </Node>
          </Node>
        </Node>
      </Node>
    </BinaryTree>
    <BinaryTree type="DecisionTree" boostWeight="1.0000000000000000e+00" itree="33">
      <Node pos="s" depth="0" NCoef="0" IVar="12" Cut="-1.7713718414306641e+00" cType="1" res="-3.3564254641532898e-02" rms="2.3145373165607452e-01" purity="5.0767797231674194e-01" nType="0">
        <Node pos="l" depth="1" NCoef="0" IVar="-1" Cut="0.0000000000000000e+00" cType="1" res="-5.9220338649873377e+31" rms="5.3788256645202637e-01" purity="5.3548586368560791e-01" nType="-99"/>
        <Node pos="r" depth="1" NCoef="0" IVar="0" Cut="1.2234512567520142e+00" cType="1" res="5.8075524866580963e-03" rms="1.1091035604476929e-01" purity="5.0470048189163208e-01" nType="0">
          <Node pos="l" depth="2" NCoef="0" IVar="-1" Cut="0.0000000000000000e+00" cType="1" res="-1.0689239501953125e+00" rms="9.7755149006843567e-02" purity="4.3355904519557953e-02" nType="-99"/>
          <Node pos="r" depth="2" NCoef="0" IVar="12" Cut="-1.2153025865554810e+00" cType="1" res="1.2331696227192879e-02" rms="1.1346977204084396e-01" purity="6.3391232490539551e-01" nType="0">
            <Node pos="l" depth="3" NCoef="0" IVar="-1" Cut="0.0000000000000000e+00" cType="1" res="9.3553085327148438e+00" rms="2.5365355610847473e-01" purity="5.9688866138458252e-01" nType="-99"/>
            <Node pos="r" depth="3" NCoef="0" IVar="9" Cut="2.5476910173892975e-02" cType="1" res="7.5423787347972393e-03" rms="9.2424586415290833e-02" purity="6.3680160045623779e-01" nType="0">
              <Node pos="l" depth="4" NCoef="0" IVar="-1" Cut="0.0000000000000000e+00" cType="1" res="6.3755083084106445e+00" rms="1.5183676779270172e-01" purity="1.2477724254131317e-01" nType="-99"/>
              <Node pos="r" depth="4" NCoef="0" IVar="-1" Cut="0.0000000000000000e+00" cType="1" res="6.0985004901885986e-01" rms="5.7540148496627808e-02" purity="8.1801700592041016e-01" nType="-99"/>
            </Node>
          </Node>
        </Node>
      </Node>
    </BinaryTree>
    <BinaryTree type="DecisionTree" boostWeight="1.0000000000000000e+00" itree="34">
      <Node pos="s" depth="0" NCoef="0" IVar="12" Cut="-1.7782691717147827e+00" cType="1" res="-1.3913956470787525e-02" rms="3.1547173857688904e-01" purity="5.1448553800582886e-01" nType="0">
        <Node pos="l" depth="1" NCoef="0" IVar="-1" Cut="0.0000000000000000e+00" cType="1" res="5.7773742849825790e+31" rms="4.9265453219413757e-01" purity="6.8163365125656128e-01" nType="-99"/>
        <Node pos="r" depth="1" NCoef="0" IVar="9" Cut="2.5003576651215553e-02" cType="1" res="-5.7581916451454163e-02" rms="2.4700599908828735e-01" purity="5.0230640172958374e-01" nType="0">
          <Node pos="l" depth="2" NCoef="0" IVar="-1" Cut="0.0000000000000000e+00" cType="1" res="-6.2890419960021973e+00" rms="3.7313824892044067e-01" purity="6.1012517660856247e-02" nType="-99"/>
          <Node pos="r" depth="2" NCoef="0" IVar="2" Cut="2.8323403000831604e-01" cType="1" res="2.0347395911812782e-03" rms="1.2005400657653809e-01" purity="7.0050776004791260e-01" nType="0">
            <Node pos="l" depth="3" NCoef="0" IVar="-1" Cut="0.0000000000000000e+00" cType="1" res="-1.4678088426589966e+00" rms="2.7728360891342163e-01" purity="3.7951305508613586e-01" nType="-99"/>
            <Node pos="r" depth="3" NCoef="0" IVar="3" Cut="3.6899074912071228e-01" cType="1" res="7.8517105430364609e-03" rms="7.8314557671546936e-02" purity="7.4151551723480225e-01" nType="0">
              <Node pos="l" depth="4" NCoef="0" IVar="-1" Cut="0.0000000000000000e+00" cType="1" res="2.4732263088226318e+00" rms="1.6359712183475494e-01" purity="3.5356473922729492e-01" nType="-99"/>
              <Node pos="r" depth="4" NCoef="0" IVar="-1" Cut="0.0000000000000000e+00" cType="1" res="1.0238618850708008e+00" rms="5.3204372525215149e-02" purity="8.0117642879486084e-01" nType="-99"/>
            </Node>
          </Node>
        </Node>
      </Node>
    </BinaryTree>
    <BinaryTree type="DecisionTree" boostWeight="1.0000000000000000e+00" itree="35">
      <Node pos="s" depth="0" NCoef="0" IVar="13" Cut="-1.8969460725784302e+00" cType="1" res="-2.8371037915349007e-02" rms="2.2265227138996124e-01" purity="4.7423112392425537e-01" nType="0">
